{"learner":{"attributes":{"scikit_learn":"{\"_estimator_type\": \"regressor\"}"},"feature_names":["f0_mean_noisy","jitter_local_noisy","shimmer_local_noisy","F1_mean_noisy","F2_mean_noisy","sex","smartphone_model_noisy","task"],"feature_types":["float","float","float","float","float","c","c","c"],"gradient_booster":{"model":{"cats":{"enc":[{"offsets":[],"values":[]},{"offsets":[],"values":[]},{"offsets":[],"values":[]},{"offsets":[],"values":[]},{"offsets":[],"values":[]},{"offsets":[0,1,2],"values":[70,77]},{"offsets":[0,9,18,27,41,50,64,77,86,95,104,114,123,134,145,154],"values":[73,80,72,79,78,69,32,88,82,73,80,72,79,78,69,-62,-96,49,49,73,80,72,79,78,69,-62,-96,49,50,73,80,72,79,78,69,-62,-96,49,50,32,77,73,78,73,73,80,72,79,78,69,-62,-96,49,51,73,80,72,79,78,69,-62,-96,49,51,32,77,73,78,73,73,80,72,79,78,69,-62,-96,49,51,32,80,82,79,73,80,72,79,78,69,-62,-96,49,52,73,80,72,79,78,69,-62,-96,49,53,73,80,72,79,78,69,-62,-96,49,54,73,80,72,79,78,69,-62,-96,49,54,69,73,80,72,79,78,69,-62,-96,49,55,83,65,77,83,85,78,71,32,65,51,52,83,65,77,83,85,78,71,32,83]},{"offsets":[0,1,6,7,8,9],"values":[97,103,108,105,100,101,105,112,117]}],"feature_segments":[0,0,0,0,0,0,2,17,22],"sorted_idx":[0,1,5,6,3,7,2,12,9,4,1,0,8,11,10,13,14,0,1,2,3,4]},"gbtree_model_param":{"num_parallel_tree":"1","num_trees":"68"},"iteration_indptr":[0,1,2,3,4,5,6,7,8,9,10,11,12,13,14,15,16,17,18,19,20,21,22,23,24,25,26,27,28,29,30,31,32,33,34,35,36,37,38,39,40,41,42,43,44,45,46,47,48,49,50,51,52,53,54,55,56,57,58,59,60,61,62,63,64,65,66,67,68],"tree_info":[0,0,0,0,0,0,0,0,0,0,0,0,0,0,0,0,0,0,0,0,0,0,0,0,0,0,0,0,0,0,0,0,0,0,0,0,0,0,0,0,0,0,0,0,0,0,0,0,0,0,0,0,0,0,0,0,0,0,0,0,0,0,0,0,0,0,0,0],"trees":[{"base_weights":[-4.0395513E-1,-7.3299913E0,2.0294579E1,-1.8976368E1,-2.631779E0,6.849472E1,1.1450842E1,-1.7463817E-1,-4.460233E-1,5.3840905E-1,-3.6436092E-2,1.6127111E-1,8.5648656E-1,5.150664E-2,3.5593927E-1],"categories":[0,1,2,4,4,0,2,3,4],"categories_nodes":[2,3,4],"categories_segments":[0,4,5],"categories_sizes":[4,1,4],"default_left":[0,0,1,1,1,0,0,0,0,0,0,0,0,0,0],"id":0,"left_children":[1,3,5,7,9,11,13,-1,-1,-1,-1,-1,-1,-1,-1],"loss_changes":[9.6629234E4,2.7582219E4,7.125521E4,6.1688984E3,1.8542025E4,1.9323414E4,2.135825E4,0E0,0E0,0E0,0E0,0E0,0E0,0E0,0E0],"parents":[2147483647,0,0,1,1,2,2,3,3,4,4,5,5,6,6],"right_children":[2,4,6,8,10,12,14,-1,-1,-1,-1,-1,-1,-1,-1],"split_conditions":[1.9242132E-1,8.9675814E-2,1E-45,1E-45,1E-45,1.6574407E-2,4.066738E-2,-1.7463817E-1,-4.460233E-1,5.3840905E-1,-3.6436092E-2,1.6127111E-1,8.5648656E-1,5.150664E-2,3.5593927E-1],"split_indices":[2,2,7,6,7,1,1,0,0,0,0,0,0,0,0],"split_type":[0,0,1,1,1,0,0,0,0,0,0,0,0,0,0],"sum_hessian":[6.72E2,5.04E2,1.68E2,1.44E2,3.6E2,2.5E1,1.43E2,1.35E2,9E0,5E0,3.55E2,6E0,1.9E1,1.13E2,3E1],"tree_param":{"num_deleted":"0","num_feature":"8","num_nodes":"15","size_leaf_vector":"1"}},{"base_weights":[1.1090887E-1,-6.5259876E0,2.2360819E1,5.630159E-1,-7.3452406E0,7.1190125E1,1.2047342E1,-1.8722796E-1,-3.406276E-2,1.1671108E0,4.0404788E-1,2.1516883E-1,-4.852299E-2],"categories":[0,2,3,4,0,1,2,4,0,1,4,5,6,10,11],"categories_nodes":[1,2,6],"categories_segments":[0,4,8],"categories_sizes":[4,4,7],"default_left":[0,1,1,0,0,0,1,0,0,0,0,0,0],"id":1,"left_children":[1,3,5,-1,7,9,11,-1,-1,-1,-1,-1,-1],"loss_changes":[1.0026642E5,2.6728496E4,7.770393E4,0E0,2.2643182E4,3.210675E4,1.9599432E4,0E0,0E0,0E0,0E0,0E0,0E0],"parents":[2147483647,0,0,1,1,2,2,4,4,5,5,6,6],"right_children":[2,4,6,-1,8,10,12,-1,-1,-1,-1,-1,-1],"split_conditions":[1.971785E-1,1E-45,1E-45,5.630159E-1,8.9675814E-2,1.4862714E2,1E-45,-1.8722796E-1,-3.406276E-2,1.1671108E0,4.0404788E-1,2.1516883E-1,-4.852299E-2],"split_indices":[2,7,7,0,2,0,6,0,0,0,0,0,0],"split_type":[0,1,1,0,0,0,1,0,0,0,0,0,0],"sum_hessian":[6.77E2,5.22E2,1.55E2,6E0,5.16E2,2.6E1,1.29E2,1.38E2,3.78E2,1E1,1.6E1,8.4E1,4.5E1],"tree_param":{"num_deleted":"0","num_feature":"8","num_nodes":"13","size_leaf_vector":"1"}},{"base_weights":[-8.2395665E-2,-7.1122046E0,2.0239882E1,-1.8873232E1,-2.1086276E0,6.596064E1,1.10197315E1,-1.1914748E-1,-2.4744904E-1,5.5806816E-1,-3.3217352E-2,1.0581665E0,3.4445757E-1,4.738508E-2,3.3616528E-1],"categories":[0,1,2,4,0,2,3,4],"categories_nodes":[2,4],"categories_segments":[0,4],"categories_sizes":[4,4],"default_left":[0,0,1,0,1,0,0,0,0,0,0,0,0,0,0],"id":2,"left_children":[1,3,5,7,9,11,13,-1,-1,-1,-1,-1,-1,-1,-1],"loss_changes":[9.6718484E4,2.9560344E4,7.262322E4,5.443426E3,2.281831E4,3.149171E4,2.0182418E4,0E0,0E0,0E0,0E0,0E0,0E0,0E0,0E0],"parents":[2147483647,0,0,1,1,2,2,3,3,4,4,5,5,6,6],"right_children":[2,4,6,8,10,12,14,-1,-1,-1,-1,-1,-1,-1,-1],"split_conditions":[1.9242132E-1,8.9675814E-2,1E-45,1.3830817E2,1E-45,1.4862714E2,4.066738E-2,-1.1914748E-1,-2.4744904E-1,5.5806816E-1,-3.3217352E-2,1.0581665E0,3.4445757E-1,4.738508E-2,3.3616528E-1],"split_indices":[2,2,7,0,7,0,1,0,0,0,0,0,0,0,0],"split_type":[0,0,1,0,1,0,0,0,0,0,0,0,0,0,0],"sum_hessian":[6.75E2,5.02E2,1.73E2,1.49E2,3.53E2,2.8E1,1.45E2,6.4E1,8.5E1,6E0,3.47E2,1.2E1,1.6E1,1.13E2,3.2E1],"tree_param":{"num_deleted":"0","num_feature":"8","num_nodes":"15","size_leaf_vector":"1"}},{"base_weights":[2.1990684E-1,-6.9737706E0,2.11567E1,-1.8698084E1,-2.0935712E0,6.430046E1,1.168537E1,-1.5000997E-1,-3.2304955E-1,5.531638E-1,-3.248659E-2,1.048152E0,3.7350532E-1,3.263367E-1,4.8023064E-2],"categories":[0,1,2,4,0,2,3,4,0,1,4,5,6,7,10,11,12,13,14],"categories_nodes":[2,4,6],"categories_segments":[0,4,8],"categories_sizes":[4,4,11],"default_left":[0,0,1,0,1,0,1,0,0,0,0,0,0,0,0],"id":3,"left_children":[1,3,5,7,9,11,13,-1,-1,-1,-1,-1,-1,-1,-1],"loss_changes":[1.0542571E5,2.977091E4,7.239318E4,7.5100547E3,2.2403691E4,3.0105047E4,2.0724348E4,0E0,0E0,0E0,0E0,0E0,0E0,0E0,0E0],"parents":[2147483647,0,0,1,1,2,2,3,3,4,4,5,5,6,6],"right_children":[2,4,6,8,10,12,14,-1,-1,-1,-1,-1,-1,-1,-1],"split_conditions":[1.9242132E-1,8.9675814E-2,1E-45,2.3327739E2,1E-45,1.4862714E2,1E-45,-1.5000997E-1,-3.2304955E-1,5.531638E-1,-3.248659E-2,1.048152E0,3.7350532E-1,3.263367E-1,4.8023064E-2],"split_indices":[2,2,7,0,7,0,6,0,0,0,0,0,0,0,0],"split_type":[0,0,1,0,1,0,1,0,0,0,0,0,0,0,0],"sum_hessian":[6.98E2,5.2E2,1.78E2,1.52E2,3.68E2,3.1E1,1.47E2,1.17E2,3.5E1,6E0,3.62E2,1.2E1,1.9E1,3.7E1,1.1E2],"tree_param":{"num_deleted":"0","num_feature":"8","num_nodes":"15","size_leaf_vector":"1"}},{"base_weights":[-2.0270354E-1,-1.0276834E1,1.3048025E1,5.5168587E-1,-1.108452E1,4.4157043E1,6.052426E0,-9.9736996E-2,-3.4932616E-1,1.934798E-1,7.687275E-1,2.7850372E-1,5.656964E-3],"categories":[0,2,3,4,0,1,2,4,4,0,1,4,5,6,7,10,11,12,13,14],"categories_nodes":[1,2,4,6],"categories_segments":[0,4,8,9],"categories_sizes":[4,4,1,11],"default_left":[0,1,1,0,1,0,1,0,0,0,0,0,0],"id":4,"left_children":[1,3,5,-1,7,9,11,-1,-1,-1,-1,-1,-1],"loss_changes":[9.117398E4,2.0679797E4,6.393248E4,0E0,1.1643648E4,4.066942E4,2.8087902E4,0E0,0E0,0E0,0E0,0E0,0E0],"parents":[2147483647,0,0,1,1,2,2,4,4,5,5,6,6],"right_children":[2,4,6,-1,8,10,12,-1,-1,-1,-1,-1,-1],"split_conditions":[1.5911008E-1,1E-45,1E-45,5.5168587E-1,1E-45,1.6887544E-2,1E-45,-9.9736996E-2,-3.4932616E-1,1.934798E-1,7.687275E-1,2.7850372E-1,5.656964E-3],"split_indices":[2,7,7,0,6,1,6,0,0,0,0,0,0],"split_type":[0,1,1,0,1,0,1,0,0,0,0,0,0],"sum_hessian":[6.81E2,3.87E2,2.94E2,4E0,3.83E2,5.3E1,2.41E2,3.63E2,2E1,3E1,2.3E1,4.9E1,1.92E2],"tree_param":{"num_deleted":"0","num_feature":"8","num_nodes":"13","size_leaf_vector":"1"}},{"base_weights":[-2.029554E-1,-6.8390536E0,1.9860847E1,-1.8165255E1,-2.067735E0,6.606553E1,1.0417814E1,-1.4895056E-1,-3.0878016E-1,-7.6172434E-2,8.714301E-2,1.1910172E-1,8.8434356E-1,3.2320237E-1,4.2098653E-2],"categories":[0,1,2,4,0,1,4,5,6,7,10,11,12,13,14],"categories_nodes":[2,6],"categories_segments":[0,4],"categories_sizes":[4,11],"default_left":[0,0,1,0,0,0,1,0,0,0,0,0,0,0,0],"id":5,"left_children":[1,3,5,7,9,11,13,-1,-1,-1,-1,-1,-1,-1,-1],"loss_changes":[9.213928E4,2.8063713E4,7.435746E4,6.257164E3,2.08571E4,3.0877219E4,1.9053371E4,0E0,0E0,0E0,0E0,0E0,0E0,0E0,0E0],"parents":[2147483647,0,0,1,1,2,2,3,3,4,4,5,5,6,6],"right_children":[2,4,6,8,10,12,14,-1,-1,-1,-1,-1,-1,-1,-1],"split_conditions":[1.9242132E-1,8.9675814E-2,1E-45,2.3377176E2,6.6528577E2,1.6887544E-2,1E-45,-1.4895056E-1,-3.0878016E-1,-7.6172434E-2,8.714301E-2,1.1910172E-1,8.8434356E-1,3.2320237E-1,4.2098653E-2],"split_indices":[2,2,7,0,3,1,6,0,0,0,0,0,0,0,0],"split_type":[0,0,1,0,0,0,1,0,0,0,0,0,0,0,0],"sum_hessian":[6.9E2,5.19E2,1.71E2,1.53E2,3.66E2,2.8E1,1.43E2,1.19E2,3.4E1,2.43E2,1.23E2,8E0,2E1,3.2E1,1.11E2],"tree_param":{"num_deleted":"0","num_feature":"8","num_nodes":"15","size_leaf_vector":"1"}},{"base_weights":[-1.2390602E-1,-7.38005E0,2.0482624E1,-1.8835186E1,-2.6964567E0,6.3574356E1,1.1842923E1,-1.097588E-1,-2.5630358E-1,-8.31372E-2,8.4018074E-2,1.3521579E-1,8.6676586E-1,2.0552337E-1,-4.9162153E-2],"categories":[0,1,2,4,0,1,4,5,6,10,11],"categories_nodes":[2,6],"categories_segments":[0,4],"categories_sizes":[4,7],"default_left":[0,0,1,0,0,0,1,0,0,0,0,0,0,0,0],"id":6,"left_children":[1,3,5,7,9,11,13,-1,-1,-1,-1,-1,-1,-1,-1],"loss_changes":[1.0392078E5,2.7525926E4,6.663333E4,7.1984766E3,2.1641086E4,3.0576836E4,2.0840973E4,0E0,0E0,0E0,0E0,0E0,0E0,0E0,0E0],"parents":[2147483647,0,0,1,1,2,2,3,3,4,4,5,5,6,6],"right_children":[2,4,6,8,10,12,14,-1,-1,-1,-1,-1,-1,-1,-1],"split_conditions":[1.9242132E-1,8.9675814E-2,1E-45,1.3830817E2,6.6528577E2,1.6887544E-2,1E-45,-1.097588E-1,-2.5630358E-1,-8.31372E-2,8.4018074E-2,1.3521579E-1,8.6676586E-1,2.0552337E-1,-4.9162153E-2],"split_indices":[2,2,7,0,3,1,6,0,0,0,0,0,0,0,0],"split_type":[0,0,1,0,0,0,1,0,0,0,0,0,0,0,0],"sum_hessian":[6.93E2,5.13E2,1.8E2,1.48E2,3.65E2,2.9E1,1.51E2,6.5E1,8.3E1,2.44E2,1.21E2,9E0,2E1,1.01E2,5E1],"tree_param":{"num_deleted":"0","num_feature":"8","num_nodes":"15","size_leaf_vector":"1"}},{"base_weights":[5.365323E-2,-6.283997E0,2.2070467E1,-1.8582977E1,-1.7928057E0,6.908183E1,1.2424219E1,-1.4756238E-1,-3.188812E-1,-7.355378E-2,9.380333E-2,1.188738E0,3.8398567E-1,2.1953236E-1,-6.2025197E-2],"categories":[0,1,2,4,0,1,4,5,6,10,11],"categories_nodes":[2,6],"categories_segments":[0,4],"categories_sizes":[4,7],"default_left":[0,0,1,0,0,0,1,0,0,0,0,0,0,0,0],"id":7,"left_children":[1,3,5,7,9,11,13,-1,-1,-1,-1,-1,-1,-1,-1],"loss_changes":[9.613868E4,2.9518518E4,6.897814E4,7.054258E3,2.3206193E4,3.4195742E4,2.1548996E4,0E0,0E0,0E0,0E0,0E0,0E0,0E0,0E0],"parents":[2147483647,0,0,1,1,2,2,3,3,4,4,5,5,6,6],"right_children":[2,4,6,8,10,12,14,-1,-1,-1,-1,-1,-1,-1,-1],"split_conditions":[1.971785E-1,8.9675814E-2,1E-45,2.3327739E2,6.742812E2,1.4862714E2,1E-45,-1.4756238E-1,-3.188812E-1,-7.355378E-2,9.380333E-2,1.188738E0,3.8398567E-1,2.1953236E-1,-6.2025197E-2],"split_indices":[2,2,7,0,3,0,6,0,0,0,0,0,0,0,0],"split_type":[0,0,1,0,0,0,1,0,0,0,0,0,0,0,0],"sum_hessian":[6.87E2,5.34E2,1.53E2,1.42E2,3.92E2,2.5E1,1.28E2,1.08E2,3.4E1,2.63E2,1.29E2,9E0,1.6E1,8.6E1,4.2E1],"tree_param":{"num_deleted":"0","num_feature":"8","num_nodes":"15","size_leaf_vector":"1"}},{"base_weights":[3.7176818E-1,-6.517658E0,2.068156E1,-1.6947922E1,-2.2015672E0,6.009302E1,1.2384834E1,-1.4140743E-1,-2.9339904E-1,-8.933355E-2,6.3107364E-2,1.04207E0,3.146637E-1,2.1074037E-1,-4.142915E-2],"categories":[0,1,2,4,0,1,4,5,6,7,10,11,13,14],"categories_nodes":[2,6],"categories_segments":[0,4],"categories_sizes":[4,10],"default_left":[0,0,1,0,0,0,1,0,0,0,0,0,0,0,0],"id":8,"left_children":[1,3,5,7,9,11,13,-1,-1,-1,-1,-1,-1,-1,-1],"loss_changes":[9.612185E4,2.3056902E4,5.6151336E4,5.1288125E3,1.986108E4,3.3526633E4,1.9541244E4,0E0,0E0,0E0,0E0,0E0,0E0,0E0,0E0],"parents":[2147483647,0,0,1,1,2,2,3,3,4,4,5,5,6,6],"right_children":[2,4,6,8,10,12,14,-1,-1,-1,-1,-1,-1,-1,-1],"split_conditions":[1.9242132E-1,8.9675814E-2,1E-45,7.507615E2,6.292008E2,1.4862714E2,1E-45,-1.4140743E-1,-2.9339904E-1,-8.933355E-2,6.3107364E-2,1.04207E0,3.146637E-1,2.1074037E-1,-4.142915E-2],"split_indices":[2,2,7,3,3,0,6,0,0,0,0,0,0,0,0],"split_type":[0,0,1,0,0,0,1,0,0,0,0,0,0,0,0],"sum_hessian":[6.85E2,5.12E2,1.73E2,1.49E2,3.63E2,2.9E1,1.44E2,1.19E2,3E1,2.04E2,1.59E2,1.1E1,1.8E1,9.6E1,4.8E1],"tree_param":{"num_deleted":"0","num_feature":"8","num_nodes":"15","size_leaf_vector":"1"}},{"base_weights":[1.9600247E-1,-8.921622E0,1.2279306E1,5.405713E-1,-1.0030818E1,4.016174E1,5.7842937E0,-1.6853832E-1,-6.441224E-2,1.2223976E-1,7.2999716E-1,3.1363484E-1,3.2050333E-3],"categories":[0,2,3,4,0,1,2,4,0,1,4,5,6,7,10,11,12,13,14],"categories_nodes":[1,2,6],"categories_segments":[0,4,8],"categories_sizes":[4,4,11],"default_left":[0,1,1,0,0,0,1,0,0,0,0,0,0],"id":9,"left_children":[1,3,5,-1,7,9,11,-1,-1,-1,-1,-1,-1],"loss_changes":[7.4805516E4,2.6991154E4,5.2647957E4,0E0,9.047594E3,4.7358945E4,3.2294621E4,0E0,0E0,0E0,0E0,0E0,0E0],"parents":[2147483647,0,0,1,1,2,2,4,4,5,5,6,6],"right_children":[2,4,6,-1,8,10,12,-1,-1,-1,-1,-1,-1],"split_conditions":[1.5911008E-1,1E-45,1E-45,5.405713E-1,8.859615E-2,1.6574407E-2,1E-45,-1.6853832E-1,-6.441224E-2,1.2223976E-1,7.2999716E-1,3.1363484E-1,3.2050333E-3],"split_indices":[2,7,7,0,2,1,6,0,0,0,0,0,0],"split_type":[0,1,1,0,0,0,1,0,0,0,0,0,0],"sum_hessian":[6.77E2,3.86E2,2.91E2,6E0,3.8E2,5.4E1,2.37E2,1.39E2,2.41E2,2.9E1,2.5E1,4.2E1,1.95E2],"tree_param":{"num_deleted":"0","num_feature":"8","num_nodes":"13","size_leaf_vector":"1"}},{"base_weights":[3.0970085E-1,-6.308512E0,2.0588263E1,5.358207E-1,-7.08782E0,6.2040028E1,1.2037986E1,-1.7256224E-1,-3.148302E-2,9.807004E-1,4.0308055E-1,6.0398225E-2,3.4014696E-1],"categories":[0,2,3,4,0,1,2,4],"categories_nodes":[1,2],"categories_segments":[0,4],"categories_sizes":[4,4],"default_left":[0,1,1,0,0,0,0,0,0,0,0,0,0],"id":10,"left_children":[1,3,5,-1,7,9,11,-1,-1,-1,-1,-1,-1],"loss_changes":[9.327012E4,2.4287906E4,5.985968E4,0E0,2.0222393E4,1.8391625E4,1.8385703E4,0E0,0E0,0E0,0E0,0E0,0E0],"parents":[2147483647,0,0,1,1,2,2,4,4,5,5,6,6],"right_children":[2,4,6,-1,8,10,12,-1,-1,-1,-1,-1,-1],"split_conditions":[1.9302638E-1,1E-45,1E-45,5.358207E-1,8.9675814E-2,1.4862714E2,4.066738E-2,-1.7256224E-1,-3.148302E-2,9.807004E-1,4.0308055E-1,6.0398225E-2,3.4014696E-1],"split_indices":[2,7,7,0,2,0,1,0,0,0,0,0,0],"split_type":[0,1,1,0,0,0,0,0,0,0,0,0,0],"sum_hessian":[6.93E2,5.23E2,1.7E2,6E0,5.17E2,2.8E1,1.42E2,1.5E2,3.67E2,1E1,1.8E1,1.11E2,3.1E1],"tree_param":{"num_deleted":"0","num_feature":"8","num_nodes":"13","size_leaf_vector":"1"}},{"base_weights":[-6.8867236E-1,-6.8568997E0,1.833723E1,-1.7387281E1,-2.5224347E0,5.5690083E1,9.41349E0,-1.37441E-1,-3.037289E-1,5.6284463E-1,-3.39216E-2,1.9315517E-1,7.8800607E-1,2.9087873E-2,3.2395267E-1],"categories":[0,1,2,4,0,2,3,4],"categories_nodes":[2,4],"categories_segments":[0,4],"categories_sizes":[4,4],"default_left":[0,0,1,0,1,0,0,0,0,0,0,0,0,0,0],"id":11,"left_children":[1,3,5,7,9,11,13,-1,-1,-1,-1,-1,-1,-1,-1],"loss_changes":[8.0045234E4,2.3462578E4,5.5141395E4,6.91191E3,1.6702463E4,2.3514219E4,1.9750922E4,0E0,0E0,0E0,0E0,0E0,0E0,0E0,0E0],"parents":[2147483647,0,0,1,1,2,2,3,3,4,4,5,5,6,6],"right_children":[2,4,6,8,10,12,14,-1,-1,-1,-1,-1,-1,-1,-1],"split_conditions":[1.9242132E-1,8.9675814E-2,1E-45,7.492521E2,1E-45,1.7791502E-2,4.066738E-2,-1.37441E-1,-3.037289E-1,5.6284463E-1,-3.39216E-2,1.9315517E-1,7.8800607E-1,2.9087873E-2,3.2395267E-1],"split_indices":[2,2,7,3,7,1,1,0,0,0,0,0,0,0,0],"split_type":[0,0,1,0,1,0,0,0,0,0,0,0,0,0,0],"sum_hessian":[6.8E2,5.14E2,1.66E2,1.49E2,3.65E2,3.1E1,1.35E2,1.14E2,3.5E1,4E0,3.61E2,1.2E1,1.9E1,1.05E2,3E1],"tree_param":{"num_deleted":"0","num_feature":"8","num_nodes":"15","size_leaf_vector":"1"}},{"base_weights":[-1.0525964E0,-9.79793E0,1.0432952E1,5.2992976E-1,-1.0577056E1,3.8923958E1,4.4351063E0,-1.7473897E-1,-6.714529E-2,1.7537692E-1,7.370387E-1,2.561669E-1,-6.095946E-3],"categories":[0,2,3,4,0,1,2,4,0,1,4,5,6,7,10,11,12,13,14],"categories_nodes":[1,2,6],"categories_segments":[0,4,8],"categories_sizes":[4,4,11],"default_left":[0,1,1,0,0,0,1,0,0,0,0,0,0],"id":12,"left_children":[1,3,5,-1,7,9,11,-1,-1,-1,-1,-1,-1],"loss_changes":[6.8304336E4,1.9037816E4,5.0067453E4,0E0,9.837902E3,3.545015E4,2.5234951E4,0E0,0E0,0E0,0E0,0E0,0E0],"parents":[2147483647,0,0,1,1,2,2,4,4,5,5,6,6],"right_children":[2,4,6,-1,8,10,12,-1,-1,-1,-1,-1,-1],"split_conditions":[1.5988882E-1,1E-45,1E-45,5.2992976E-1,8.9675814E-2,1.6887544E-2,1E-45,-1.7473897E-1,-6.714529E-2,1.7537692E-1,7.370387E-1,2.561669E-1,-6.095946E-3],"split_indices":[2,7,7,0,2,1,6,0,0,0,0,0,0],"split_type":[0,1,1,0,0,0,1,0,0,0,0,0,0],"sum_hessian":[6.78E2,3.85E2,2.93E2,4E0,3.81E2,5E1,2.43E2,1.45E2,2.36E2,3.1E1,1.9E1,4.7E1,1.96E2],"tree_param":{"num_deleted":"0","num_feature":"8","num_nodes":"13","size_leaf_vector":"1"}},{"base_weights":[2.684494E-1,-5.894366E0,2.0477755E1,-1.680146E1,-1.2752577E0,6.2234955E1,1.1974627E1,-1.3192032E-1,-3.0910406E-1,-8.064619E-2,8.4172085E-2,1.0888464E0,3.5219872E-1,2.2488686E-1,-2.9847272E-2],"categories":[0,1,2,4],"categories_nodes":[2],"categories_segments":[0],"categories_sizes":[4],"default_left":[0,0,1,0,0,0,0,0,0,0,0,0,0,0,0],"id":13,"left_children":[1,3,5,7,9,11,13,-1,-1,-1,-1,-1,-1,-1,-1],"loss_changes":[8.58085E4,2.657977E4,5.6420508E4,7.8569453E3,2.331902E4,2.945143E4,2.0078893E4,0E0,0E0,0E0,0E0,0E0,0E0,0E0,0E0],"parents":[2147483647,0,0,1,1,2,2,3,3,4,4,5,5,6,6],"right_children":[2,4,6,8,10,12,14,-1,-1,-1,-1,-1,-1,-1,-1],"split_conditions":[1.971785E-1,9.2305385E-2,1E-45,2.3377176E2,6.292008E2,1.4862714E2,1.6918962E2,-1.3192032E-1,-3.0910406E-1,-8.064619E-2,8.4172085E-2,1.0888464E0,3.5219872E-1,2.2488686E-1,-2.9847272E-2],"split_indices":[2,2,7,0,3,0,0,0,0,0,0,0,0,0,0],"split_type":[0,0,1,0,0,0,0,0,0,0,0,0,0,0,0],"sum_hessian":[6.87E2,5.27E2,1.6E2,1.56E2,3.71E2,2.6E1,1.34E2,1.22E2,3.4E1,2.19E2,1.52E2,9E0,1.7E1,8E1,5.4E1],"tree_param":{"num_deleted":"0","num_feature":"8","num_nodes":"15","size_leaf_vector":"1"}},{"base_weights":[5.369683E-1,-5.8494725E0,1.8211388E1,-1.6159752E1,-1.6046684E0,5.560701E1,1.0710861E1,-1.2311159E-1,-3.022883E-1,-1.09326504E-1,4.1458003E-2,1.4990725E-1,7.7273303E-1,3.4209657E-1,5.690556E-2],"categories":[0,1,2,4,0,1,2,4,5,6,7,10,11,12,13,14],"categories_nodes":[2,6],"categories_segments":[0,4],"categories_sizes":[4,12],"default_left":[0,0,1,0,0,0,1,0,0,0,0,0,0,0,0],"id":14,"left_children":[1,3,5,7,9,11,13,-1,-1,-1,-1,-1,-1,-1,-1],"loss_changes":[7.6975516E4,2.1900396E4,5.0172516E4,7.7229297E3,1.8257947E4,2.3196602E4,1.7586004E4,0E0,0E0,0E0,0E0,0E0,0E0,0E0,0E0],"parents":[2147483647,0,0,1,1,2,2,3,3,4,4,5,5,6,6],"right_children":[2,4,6,8,10,12,14,-1,-1,-1,-1,-1,-1,-1,-1],"split_conditions":[1.9242132E-1,8.9675814E-2,1E-45,7.507615E2,4.295215E2,1.6887544E-2,1E-45,-1.2311159E-1,-3.022883E-1,-1.09326504E-1,4.1458003E-2,1.4990725E-1,7.7273303E-1,3.4209657E-1,5.690556E-2],"split_indices":[2,2,7,3,3,1,6,0,0,0,0,0,0,0,0],"split_type":[0,0,1,0,0,0,1,0,0,0,0,0,0,0,0],"sum_hessian":[6.8E2,5E2,1.8E2,1.45E2,3.55E2,2.9E1,1.51E2,1.12E2,3.3E1,1.36E2,2.19E2,1E1,1.9E1,2.7E1,1.24E2],"tree_param":{"num_deleted":"0","num_feature":"8","num_nodes":"15","size_leaf_vector":"1"}},{"base_weights":[1.5284196E-1,-6.0141697E0,1.916085E1,-1.6396566E1,-1.8062658E0,5.9618572E1,1.0416931E1,-1.28148E-1,-3.0185223E-1,5.204045E-1,-2.8720021E-2,1.0021648E0,3.3218637E-1,1.8991455E-1,-4.3592297E-2],"categories":[0,1,2,4,0,2,3,4],"categories_nodes":[2,4],"categories_segments":[0,4],"categories_sizes":[4,4],"default_left":[0,0,1,0,1,0,0,0,0,0,0,0,0,0,0],"id":15,"left_children":[1,3,5,7,9,11,13,-1,-1,-1,-1,-1,-1,-1,-1],"loss_changes":[8.135051E4,2.2862963E4,5.9517996E4,7.3093164E3,1.9701947E4,2.7966773E4,1.684527E4,0E0,0E0,0E0,0E0,0E0,0E0,0E0,0E0],"parents":[2147483647,0,0,1,1,2,2,3,3,4,4,5,5,6,6],"right_children":[2,4,6,8,10,12,14,-1,-1,-1,-1,-1,-1,-1,-1],"split_conditions":[1.9302638E-1,8.9675814E-2,1E-45,2.3327739E2,1E-45,1.4862714E2,1.5248481E3,-1.28148E-1,-3.0185223E-1,5.204045E-1,-2.8720021E-2,1.0021648E0,3.3218637E-1,1.8991455E-1,-4.3592297E-2],"split_indices":[2,2,7,0,7,0,4,0,0,0,0,0,0,0,0],"split_type":[0,0,1,0,1,0,0,0,0,0,0,0,0,0,0],"sum_hessian":[6.92E2,5.23E2,1.69E2,1.5E2,3.73E2,2.9E1,1.4E2,1.17E2,3.3E1,6E0,3.67E2,1.1E1,1.8E1,9E1,5E1],"tree_param":{"num_deleted":"0","num_feature":"8","num_nodes":"15","size_leaf_vector":"1"}},{"base_weights":[-4.8696283E-1,-6.58983E0,1.7824554E1,-1.6848946E1,-2.3639288E0,5.658112E1,9.610417E0,-1.3219841E-1,-2.975668E-1,-1.1533067E-1,3.0610183E-2,1.0338162E0,3.242493E-1,3.3510685E-1,3.850929E-2],"categories":[0,1,2,4,0,1,2,4,5,6,7,10,11,12,13,14],"categories_nodes":[2,6],"categories_segments":[0,4],"categories_sizes":[4,12],"default_left":[0,0,1,0,0,0,1,0,0,0,0,0,0,0,0],"id":16,"left_children":[1,3,5,7,9,11,13,-1,-1,-1,-1,-1,-1,-1,-1],"loss_changes":[7.465655E4,2.1680525E4,5.262096E4,6.6554688E3,1.6954188E4,2.8836844E4,1.865426E4,0E0,0E0,0E0,0E0,0E0,0E0,0E0,0E0],"parents":[2147483647,0,0,1,1,2,2,3,3,4,4,5,5,6,6],"right_children":[2,4,6,8,10,12,14,-1,-1,-1,-1,-1,-1,-1,-1],"split_conditions":[1.9302638E-1,8.9675814E-2,1E-45,2.3327739E2,4.295215E2,1.4862714E2,1E-45,-1.3219841E-1,-2.975668E-1,-1.1533067E-1,3.0610183E-2,1.0338162E0,3.242493E-1,3.3510685E-1,3.850929E-2],"split_indices":[2,2,7,0,3,0,6,0,0,0,0,0,0,0,0],"split_type":[0,0,1,0,0,0,1,0,0,0,0,0,0,0,0],"sum_hessian":[6.66E2,5E2,1.66E2,1.45E2,3.55E2,2.8E1,1.38E2,1.11E2,3.4E1,1.33E2,2.22E2,9E0,1.9E1,2.7E1,1.11E2],"tree_param":{"num_deleted":"0","num_feature":"8","num_nodes":"15","size_leaf_vector":"1"}},{"base_weights":[5.956006E-1,-8.821915E0,1.2079929E1,5.0609034E-1,-9.749108E0,4.104836E1,5.4000883E0,-1.7002058E-1,-5.698893E-2,1.6893293E-1,7.365603E-1,2.7809465E-1,-5.937124E-4],"categories":[0,2,3,4,0,1,2,4,0,1,4,5,6,7,10,11,12,13,14],"categories_nodes":[1,2,6],"categories_segments":[0,4,8],"categories_sizes":[4,4,11],"default_left":[0,1,1,0,0,0,1,0,0,0,0,0,0],"id":17,"left_children":[1,3,5,-1,7,9,11,-1,-1,-1,-1,-1,-1],"loss_changes":[7.321856E4,2.0549697E4,5.8797203E4,0E0,1.0418223E4,4.194314E4,2.9525357E4,0E0,0E0,0E0,0E0,0E0,0E0],"parents":[2147483647,0,0,1,1,2,2,4,4,5,5,6,6],"right_children":[2,4,6,-1,8,10,12,-1,-1,-1,-1,-1,-1],"split_conditions":[1.5911008E-1,1E-45,1E-45,5.0609034E-1,8.9675814E-2,1.6887544E-2,1E-45,-1.7002058E-1,-5.698893E-2,1.6893293E-1,7.365603E-1,2.7809465E-1,-5.937124E-4],"split_indices":[2,7,7,0,2,1,6,0,0,0,0,0,0],"split_type":[0,1,1,0,0,0,1,0,0,0,0,0,0],"sum_hessian":[6.75E2,3.71E2,3.04E2,5E0,3.66E2,5.6E1,2.48E2,1.38E2,2.28E2,3.2E1,2.4E1,4.9E1,1.99E2],"tree_param":{"num_deleted":"0","num_feature":"8","num_nodes":"13","size_leaf_vector":"1"}},{"base_weights":[-5.8246404E-1,-6.5748944E0,1.9259449E1,-1.6246508E1,-2.602137E0,5.5690292E1,1.1830617E1,-1.2968774E-1,-2.848856E-1,-9.087106E-2,5.9867818E-2,-7.880429E-2,6.874066E-1,2.0866399E-1,-6.414042E-2],"categories":[0,1,2,4,0,1,4,5,6,10],"categories_nodes":[2,6],"categories_segments":[0,4],"categories_sizes":[4,6],"default_left":[0,0,1,0,0,0,1,0,0,0,0,0,0,0,0],"id":18,"left_children":[1,3,5,7,9,11,13,-1,-1,-1,-1,-1,-1,-1,-1],"loss_changes":[8.252522E4,2.0437172E4,4.2913965E4,6.083082E3,2.008246E4,1.9947648E4,2.093419E4,0E0,0E0,0E0,0E0,0E0,0E0,0E0,0E0],"parents":[2147483647,0,0,1,1,2,2,3,3,4,4,5,5,6,6],"right_children":[2,4,6,8,10,12,14,-1,-1,-1,-1,-1,-1,-1,-1],"split_conditions":[1.971785E-1,8.9675814E-2,1E-45,7.507615E2,6.292008E2,1.6574407E-2,1E-45,-1.2968774E-1,-2.848856E-1,-9.087106E-2,5.9867818E-2,-7.880429E-2,6.874066E-1,2.0866399E-1,-6.414042E-2],"split_indices":[2,2,7,3,3,1,6,0,0,0,0,0,0,0,0],"split_type":[0,0,1,0,0,0,1,0,0,0,0,0,0,0,0],"sum_hessian":[6.92E2,5.32E2,1.6E2,1.54E2,3.78E2,2.6E1,1.34E2,1.19E2,3.5E1,2.17E2,1.61E2,4E0,2.2E1,9.1E1,4.3E1],"tree_param":{"num_deleted":"0","num_feature":"8","num_nodes":"15","size_leaf_vector":"1"}},{"base_weights":[-3.1654978E-1,-6.4410577E0,1.9648249E1,-1.6197638E1,-2.4997134E0,5.9321865E1,1.1018405E1,-1.2823205E-1,-2.8916395E-1,5.6280565E-1,-3.364126E-2,1.0131167E0,3.2697532E-1,2.0434806E-1,-3.9153963E-2],"categories":[0,1,2,4,0,1,2,4,5,6,7,8,9,10,11,12,13,14],"categories_nodes":[2,4],"categories_segments":[0,4],"categories_sizes":[4,14],"default_left":[0,0,1,0,1,0,0,0,0,0,0,0,0,0,0],"id":19,"left_children":[1,3,5,7,9,11,13,-1,-1,-1,-1,-1,-1,-1,-1],"loss_changes":[8.229506E4,1.9763342E4,5.344194E4,6.2048594E3,1.668595E4,2.7180977E4,1.7399738E4,0E0,0E0,0E0,0E0,0E0,0E0,0E0,0E0],"parents":[2147483647,0,0,1,1,2,2,3,3,4,4,5,5,6,6],"right_children":[2,4,6,8,10,12,14,-1,-1,-1,-1,-1,-1,-1,-1],"split_conditions":[1.971785E-1,8.9675814E-2,1E-45,7.507615E2,1E-45,1.4862714E2,1.6918962E2,-1.2823205E-1,-2.8916395E-1,5.6280565E-1,-3.364126E-2,1.0131167E0,3.2697532E-1,2.0434806E-1,-3.9153963E-2],"split_indices":[2,2,7,3,6,0,0,0,0,0,0,0,0,0,0],"split_type":[0,0,1,0,1,0,0,0,0,0,0,0,0,0,0],"sum_hessian":[6.71E2,5.14E2,1.57E2,1.47E2,3.67E2,2.7E1,1.3E2,1.14E2,3.3E1,4E0,3.63E2,1E1,1.7E1,8.1E1,4.9E1],"tree_param":{"num_deleted":"0","num_feature":"8","num_nodes":"15","size_leaf_vector":"1"}},{"base_weights":[-8.890426E-2,-6.3644915E0,1.7936472E1,5.108842E-1,-7.1218147E0,5.5315662E1,9.788346E0,-1.6638494E-1,-3.5215024E-2,9.1548645E-1,3.123486E-1,2.784003E-1,3.9053224E-2],"categories":[0,2,3,4,0,1,2,4,0,1,4,5,6,7,10,11,12,13,14],"categories_nodes":[1,2,6],"categories_segments":[0,4,8],"categories_sizes":[4,4,11],"default_left":[0,1,1,0,0,0,1,0,0,0,0,0,0],"id":20,"left_children":[1,3,5,-1,7,9,11,-1,-1,-1,-1,-1,-1],"loss_changes":[7.8845555E4,2.2356766E4,5.428121E4,0E0,1.7102104E4,2.4298625E4,1.5367733E4,0E0,0E0,0E0,0E0,0E0,0E0],"parents":[2147483647,0,0,1,1,2,2,4,4,5,5,6,6],"right_children":[2,4,6,-1,8,10,12,-1,-1,-1,-1,-1,-1],"split_conditions":[1.9242132E-1,1E-45,1E-45,5.108842E-1,8.9675814E-2,1.4862714E2,1E-45,-1.6638494E-1,-3.5215024E-2,9.1548645E-1,3.123486E-1,2.784003E-1,3.9053224E-2],"split_indices":[2,7,7,0,2,0,6,0,0,0,0,0,0],"split_type":[0,1,1,0,0,0,1,0,0,0,0,0,0],"sum_hessian":[6.95E2,5.16E2,1.79E2,6E0,5.1E2,3.1E1,1.48E2,1.46E2,3.64E2,1.2E1,1.9E1,3.7E1,1.11E2],"tree_param":{"num_deleted":"0","num_feature":"8","num_nodes":"13","size_leaf_vector":"1"}},{"base_weights":[-5.6922823E-1,-6.306121E0,1.635132E1,5.063945E-1,-7.0538335E0,5.5575287E1,8.235195E0,-1.5801826E-1,-3.5118982E-2,1.035669E-1,7.6467687E-1,2.575731E-1,3.0058194E-2],"categories":[0,2,3,4,0,1,2,4,0,1,4,5,6,7,10,11,12,13,14],"categories_nodes":[1,2,6],"categories_segments":[0,4,8],"categories_sizes":[4,4,11],"default_left":[0,1,1,0,0,0,1,0,0,0,0,0,0],"id":21,"left_children":[1,3,5,-1,7,9,11,-1,-1,-1,-1,-1,-1],"loss_changes":[6.747065E4,2.1962527E4,5.5571336E4,0E0,1.5505922E4,2.5177297E4,1.3091823E4,0E0,0E0,0E0,0E0,0E0,0E0],"parents":[2147483647,0,0,1,1,2,2,4,4,5,5,6,6],"right_children":[2,4,6,-1,8,10,12,-1,-1,-1,-1,-1,-1],"split_conditions":[1.9242132E-1,1E-45,1E-45,5.063945E-1,8.9675814E-2,1.6887544E-2,1E-45,-1.5801826E-1,-3.5118982E-2,1.035669E-1,7.6467687E-1,2.575731E-1,3.0058194E-2],"split_indices":[2,7,7,0,2,1,6,0,0,0,0,0,0],"split_type":[0,1,1,0,0,0,1,0,0,0,0,0,0],"sum_hessian":[6.93E2,5.18E2,1.75E2,6E0,5.12E2,2.9E1,1.46E2,1.54E2,3.58E2,9E0,2E1,3.4E1,1.12E2],"tree_param":{"num_deleted":"0","num_feature":"8","num_nodes":"13","size_leaf_vector":"1"}},{"base_weights":[2.246928E-1,5.253287E1,-1.674885E0,3.7918213E1,9.005715E1,-8.381527E0,7.4808717E0,4.3650657E-1,1.6778195E-1,1.0799127E0,7.020189E-2,4.8522282E-1,-9.326082E-2,2.9728124E-1,2.745387E-2],"categories":[0,1,2,4,5,6,7,8,9,10,11,12,13,14,0,2,3,4,0,1,2,4],"categories_nodes":[0,5,6],"categories_segments":[0,14,18],"categories_sizes":[14,4,4],"default_left":[1,0,0,0,0,1,1,0,0,0,0,0,0,0,0],"id":22,"left_children":[1,3,5,7,9,11,13,-1,-1,-1,-1,-1,-1,-1,-1],"loss_changes":[6.805259E4,9.746906E3,4.0650992E4,1.2102441E3,6.9037656E3,1.5639701E4,2.8856902E4,0E0,0E0,0E0,0E0,0E0,0E0,0E0,0E0],"parents":[2147483647,0,0,1,1,2,2,3,3,4,4,5,5,6,6],"right_children":[2,4,6,8,10,12,14,-1,-1,-1,-1,-1,-1,-1,-1],"split_conditions":[1E-45,7.666411E2,1.5911008E-1,2.1778493E-1,2.0967963E-1,1E-45,1E-45,4.3650657E-1,1.6778195E-1,1.0799127E0,7.020189E-2,4.8522282E-1,-9.326082E-2,2.9728124E-1,2.745387E-2],"split_indices":[6,3,2,2,2,7,7,0,0,0,0,0,0,0,0],"split_type":[1,0,0,0,0,1,1,0,0,0,0,0,0,0,0],"sum_hessian":[6.83E2,2.3E1,6.6E2,1.8E1,5E0,3.81E2,2.79E2,1.4E1,4E0,4E0,1E0,4E0,3.77E2,5E1,2.29E2],"tree_param":{"num_deleted":"0","num_feature":"8","num_nodes":"15","size_leaf_vector":"1"}},{"base_weights":[-2.0362958E-1,-8.754289E0,1.0229386E1,5.122871E-1,-9.677858E0,3.6809902E1,4.328842E0,-8.203E-2,-2.7336818E-1,1.5929528E-1,6.615701E-1,8.057131E-3,2.8740644E-1],"categories":[0,2,3,4,0,1,2,4,4,11],"categories_nodes":[1,2,4],"categories_segments":[0,4,8],"categories_sizes":[4,4,2],"default_left":[0,1,1,0,1,0,0,0,0,0,0,0,0],"id":23,"left_children":[1,3,5,-1,7,9,11,-1,-1,-1,-1,-1,-1],"loss_changes":[6.1197824E4,2.092919E4,4.8304062E4,0E0,1.0382984E4,3.2015852E4,2.1309152E4,0E0,0E0,0E0,0E0,0E0,0E0],"parents":[2147483647,0,0,1,1,2,2,4,4,5,5,6,6],"right_children":[2,4,6,-1,8,10,12,-1,-1,-1,-1,-1,-1],"split_conditions":[1.5911008E-1,1E-45,1E-45,5.122871E-1,1E-45,1.6887544E-2,4.066738E-2,-8.203E-2,-2.7336818E-1,1.5929528E-1,6.615701E-1,8.057131E-3,2.8740644E-1],"split_indices":[2,7,7,0,6,1,1,0,0,0,0,0,0],"split_type":[0,1,1,0,1,0,0,0,0,0,0,0,0],"sum_hessian":[6.84E2,3.76E2,3.08E2,5E0,3.71E2,5.5E1,2.53E2,3.39E2,3.2E1,3.2E1,2.3E1,2.21E2,3.2E1],"tree_param":{"num_deleted":"0","num_feature":"8","num_nodes":"13","size_leaf_vector":"1"}},{"base_weights":[2.8262656E-2,-5.800366E0,1.6987108E1,-1.5409339E1,-1.9566822E0,5.3303036E1,9.213088E0,-1.1827295E-1,-2.7715388E-1,-6.8410315E-2,7.601884E-2,8.90084E-1,2.8265205E-1,1.8762068E-1,-3.2734875E-2],"categories":[0,1,2,4],"categories_nodes":[2],"categories_segments":[0],"categories_sizes":[4],"default_left":[0,0,1,0,0,0,0,0,0,0,0,0,0,0,0],"id":24,"left_children":[1,3,5,7,9,11,13,-1,-1,-1,-1,-1,-1,-1,-1],"loss_changes":[6.840167E4,1.8990783E4,4.94797E4,6.3064023E3,1.6356408E4,2.4341172E4,1.66293E4,0E0,0E0,0E0,0E0,0E0,0E0,0E0,0E0],"parents":[2147483647,0,0,1,1,2,2,3,3,4,4,5,5,6,6],"right_children":[2,4,6,8,10,12,14,-1,-1,-1,-1,-1,-1,-1,-1],"split_conditions":[1.9242132E-1,8.859615E-2,1E-45,2.3327739E2,6.6528577E2,1.4862714E2,1.6918962E2,-1.1827295E-1,-2.7715388E-1,-6.8410315E-2,7.601884E-2,8.90084E-1,2.8265205E-1,1.8762068E-1,-3.2734875E-2],"split_indices":[2,2,7,0,3,0,0,0,0,0,0,0,0,0,0],"split_type":[0,0,1,0,0,0,0,0,0,0,0,0,0,0,0],"sum_hessian":[6.9E2,5.14E2,1.76E2,1.46E2,3.68E2,3E1,1.46E2,1.11E2,3.5E1,2.45E2,1.23E2,1.2E1,1.8E1,8.4E1,6.2E1],"tree_param":{"num_deleted":"0","num_feature":"8","num_nodes":"15","size_leaf_vector":"1"}},{"base_weights":[-8.399652E-1,-6.126677E0,1.4902789E1,-1.499165E1,-2.442464E0,5.1991478E1,7.989201E0,-1.1446647E-1,-2.7150723E-1,-1.1437877E-1,2.9140374E-2,1.1474098E-1,7.723685E-1,2.4749571E-2,2.9500598E-1],"categories":[0,1,2,4],"categories_nodes":[2],"categories_segments":[0],"categories_sizes":[4],"default_left":[0,0,1,0,0,0,0,0,0,0,0,0,0,0,0],"id":25,"left_children":[1,3,5,7,9,11,13,-1,-1,-1,-1,-1,-1,-1,-1],"loss_changes":[5.7268527E4,1.6783514E4,4.394458E4,6.3443086E3,1.6839285E4,2.4870344E4,1.6964555E4,0E0,0E0,0E0,0E0,0E0,0E0,0E0,0E0],"parents":[2147483647,0,0,1,1,2,2,3,3,4,4,5,5,6,6],"right_children":[2,4,6,8,10,12,14,-1,-1,-1,-1,-1,-1,-1,-1],"split_conditions":[1.9242132E-1,8.9675814E-2,1E-45,7.507615E2,4.295215E2,1.7791502E-2,4.066738E-2,-1.1446647E-1,-2.7150723E-1,-1.1437877E-1,2.9140374E-2,1.1474098E-1,7.723685E-1,2.4749571E-2,2.9500598E-1],"split_indices":[2,2,7,3,3,1,1,0,0,0,0,0,0,0,0],"split_type":[0,0,1,0,0,0,0,0,0,0,0,0,0,0,0],"sum_hessian":[6.86E2,5.14E2,1.72E2,1.5E2,3.64E2,2.6E1,1.46E2,1.14E2,3.6E1,1.37E2,2.27E2,1E1,1.6E1,1.16E2,3E1],"tree_param":{"num_deleted":"0","num_feature":"8","num_nodes":"15","size_leaf_vector":"1"}},{"base_weights":[1.1164293E-1,-5.719787E0,1.6942636E1,4.9225408E-1,-6.457644E0,5.8537743E1,9.012399E0,5.5205506E-1,-7.103155E-2,9.382913E-1,3.6019626E-1,2.660912E-1,3.674133E-2],"categories":[0,2,3,4,0,1,2,4,0,1,2,4,5,6,7,8,9,10,11,12,13,14,0,1,4,5,6,7,10,11,12,13,14],"categories_nodes":[1,2,4,6],"categories_segments":[0,4,8,22],"categories_sizes":[4,4,14,11],"default_left":[0,1,1,0,1,0,1,0,0,0,0,0,0],"id":26,"left_children":[1,3,5,-1,7,9,11,-1,-1,-1,-1,-1,-1],"loss_changes":[6.7132516E4,2.0450473E4,5.7527637E4,0E0,1.461433E4,1.8398023E4,1.3610396E4,0E0,0E0,0E0,0E0,0E0,0E0],"parents":[2147483647,0,0,1,1,2,2,4,4,5,5,6,6],"right_children":[2,4,6,-1,8,10,12,-1,-1,-1,-1,-1,-1],"split_conditions":[1.9302638E-1,1E-45,1E-45,4.9225408E-1,1E-45,1.4862714E2,1E-45,5.5205506E-1,-7.103155E-2,9.382913E-1,3.6019626E-1,2.660912E-1,3.674133E-2],"split_indices":[2,7,7,0,6,0,6,0,0,0,0,0,0],"split_type":[0,1,1,0,1,0,1,0,0,0,0,0,0],"sum_hessian":[6.82E2,5.07E2,1.75E2,6E0,5.01E2,2.7E1,1.48E2,3E0,4.98E2,1E1,1.7E1,3.5E1,1.13E2],"tree_param":{"num_deleted":"0","num_feature":"8","num_nodes":"13","size_leaf_vector":"1"}},{"base_weights":[1.4280328E-2,4.9826683E1,-1.7807826E0,8.192284E1,3.4576694E1,-8.360686E0,7.0990906E0,3.463978E-1,1.1234784E0,5.417164E-1,2.4082884E-1,4.8792812E-1,-9.6143425E-2,2.695955E-1,2.750996E-2],"categories":[0,1,2,4,5,6,7,8,9,10,11,12,13,14,0,1,2,4,0,2,3,4,0,1,2,4],"categories_nodes":[0,1,5,6],"categories_segments":[0,14,18,22],"categories_sizes":[14,4,4,4],"default_left":[1,1,0,0,0,1,1,0,0,0,0,0,0,0,0],"id":27,"left_children":[1,3,5,7,9,11,13,-1,-1,-1,-1,-1,-1,-1,-1],"loss_changes":[6.1696625E4,8.914566E3,3.8972875E4,5.6166836E3,2.4030645E3,2.2233357E4,2.4003445E4,0E0,0E0,0E0,0E0,0E0,0E0,0E0,0E0],"parents":[2147483647,0,0,1,1,2,2,3,3,4,4,5,5,6,6],"right_children":[2,4,6,8,10,12,14,-1,-1,-1,-1,-1,-1,-1,-1],"split_conditions":[1E-45,1E-45,1.5846625E-1,7.0590955E2,1.3558698E2,1E-45,1E-45,3.463978E-1,1.1234784E0,5.417164E-1,2.4082884E-1,4.8792812E-1,-9.6143425E-2,2.695955E-1,2.750996E-2],"split_indices":[6,7,2,3,0,7,7,0,0,0,0,0,0,0,0],"split_type":[1,1,0,0,0,1,1,0,0,0,0,0,0,0,0],"sum_hessian":[6.88E2,2.3E1,6.65E2,6E0,1.7E1,3.82E2,2.83E2,3E0,3E0,5E0,1.2E1,6E0,3.76E2,5.2E1,2.31E2],"tree_param":{"num_deleted":"0","num_feature":"8","num_nodes":"15","size_leaf_vector":"1"}},{"base_weights":[-4.7794017E-1,5.014751E1,-2.0929196E0,3.314958E1,8.711742E1,-7.963573E0,6.981807E0,3.8772178E-1,1.5705901E-1,1.0453799E0,6.611338E-2,4.836402E-1,-9.1483995E-2,2.7880123E-1,3.0190602E-2],"categories":[0,1,2,4,5,6,7,8,9,10,11,12,13,14,0,2,3,4,0,1,2,4],"categories_nodes":[0,5,6],"categories_segments":[0,14,18],"categories_sizes":[14,4,4],"default_left":[1,0,0,0,0,1,1,0,0,0,0,0,0,0,0],"id":28,"left_children":[1,3,5,7,9,11,13,-1,-1,-1,-1,-1,-1,-1,-1],"loss_changes":[5.5537598E4,1.0308742E4,3.511027E4,7.521582E2,6.5272773E3,2.1578754E4,2.1053205E4,0E0,0E0,0E0,0E0,0E0,0E0,0E0,0E0],"parents":[2147483647,0,0,1,1,2,2,3,3,4,4,5,5,6,6],"right_children":[2,4,6,8,10,12,14,-1,-1,-1,-1,-1,-1,-1,-1],"split_conditions":[1E-45,7.666411E2,1.6106948E-1,2.1778493E-1,2.0967963E-1,1E-45,1E-45,3.8772178E-1,1.5705901E-1,1.0453799E0,6.611338E-2,4.836402E-1,-9.1483995E-2,2.7880123E-1,3.0190602E-2],"split_indices":[6,3,2,2,2,7,7,0,0,0,0,0,0,0,0],"split_type":[1,0,0,0,0,1,1,0,0,0,0,0,0,0,0],"sum_hessian":[6.77E2,2E1,6.57E2,1.5E1,5E0,3.99E2,2.58E2,1.1E1,4E0,4E0,1E0,6E0,3.93E2,4.2E1,2.16E2],"tree_param":{"num_deleted":"0","num_feature":"8","num_nodes":"15","size_leaf_vector":"1"}},{"base_weights":[7.724529E-1,5.196517E1,-9.2230237E-1,3.5422646E1,1.0368055E0,-2.5347035E0,3.4526726E1,5.2392626E-1,2.610488E-1,-1.0383718E-1,1.9473156E-2,1.086678E0,2.594714E-1],"categories":[0,1,2,4,5,6,7,8,9,10,11,12,13,14,0,1,2,4],"categories_nodes":[0,6],"categories_segments":[0,14],"categories_sizes":[14,4],"default_left":[1,0,0,0,0,0,1,0,0,0,0,0,0],"id":29,"left_children":[1,3,5,7,-1,9,11,-1,-1,-1,-1,-1,-1],"loss_changes":[5.9564688E4,1.4308977E4,3.8097625E4,1.5100859E3,0E0,2.1465742E4,1.6423488E4,0E0,0E0,0E0,0E0,0E0,0E0],"parents":[2147483647,0,0,1,1,2,2,3,3,5,5,6,6],"right_children":[2,4,6,8,-1,10,12,-1,-1,-1,-1,-1,-1],"split_conditions":[1E-45,7.666411E2,3.8752187E-2,1.3558698E2,1.0368055E0,1.1094141E-1,1E-45,5.2392626E-1,2.610488E-1,-1.0383718E-1,1.9473156E-2,1.086678E0,2.594714E-1],"split_indices":[6,3,1,0,0,2,7,0,0,0,0,0,0],"split_type":[1,0,0,0,0,0,1,0,0,0,0,0,0],"sum_hessian":[6.85E2,2.1E1,6.64E2,1.7E1,4E0,6.36E2,2.8E1,5E0,1.2E1,2.34E2,4.02E2,2E0,2.6E1],"tree_param":{"num_deleted":"0","num_feature":"8","num_nodes":"13","size_leaf_vector":"1"}},{"base_weights":[1.5663661E-1,-5.2435994E0,1.6202156E1,4.793994E-1,-5.9415965E0,5.258977E1,8.614276E0,-1.5110995E-1,-2.4033139E-2,9.638757E-1,2.7864814E-1,2.8210297E-2,2.9329306E-1],"categories":[0,2,3,4,0,1,2,4],"categories_nodes":[1,2],"categories_segments":[0,4],"categories_sizes":[4,4],"default_left":[0,1,1,0,0,0,0,0,0,0,0,0,0],"id":30,"left_children":[1,3,5,-1,7,9,11,-1,-1,-1,-1,-1,-1],"loss_changes":[6.0219777E4,1.915239E4,4.7865332E4,0E0,1.6232133E4,2.9023234E4,1.7033895E4,0E0,0E0,0E0,0E0,0E0,0E0],"parents":[2147483647,0,0,1,1,2,2,4,4,5,5,6,6],"right_children":[2,4,6,-1,8,10,12,-1,-1,-1,-1,-1,-1],"split_conditions":[1.9302638E-1,1E-45,1E-45,4.793994E-1,8.9675814E-2,1.4862714E2,4.066738E-2,-1.5110995E-1,-2.4033139E-2,9.638757E-1,2.7864814E-1,2.8210297E-2,2.9329306E-1],"split_indices":[2,7,7,0,2,0,1,0,0,0,0,0,0],"split_type":[0,1,1,0,0,0,0,0,0,0,0,0,0],"sum_hessian":[6.93E2,5.19E2,1.74E2,6E0,5.13E2,2.9E1,1.45E2,1.48E2,3.65E2,1E1,1.9E1,1.13E2,3.2E1],"tree_param":{"num_deleted":"0","num_feature":"8","num_nodes":"13","size_leaf_vector":"1"}},{"base_weights":[-2.33073E-1,-8.781275E0,1.0858003E1,4.7518647E-1,-9.745776E0,3.687296E1,4.754688E0,-2.288705E-1,-8.416091E-2,1.6062073E-1,6.394707E-1,1.2019135E-1,-9.3017004E-2],"categories":[0,2,3,4,0,1,2,4,0,1,4,5,6,10,11,13],"categories_nodes":[1,2,6],"categories_segments":[0,4,8],"categories_sizes":[4,4,8],"default_left":[0,1,1,0,0,0,1,0,0,0,0,0,0],"id":31,"left_children":[1,3,5,-1,7,9,11,-1,-1,-1,-1,-1,-1],"loss_changes":[6.665109E4,2.1560893E4,4.8410582E4,0E0,7.3757773E3,3.0385297E4,2.4097648E4,0E0,0E0,0E0,0E0,0E0,0E0],"parents":[2147483647,0,0,1,1,2,2,4,4,5,5,6,6],"right_children":[2,4,6,-1,8,10,12,-1,-1,-1,-1,-1,-1],"split_conditions":[1.5911008E-1,1E-45,1E-45,4.7518647E-1,6.0822513E-2,1.6887544E-2,1E-45,-2.288705E-1,-8.416091E-2,1.6062073E-1,6.394707E-1,1.2019135E-1,-9.3017004E-2],"split_indices":[2,7,7,0,2,1,6,0,0,0,0,0,0],"split_type":[0,1,1,0,0,0,1,0,0,0,0,0,0],"sum_hessian":[7.01E2,3.96E2,3.05E2,6E0,3.9E2,5.7E1,2.48E2,4.1E1,3.49E2,3.2E1,2.5E1,1.65E2,8.3E1],"tree_param":{"num_deleted":"0","num_feature":"8","num_nodes":"13","size_leaf_vector":"1"}},{"base_weights":[-1.4167115E-1,4.890347E1,-1.8636506E0,8.6816895E1,3.3548798E1,-5.174709E0,1.3248324E1,1.007137E0,1.5247747E-1,5.257565E-1,2.3360293E-1,4.8639333E-1,-5.902772E-2,2.2577487E-1,-4.520411E-2],"categories":[0,1,2,4,5,6,7,8,9,10,11,12,13,14,0,1,2,4,0,2,3,4],"categories_nodes":[0,1,5],"categories_segments":[0,14,18],"categories_sizes":[14,4,4],"default_left":[1,1,0,0,0,1,0,0,0,0,0,0,0,0,0],"id":32,"left_children":[1,3,5,7,9,11,13,-1,-1,-1,-1,-1,-1,-1,-1],"loss_changes":[5.7266984E4,1.0476809E4,3.284255E4,3.4664414E3,2.2671172E3,1.6764328E4,1.8375611E4,0E0,0E0,0E0,0E0,0E0,0E0,0E0,0E0],"parents":[2147483647,0,0,1,1,2,2,3,3,4,4,5,5,6,6],"right_children":[2,4,6,8,10,12,14,-1,-1,-1,-1,-1,-1,-1,-1],"split_conditions":[1E-45,1E-45,1.9944161E-1,2.1252806E-1,1.3558698E2,1E-45,1.5248481E3,1.007137E0,1.5247747E-1,5.257565E-1,2.3360293E-1,4.8639333E-1,-5.902772E-2,2.2577487E-1,-4.520411E-2],"split_indices":[6,7,2,2,0,7,4,0,0,0,0,0,0,0,0],"split_type":[1,1,0,0,0,1,0,0,0,0,0,0,0,0,0],"sum_hessian":[6.76E2,2.2E1,6.54E2,5E0,1.7E1,5.37E2,1.17E2,4E0,1E0,5E0,1.2E1,5E0,5.32E2,7.8E1,3.9E1],"tree_param":{"num_deleted":"0","num_feature":"8","num_nodes":"15","size_leaf_vector":"1"}},{"base_weights":[3.735942E-1,-4.8587356E0,1.6283834E1,4.6673608E-1,-5.539392E0,4.881896E1,9.245979E0,-1.3566363E-1,-1.8110665E-2,8.8000375E-1,2.3451169E-1,1.746202E-1,-5.3976044E-2],"categories":[0,2,3,4,0,1,2,4,0,1,4,5,6,7,10,11,13,14],"categories_nodes":[1,2,6],"categories_segments":[0,4,8],"categories_sizes":[4,4,10],"default_left":[0,1,1,0,0,0,1,0,0,0,0,0,0],"id":33,"left_children":[1,3,5,-1,7,9,11,-1,-1,-1,-1,-1,-1],"loss_changes":[5.7186992E4,1.7981574E4,3.8474797E4,0E0,1.4807857E4,2.6846336E4,1.6019056E4,0E0,0E0,0E0,0E0,0E0,0E0],"parents":[2147483647,0,0,1,1,2,2,4,4,5,5,6,6],"right_children":[2,4,6,-1,8,10,12,-1,-1,-1,-1,-1,-1],"split_conditions":[1.9302638E-1,1E-45,1E-45,4.6673608E-1,9.41817E-2,1.4862714E2,1E-45,-1.3566363E-1,-1.8110665E-2,8.8000375E-1,2.3451169E-1,1.746202E-1,-5.3976044E-2],"split_indices":[2,7,7,0,2,0,6,0,0,0,0,0,0],"split_type":[0,1,1,0,0,0,1,0,0,0,0,0,0],"sum_hessian":[6.85E2,5.16E2,1.69E2,6E0,5.1E2,2.9E1,1.4E2,1.67E2,3.43E2,1.1E1,1.8E1,9.1E1,4.9E1],"tree_param":{"num_deleted":"0","num_feature":"8","num_nodes":"13","size_leaf_vector":"1"}},{"base_weights":[8.005231E-1,-7.2908306E0,1.0938699E1,4.2217645E-1,-8.044866E0,3.736187E1,4.9522066E0,-1.3777462E-1,-4.871935E-2,1.664636E-1,6.649183E-1,2.4461554E-1,-1.634715E-3],"categories":[0,2,3,4,0,1,2,4,0,1,4,5,6,7,10,11,12,13,14],"categories_nodes":[1,2,6],"categories_segments":[0,4,8],"categories_sizes":[4,4,11],"default_left":[0,1,1,0,0,0,1,0,0,0,0,0,0],"id":34,"left_children":[1,3,5,-1,7,9,11,-1,-1,-1,-1,-1,-1],"loss_changes":[5.618934E4,1.4255494E4,4.7902336E4,0E0,6.613635E3,3.1470328E4,2.4067967E4,0E0,0E0,0E0,0E0,0E0,0E0],"parents":[2147483647,0,0,1,1,2,2,4,4,5,5,6,6],"right_children":[2,4,6,-1,8,10,12,-1,-1,-1,-1,-1,-1],"split_conditions":[1.5911008E-1,1E-45,1E-45,4.2217645E-1,8.9675814E-2,1.6887544E-2,1E-45,-1.3777462E-1,-4.871935E-2,1.664636E-1,6.649183E-1,2.4461554E-1,-1.634715E-3],"split_indices":[2,7,7,0,2,1,6,0,0,0,0,0,0],"split_type":[0,1,1,0,0,0,1,0,0,0,0,0,0],"sum_hessian":[6.83E2,3.8E2,3.03E2,5E0,3.75E2,5.5E1,2.48E2,1.41E2,2.34E2,3.2E1,2.3E1,5.2E1,1.96E2],"tree_param":{"num_deleted":"0","num_feature":"8","num_nodes":"13","size_leaf_vector":"1"}},{"base_weights":[-8.850649E-2,-5.276354E0,1.4471412E1,4.510609E-1,-5.8379555E0,4.72222E1,8.121124E0,5.2930397E-1,-6.432318E-2,6.187535E-1,3.6663145E-2,3.046864E-2,2.7335986E-1],"categories":[0,2,3,4,0,1,2,4,0,1,2,4,5,6,7,8,9,10,11,12,13,14],"categories_nodes":[1,2,4],"categories_segments":[0,4,8],"categories_sizes":[4,4,14],"default_left":[0,1,1,0,1,0,0,0,0,0,0,0,0],"id":35,"left_children":[1,3,5,-1,7,9,11,-1,-1,-1,-1,-1,-1],"loss_changes":[5.3479336E4,1.4700865E4,3.830021E4,0E0,1.327192E4,1.697404E4,1.4910321E4,0E0,0E0,0E0,0E0,0E0,0E0],"parents":[2147483647,0,0,1,1,2,2,4,4,5,5,6,6],"right_children":[2,4,6,-1,8,10,12,-1,-1,-1,-1,-1,-1],"split_conditions":[1.9242132E-1,1E-45,1E-45,4.510609E-1,1E-45,1.8235359E2,4.066738E-2,5.2930397E-1,-6.432318E-2,6.187535E-1,3.6663145E-2,3.046864E-2,2.7335986E-1],"split_indices":[2,7,7,0,6,0,1,0,0,0,0,0,0],"split_type":[0,1,1,0,1,0,0,0,0,0,0,0,0],"sum_hessian":[7.06E2,5.21E2,1.85E2,5E0,5.16E2,2.9E1,1.56E2,3E0,5.13E2,2.2E1,7E0,1.23E2,3.3E1],"tree_param":{"num_deleted":"0","num_feature":"8","num_nodes":"13","size_leaf_vector":"1"}},{"base_weights":[-2.3431464E-1,-7.5732226E0,9.493643E0,4.9185416E-1,-8.271308E0,3.6435978E1,3.3055844E0,1.5820166E-1,-9.367283E-2,1.7495453E-1,6.4228994E-1,2.6672122E-1,-4.3305783E-3],"categories":[0,2,3,4,0,1,2,4,0,2,4,5,6,7,8,9,11,12,13,14,0,1,2,4,5,6,7,10,11,12,13,14],"categories_nodes":[1,2,4,6],"categories_segments":[0,4,8,20],"categories_sizes":[4,4,12,12],"default_left":[0,1,1,0,1,0,1,0,0,0,0,0,0],"id":36,"left_children":[1,3,5,-1,7,9,11,-1,-1,-1,-1,-1,-1],"loss_changes":[4.8975816E4,1.5558262E4,4.9062176E4,0E0,8.0761934E3,2.685632E4,2.0413832E4,0E0,0E0,0E0,0E0,0E0,0E0],"parents":[2147483647,0,0,1,1,2,2,4,4,5,5,6,6],"right_children":[2,4,6,-1,8,10,12,-1,-1,-1,-1,-1,-1],"split_conditions":[1.5911008E-1,1E-45,1E-45,4.9185416E-1,1E-45,1.6887544E-2,1E-45,1.5820166E-1,-9.367283E-2,1.7495453E-1,6.4228994E-1,2.6672122E-1,-4.3305783E-3],"split_indices":[2,7,7,0,6,1,6,0,0,0,0,0,0],"split_type":[0,1,1,0,1,0,1,0,0,0,0,0,0],"sum_hessian":[6.84E2,3.9E2,2.94E2,4E0,3.86E2,5.4E1,2.4E2,1.3E1,3.73E2,3.2E1,2.2E1,3.3E1,2.07E2],"tree_param":{"num_deleted":"0","num_feature":"8","num_nodes":"13","size_leaf_vector":"1"}},{"base_weights":[7.6384425E-1,5.020325E1,-7.962029E-1,3.4916058E1,8.260189E1,-2.4783595E0,3.260897E1,5.2444774E-1,2.7922648E-1,9.943383E-1,5.4828517E-2,-1.3903405E-1,9.406204E-3,9.66384E-1,2.3562108E-1],"categories":[0,1,2,4,5,6,7,8,9,10,11,12,13,14,0,1,2,4],"categories_nodes":[0,6],"categories_segments":[0,14],"categories_sizes":[14,4],"default_left":[1,0,0,0,0,0,1,0,0,0,0,0,0,0,0],"id":37,"left_children":[1,3,5,7,9,11,13,-1,-1,-1,-1,-1,-1,-1,-1],"loss_changes":[5.2949645E4,7.516836E3,3.7505176E4,6.0241016E2,6.1474453E3,2.3909727E4,1.6826414E4,0E0,0E0,0E0,0E0,0E0,0E0,0E0,0E0],"parents":[2147483647,0,0,1,1,2,2,3,3,4,4,5,5,6,6],"right_children":[2,4,6,8,10,12,14,-1,-1,-1,-1,-1,-1,-1,-1],"split_conditions":[1E-45,7.4712445E2,3.8752187E-2,1.295601E2,2.0967963E-1,8.9675814E-2,1E-45,5.2444774E-1,2.7922648E-1,9.943383E-1,5.4828517E-2,-1.3903405E-1,9.406204E-3,9.66384E-1,2.3562108E-1],"split_indices":[6,3,1,0,2,2,7,0,0,0,0,0,0,0,0],"split_type":[1,0,0,0,0,0,1,0,0,0,0,0,0,0,0],"sum_hessian":[6.85E2,2E1,6.65E2,1.5E1,5E0,6.34E2,3.1E1,3E0,1.2E1,4E0,1E0,1.48E2,4.86E2,3E0,2.8E1],"tree_param":{"num_deleted":"0","num_feature":"8","num_nodes":"15","size_leaf_vector":"1"}},{"base_weights":[7.631035E-2,-4.7949877E0,1.7320198E1,-1.4130354E1,-1.2848506E0,4.984252E1,1.0099045E1,-1.08538285E-1,-2.6490667E-1,-1.1179631E-1,3.6571715E-2,9.080677E-1,2.6204768E-1,1.6503397E-1,-1.1318009E-1],"categories":[0,1,2,4],"categories_nodes":[2],"categories_segments":[0],"categories_sizes":[4],"default_left":[0,0,1,0,0,0,0,0,0,0,0,0,0,0,0],"id":38,"left_children":[1,3,5,7,9,11,13,-1,-1,-1,-1,-1,-1,-1,-1],"loss_changes":[5.7203125E4,1.7381875E4,3.4723938E4,5.7427344E3,1.8100766E4,2.3127398E4,1.5898179E4,0E0,0E0,0E0,0E0,0E0,0E0,0E0,0E0],"parents":[2147483647,0,0,1,1,2,2,3,3,4,4,5,5,6,6],"right_children":[2,4,6,8,10,12,14,-1,-1,-1,-1,-1,-1,-1,-1],"split_conditions":[1.9846764E-1,8.9675814E-2,1E-45,2.3327739E2,4.0950775E2,1.4862714E2,1.8558037E2,-1.08538285E-1,-2.6490667E-1,-1.1179631E-1,3.6571715E-2,9.080677E-1,2.6204768E-1,1.6503397E-1,-1.1318009E-1],"split_indices":[2,2,7,0,3,0,0,0,0,0,0,0,0,0,0],"split_type":[0,0,1,0,0,0,0,0,0,0,0,0,0,0,0],"sum_hessian":[6.79E2,5.3E2,1.49E2,1.44E2,3.86E2,2.6E1,1.23E2,1.12E2,3.2E1,1.29E2,2.57E2,9E0,1.7E1,9.6E1,2.7E1],"tree_param":{"num_deleted":"0","num_feature":"8","num_nodes":"15","size_leaf_vector":"1"}},{"base_weights":[6.1853635E-1,-6.7855334E0,1.00236435E1,4.3813896E-1,-7.441698E0,3.4430233E1,4.7159E0,-5.5832718E-2,-1.9648762E-1,1.4295407E-1,6.116306E-1,2.4031065E-1,-4.440247E-3],"categories":[0,2,3,4,0,1,2,4,4,6,8,11,0,1,4,5,6,7,10,11,12,13,14],"categories_nodes":[1,2,4,6],"categories_segments":[0,4,8,12],"categories_sizes":[4,4,4,11],"default_left":[0,1,1,0,1,0,1,0,0,0,0,0,0],"id":39,"left_children":[1,3,5,-1,7,9,11,-1,-1,-1,-1,-1,-1],"loss_changes":[4.6167094E4,1.2372918E4,3.766446E4,0E0,8.483098E3,2.6041648E4,2.3243477E4,0E0,0E0,0E0,0E0,0E0,0E0],"parents":[2147483647,0,0,1,1,2,2,4,4,5,5,6,6],"right_children":[2,4,6,-1,8,10,12,-1,-1,-1,-1,-1,-1],"split_conditions":[1.5988882E-1,1E-45,1E-45,4.3813896E-1,1E-45,1.6887544E-2,1E-45,-5.5832718E-2,-1.9648762E-1,1.4295407E-1,6.116306E-1,2.4031065E-1,-4.440247E-3],"split_indices":[2,7,7,0,6,1,6,0,0,0,0,0,0],"split_type":[0,1,1,0,1,0,1,0,0,0,0,0,0],"sum_hessian":[6.61E2,3.7E2,2.91E2,4E0,3.66E2,5.1E1,2.4E2,3.14E2,5.2E1,2.9E1,2.2E1,5.1E1,1.89E2],"tree_param":{"num_deleted":"0","num_feature":"8","num_nodes":"13","size_leaf_vector":"1"}},{"base_weights":[1.7249903E-1,-4.6539516E0,1.3669703E1,-1.2761193E1,-1.3580331E0,4.2624184E1,7.674579E0,-1.0517333E-1,-3.3438078E-1,-9.4039366E-2,3.448972E-2,7.550665E-1,2.4960262E-1,2.5338586E-2,2.8609106E-1],"categories":[0,1,2,4,2,4],"categories_nodes":[2,3],"categories_segments":[0,4],"categories_sizes":[4,2],"default_left":[0,0,1,1,0,0,0,0,0,0,0,0,0,0,0],"id":40,"left_children":[1,3,5,7,9,11,13,-1,-1,-1,-1,-1,-1,-1,-1],"loss_changes":[4.5012695E4,1.35835625E4,3.1265473E4,6.970297E3,1.3424958E4,1.5785496E4,1.5930123E4,0E0,0E0,0E0,0E0,0E0,0E0,0E0,0E0],"parents":[2147483647,0,0,1,1,2,2,3,3,4,4,5,5,6,6],"right_children":[2,4,6,8,10,12,14,-1,-1,-1,-1,-1,-1,-1,-1],"split_conditions":[1.9242132E-1,8.9675814E-2,1E-45,1E-45,4.295215E2,1.4020128E2,4.066738E-2,-1.0517333E-1,-3.3438078E-1,-9.4039366E-2,3.448972E-2,7.550665E-1,2.4960262E-1,2.5338586E-2,2.8609106E-1],"split_indices":[2,2,7,6,3,0,1,0,0,0,0,0,0,0,0],"split_type":[0,0,1,1,0,0,0,0,0,0,0,0,0,0,0],"sum_hessian":[6.89E2,5.08E2,1.81E2,1.46E2,3.62E2,3E1,1.51E2,1.31E2,1.5E1,1.36E2,2.26E2,1E1,2E1,1.21E2,3E1],"tree_param":{"num_deleted":"0","num_feature":"8","num_nodes":"15","size_leaf_vector":"1"}},{"base_weights":[-2.07397E-1,-4.889422E0,1.7467058E1,4.4608045E-1,-5.5194163E0,5.2362E1,1.0633304E1,6.38929E-2,-7.597411E-2,8.7763804E-1,2.9658905E-1,-9.940652E-2,1.7059974E-1],"categories":[0,2,3,4,0,1,2,4,0,4,5,6,7,8,9,11,12,13,14,0],"categories_nodes":[1,2,4,6],"categories_segments":[0,4,8,19],"categories_sizes":[4,4,11,1],"default_left":[0,1,1,0,1,0,1,0,0,0,0,0,0],"id":41,"left_children":[1,3,5,-1,7,9,11,-1,-1,-1,-1,-1,-1],"loss_changes":[5.610867E4,1.6583047E4,3.330503E4,0E0,1.1822051E4,1.5438898E4,1.4813329E4,0E0,0E0,0E0,0E0,0E0,0E0],"parents":[2147483647,0,0,1,1,2,2,4,4,5,5,6,6],"right_children":[2,4,6,-1,8,10,12,-1,-1,-1,-1,-1,-1],"split_conditions":[1.9846764E-1,1E-45,1E-45,4.4608045E-1,1E-45,1.4862714E2,1E-45,6.38929E-2,-7.597411E-2,8.7763804E-1,2.9658905E-1,-9.940652E-2,1.7059974E-1],"split_indices":[2,7,7,0,6,0,5,0,0,0,0,0,0],"split_type":[0,1,1,0,1,0,1,0,0,0,0,0,0],"sum_hessian":[6.76E2,5.35E2,1.41E2,6E0,5.29E2,2.2E1,1.19E2,7.3E1,4.56E2,8E0,1.4E1,2.7E1,9.2E1],"tree_param":{"num_deleted":"0","num_feature":"8","num_nodes":"13","size_leaf_vector":"1"}},{"base_weights":[-6.74151E-2,-5.035563E0,1.2623592E1,4.51609E-1,-5.527141E0,4.8188576E1,7.287804E0,7.088864E-2,-7.708793E-2,6.12112E-1,2.8817108E-1,-9.07638E-2,1.4904352E-1],"categories":[0,2,3,4,0,1,2,4,0,4,5,6,7,8,9,11,12,13,14],"categories_nodes":[1,2,4],"categories_segments":[0,4,8],"categories_sizes":[4,4,11],"default_left":[0,1,1,0,1,0,0,0,0,0,0,0,0],"id":42,"left_children":[1,3,5,-1,7,9,11,-1,-1,-1,-1,-1,-1],"loss_changes":[4.3253367E4,1.2138726E4,3.627389E4,0E0,1.2168835E4,4.102465E3,1.9902682E4,0E0,0E0,0E0,0E0,0E0,0E0],"parents":[2147483647,0,0,1,1,2,2,4,4,5,5,6,6],"right_children":[2,4,6,-1,8,10,12,-1,-1,-1,-1,-1,-1],"split_conditions":[1.5939962E-2,1E-45,1E-45,4.51609E-1,1E-45,2.0759314E-1,3.8563354E2,7.088864E-2,-7.708793E-2,6.12112E-1,2.8817108E-1,-9.07638E-2,1.4904352E-1],"split_indices":[1,7,7,0,6,2,3,0,0,0,0,0,0],"split_type":[0,1,1,0,1,0,0,0,0,0,0,0,0],"sum_hessian":[6.84E2,4.92E2,1.92E2,4E0,4.88E2,2.4E1,1.68E2,6.7E1,4.21E2,1.4E1,1E1,5.2E1,1.16E2],"tree_param":{"num_deleted":"0","num_feature":"8","num_nodes":"13","size_leaf_vector":"1"}},{"base_weights":[-4.5471624E-1,4.5120564E1,-2.0303202E0,8.130746E1,3.0551565E1,-7.4307847E0,5.7998757E0,2.9315618E-1,1.0305629E0,5.02466E-1,2.0180354E-1,3.9841256E-1,-8.330995E-2,2.6348618E-1,1.4569067E-2],"categories":[0,1,2,4,5,6,7,8,9,10,11,12,13,14,0,1,2,4,0,2,3,4,0,1,2,4],"categories_nodes":[0,1,5,6],"categories_segments":[0,14,18,22],"categories_sizes":[14,4,4,4],"default_left":[1,1,0,0,0,1,1,0,0,0,0,0,0,0,0],"id":43,"left_children":[1,3,5,7,9,11,13,-1,-1,-1,-1,-1,-1,-1,-1],"loss_changes":[4.942411E4,9.6416875E3,2.8163748E4,3.2014336E3,2.6461309E3,1.2989266E4,2.3664691E4,0E0,0E0,0E0,0E0,0E0,0E0,0E0,0E0],"parents":[2147483647,0,0,1,1,2,2,3,3,4,4,5,5,6,6],"right_children":[2,4,6,8,10,12,14,-1,-1,-1,-1,-1,-1,-1,-1],"split_conditions":[1E-45,1E-45,1.5911008E-1,7.0590955E2,1.3558698E2,1E-45,1E-45,2.9315618E-1,1.0305629E0,5.02466E-1,2.0180354E-1,3.9841256E-1,-8.330995E-2,2.6348618E-1,1.4569067E-2],"split_indices":[6,7,2,3,0,7,7,0,0,0,0,0,0,0,0],"split_type":[1,1,0,0,0,1,1,0,0,0,0,0,0,0,0],"sum_hessian":[6.86E2,2.2E1,6.64E2,5E0,1.7E1,3.93E2,2.71E2,2E0,3E0,5E0,1.2E1,5E0,3.88E2,4.8E1,2.23E2],"tree_param":{"num_deleted":"0","num_feature":"8","num_nodes":"15","size_leaf_vector":"1"}},{"base_weights":[-6.712924E-1,4.4549767E1,-2.253352E0,6.908253E1,2.6860126E1,-3.816042E0,3.1718561E1,8.102385E-1,2.342884E-1,3.6145383E-1,1.2539184E-1,-1.2863031E-1,-1.1802841E-2,9.322992E-1,2.19293E-1],"categories":[0,1,2,4,5,6,7,8,9,10,11,12,13,14,0,1,4,0,1,2,4],"categories_nodes":[0,4,6],"categories_segments":[0,14,17],"categories_sizes":[14,3,4],"default_left":[1,0,0,0,1,0,1,0,0,0,0,0,0,0,0],"id":44,"left_children":[1,3,5,7,9,11,13,-1,-1,-1,-1,-1,-1,-1,-1],"loss_changes":[4.867768E4,8.125875E3,3.4999574E4,2.331793E3,1.4109844E3,1.4618631E4,1.5793227E4,0E0,0E0,0E0,0E0,0E0,0E0,0E0,0E0],"parents":[2147483647,0,0,1,1,2,2,3,3,4,4,5,5,6,6],"right_children":[2,4,6,8,10,12,14,-1,-1,-1,-1,-1,-1,-1,-1],"split_conditions":[1E-45,1.4862714E2,3.8752187E-2,3.5730377E-2,1E-45,8.9675814E-2,1E-45,8.102385E-1,2.342884E-1,3.6145383E-1,1.2539184E-1,-1.2863031E-1,-1.1802841E-2,9.322992E-1,2.19293E-1],"split_indices":[6,0,1,1,7,2,7,0,0,0,0,0,0,0,0],"split_type":[1,0,0,0,1,0,1,0,0,0,0,0,0,0,0],"sum_hessian":[6.78E2,2.2E1,6.56E2,8E0,1.4E1,6.28E2,2.8E1,6E0,2E0,8E0,6E0,1.46E2,4.82E2,3E0,2.5E1],"tree_param":{"num_deleted":"0","num_feature":"8","num_nodes":"15","size_leaf_vector":"1"}},{"base_weights":[1.6727015E-1,-6.8834963E0,9.238699E0,4.02951E-1,-7.59276E0,3.1361698E1,4.473547E0,-2.0232032E-1,-6.1412152E-2,1.4659253E-1,5.1162106E-1,2.4106908E-1,-8.425596E-3],"categories":[0,2,3,4,0,1,2,4,0,1,4,5,6,7,10,11,12,13,14],"categories_nodes":[1,2,6],"categories_segments":[0,4,8],"categories_sizes":[4,4,11],"default_left":[0,1,1,0,0,0,1,0,0,0,0,0,0],"id":45,"left_children":[1,3,5,-1,7,9,11,-1,-1,-1,-1,-1,-1],"loss_changes":[4.3876555E4,1.2942873E4,3.148554E4,0E0,7.2961504E3,1.6053203E4,2.5022473E4,0E0,0E0,0E0,0E0,0E0,0E0],"parents":[2147483647,0,0,1,1,2,2,4,4,5,5,6,6],"right_children":[2,4,6,-1,8,10,12,-1,-1,-1,-1,-1,-1],"split_conditions":[1.5911008E-1,1E-45,1E-45,4.02951E-1,6.0822513E-2,1.6574407E-2,1E-45,-2.0232032E-1,-6.1412152E-2,1.4659253E-1,5.1162106E-1,2.4106908E-1,-8.425596E-3],"split_indices":[2,7,7,0,2,1,6,0,0,0,0,0,0],"split_type":[0,1,1,0,0,0,1,0,0,0,0,0,0],"sum_hessian":[6.84E2,3.85E2,2.99E2,5E0,3.8E2,5.2E1,2.47E2,4.3E1,3.37E2,2.8E1,2.4E1,5.3E1,1.94E2],"tree_param":{"num_deleted":"0","num_feature":"8","num_nodes":"13","size_leaf_vector":"1"}},{"base_weights":[1.1769408E-1,-4.117384E0,1.478943E1,4.3125284E-1,-4.718403E0,4.6802074E1,8.56725E0,4.0774614E-1,-5.3487264E-2,-1.2241278E-1,6.003924E-1,1.6742781E-1,-7.333987E-2],"categories":[0,2,3,4,0,1,2,4,0,1,2,4,5,6,7,8,9,10,11,12,13,14,0,1,4,5,6,10,11],"categories_nodes":[1,2,4,6],"categories_segments":[0,4,8,22],"categories_sizes":[4,4,14,7],"default_left":[0,1,1,0,1,0,1,0,0,0,0,0,0],"id":46,"left_children":[1,3,5,-1,7,9,11,-1,-1,-1,-1,-1,-1],"loss_changes":[4.2996832E4,1.5102875E4,3.0473242E4,0E0,1.1983585E4,1.7965457E4,1.6103575E4,0E0,0E0,0E0,0E0,0E0,0E0],"parents":[2147483647,0,0,1,1,2,2,4,4,5,5,6,6],"right_children":[2,4,6,-1,8,10,12,-1,-1,-1,-1,-1,-1],"split_conditions":[1.971785E-1,1E-45,1E-45,4.3125284E-1,1E-45,1.6574407E-2,1E-45,4.0774614E-1,-5.3487264E-2,-1.2241278E-1,6.003924E-1,1.6742781E-1,-7.333987E-2],"split_indices":[2,7,7,0,6,1,6,0,0,0,0,0,0],"split_type":[0,1,1,0,1,0,1,0,0,0,0,0,0],"sum_hessian":[6.9E2,5.36E2,1.54E2,6E0,5.3E2,2.4E1,1.3E2,5E0,5.25E2,4E0,2E1,8.7E1,4.3E1],"tree_param":{"num_deleted":"0","num_feature":"8","num_nodes":"13","size_leaf_vector":"1"}},{"base_weights":[1.0961868E-1,4.2303207E1,-1.4791604E0,6.571593E1,2.5026302E1,-2.8371975E0,2.8355003E1,7.563036E-1,2.2907358E-1,3.5203257E-1,1.171371E-1,-9.586291E-2,9.493855E-3,9.165795E-1,1.8324684E-1],"categories":[0,1,2,4,5,6,7,8,9,10,11,12,13,14,0,1,4,0,1,2,4],"categories_nodes":[0,4,6],"categories_segments":[0,14,17],"categories_sizes":[14,3,4],"default_left":[1,0,0,0,1,0,1,0,0,0,0,0,0,0,0],"id":47,"left_children":[1,3,5,7,9,11,13,-1,-1,-1,-1,-1,-1,-1,-1],"loss_changes":[4.6183543E4,8.467859E3,2.698301E4,1.8435859E3,1.6336182E3,1.5596368E4,1.6958092E4,0E0,0E0,0E0,0E0,0E0,0E0,0E0,0E0],"parents":[2147483647,0,0,1,1,2,2,3,3,4,4,5,5,6,6],"right_children":[2,4,6,8,10,12,14,-1,-1,-1,-1,-1,-1,-1,-1],"split_conditions":[1E-45,1.4862714E2,3.8752187E-2,3.5730377E-2,1E-45,1.1094141E-1,1E-45,7.563036E-1,2.2907358E-1,3.5203257E-1,1.171371E-1,-9.586291E-2,9.493855E-3,9.165795E-1,1.8324684E-1],"split_indices":[6,0,1,1,7,2,7,0,0,0,0,0,0,0,0],"split_type":[1,0,0,0,1,0,1,0,0,0,0,0,0,0,0],"sum_hessian":[6.87E2,2.4E1,6.63E2,9E0,1.5E1,6.35E2,2.8E1,7E0,2E0,8E0,7E0,2.32E2,4.03E2,3E0,2.5E1],"tree_param":{"num_deleted":"0","num_feature":"8","num_nodes":"15","size_leaf_vector":"1"}},{"base_weights":[4.5653984E-1,-4.7488475E0,1.4205229E1,4.2753386E-1,-5.405386E0,4.469529E1,8.094419E0,6.969814E-2,-7.147328E-2,7.5805634E-1,2.2899583E-1,1.5464182E-1,-5.2704506E-2],"categories":[0,2,3,4,0,1,2,4,0,4,5,6,7,8,9,11,12,13,14,0,1,4,5,6,10,11],"categories_nodes":[1,2,4,6],"categories_segments":[0,4,8,19],"categories_sizes":[4,4,11,7],"default_left":[0,1,1,0,1,0,1,0,0,0,0,0,0],"id":48,"left_children":[1,3,5,-1,7,9,11,-1,-1,-1,-1,-1,-1],"loss_changes":[4.873319E4,1.5290061E4,3.4479867E4,0E0,9.372079E3,1.8618074E4,1.4599152E4,0E0,0E0,0E0,0E0,0E0,0E0],"parents":[2147483647,0,0,1,1,2,2,4,4,5,5,6,6],"right_children":[2,4,6,-1,8,10,12,-1,-1,-1,-1,-1,-1],"split_conditions":[1.9025713E-1,1E-45,1E-45,4.2753386E-1,1E-45,1.4862714E2,1E-45,6.969814E-2,-7.147328E-2,7.5805634E-1,2.2899583E-1,1.5464182E-1,-5.2704506E-2],"split_indices":[2,7,7,0,6,0,6,0,0,0,0,0,0],"split_type":[0,1,1,0,1,0,1,0,0,0,0,0,0],"sum_hessian":[6.79E2,4.93E2,1.86E2,6E0,4.87E2,3E1,1.56E2,5.5E1,4.32E2,1.2E1,1.8E1,1.02E2,5.4E1],"tree_param":{"num_deleted":"0","num_feature":"8","num_nodes":"13","size_leaf_vector":"1"}},{"base_weights":[6.972592E-1,4.2575954E1,-7.9722214E-1,6.4845985E1,2.489087E1,-2.3606353E0,2.959505E1,7.460291E-1,2.2674114E-1,3.4716088E-1,1.0050384E-1,-1.2164484E-1,5.296246E-3,9.0370226E-1,2.1327808E-1],"categories":[0,1,2,4,5,6,7,8,9,10,11,12,13,14,0,1,4,0,1,2,4],"categories_nodes":[0,4,6],"categories_segments":[0,14,17],"categories_sizes":[14,3,4],"default_left":[1,0,0,0,1,0,1,0,0,0,0,0,0,0,0],"id":49,"left_children":[1,3,5,7,9,11,13,-1,-1,-1,-1,-1,-1,-1,-1],"loss_changes":[4.359444E4,7.8382656E3,3.2047912E4,1.7743281E3,1.6981035E3,1.7534334E4,1.515501E4,0E0,0E0,0E0,0E0,0E0,0E0,0E0,0E0],"parents":[2147483647,0,0,1,1,2,2,3,3,4,4,5,5,6,6],"right_children":[2,4,6,8,10,12,14,-1,-1,-1,-1,-1,-1,-1,-1],"split_conditions":[1E-45,1.4862714E2,3.8752187E-2,3.5730377E-2,1E-45,8.9675814E-2,1E-45,7.460291E-1,2.2674114E-1,3.4716088E-1,1.0050384E-1,-1.2164484E-1,5.296246E-3,9.0370226E-1,2.1327808E-1],"split_indices":[6,0,1,1,7,2,7,0,0,0,0,0,0,0,0],"split_type":[1,0,0,0,1,0,1,0,0,0,0,0,0,0,0],"sum_hessian":[6.95E2,2.3E1,6.72E2,9E0,1.4E1,6.4E2,3.2E1,7E0,2E0,8E0,6E0,1.48E2,4.92E2,3E0,2.9E1],"tree_param":{"num_deleted":"0","num_feature":"8","num_nodes":"15","size_leaf_vector":"1"}},{"base_weights":[-1.0538888E-1,4.1341812E1,-1.6680957E0,6.427841E1,2.442257E1,-2.928702E0,3.201758E1,7.3933643E-1,2.2519132E-1,3.4399703E-1,1.137973E-1,-1.1669684E-1,1.0687329E-3,5.2783364E-1,1.4801568E-1],"categories":[0,1,2,4,5,6,7,8,9,10,11,12,13,14,0,1,4],"categories_nodes":[0,4],"categories_segments":[0,14],"categories_sizes":[14,3],"default_left":[1,0,0,0,1,0,0,0,0,0,0,0,0,0,0],"id":50,"left_children":[1,3,5,7,9,11,13,-1,-1,-1,-1,-1,-1,-1,-1],"loss_changes":[4.4565832E4,8.1319023E3,2.8247648E4,1.7306367E3,1.5737217E3,1.6409877E4,7.4697637E3,0E0,0E0,0E0,0E0,0E0,0E0,0E0,0E0],"parents":[2147483647,0,0,1,1,2,2,3,3,4,4,5,5,6,6],"right_children":[2,4,6,8,10,12,14,-1,-1,-1,-1,-1,-1,-1,-1],"split_conditions":[1E-45,1.4862714E2,4.066738E-2,3.5730377E-2,1E-45,9.41817E-2,1.5228502E2,7.3933643E-1,2.2519132E-1,3.4399703E-1,1.137973E-1,-1.1669684E-1,1.0687329E-3,5.2783364E-1,1.4801568E-1],"split_indices":[6,0,1,1,7,2,0,0,0,0,0,0,0,0,0],"split_type":[1,0,0,0,1,0,0,0,0,0,0,0,0,0,0],"sum_hessian":[6.86E2,2.4E1,6.62E2,9E0,1.5E1,6.39E2,2.3E1,7E0,2E0,8E0,7E0,1.68E2,4.71E2,1E1,1.3E1],"tree_param":{"num_deleted":"0","num_feature":"8","num_nodes":"15","size_leaf_vector":"1"}},{"base_weights":[1.550517E-1,4.449672E1,-1.3077246E0,6.3715843E1,2.6289955E1,-6.4943433E0,5.7528973E0,7.327038E-1,2.2365211E-1,3.90653E-1,1.0992633E-1,4.2372075E-1,-7.546456E-2,2.7340913E-1,1.9425381E-2],"categories":[0,1,2,4,5,6,7,8,9,10,11,12,13,14,0,1,4,0,2,3,4,0,1,2,4],"categories_nodes":[0,4,5,6],"categories_segments":[0,14,17,21],"categories_sizes":[14,3,4,4],"default_left":[1,0,0,0,1,1,1,0,0,0,0,0,0,0,0],"id":51,"left_children":[1,3,5,7,9,11,13,-1,-1,-1,-1,-1,-1,-1,-1],"loss_changes":[4.4683203E4,6.0231094E3,2.4463404E4,1.6879258E3,1.9821846E3,1.6250819E4,2.278525E4,0E0,0E0,0E0,0E0,0E0,0E0,0E0,0E0],"parents":[2147483647,0,0,1,1,2,2,3,3,4,4,5,5,6,6],"right_children":[2,4,6,8,10,12,14,-1,-1,-1,-1,-1,-1,-1,-1],"split_conditions":[1E-45,1.4862714E2,1.5911008E-1,3.5730377E-2,1E-45,1E-45,1E-45,7.327038E-1,2.2365211E-1,3.90653E-1,1.0992633E-1,4.2372075E-1,-7.546456E-2,2.7340913E-1,1.9425381E-2],"split_indices":[6,0,2,1,7,7,7,0,0,0,0,0,0,0,0],"split_type":[1,0,0,0,1,1,1,0,0,0,0,0,0,0,0],"sum_hessian":[6.87E2,2.1E1,6.66E2,9E0,1.2E1,3.84E2,2.82E2,7E0,2E0,6E0,6E0,6E0,3.78E2,4.3E1,2.39E2],"tree_param":{"num_deleted":"0","num_feature":"8","num_nodes":"15","size_leaf_vector":"1"}},{"base_weights":[-5.7237184E-1,-2.7668276E0,2.4282225E1,4.2059208E1,-3.4796174E0,8.5699196E1,1.6580576E1,7.084372E-1,1.2833554E-1,-1.2908046E-1,-7.190414E-3,3.298037E-1,1.0706179E0,-2.6618395E-2,2.3117459E-1],"categories":[0,1,2,4,5,6,7,8,9,10,11,12,13,14,0,1,2,4],"categories_nodes":[1,2],"categories_segments":[0,14],"categories_sizes":[14,4],"default_left":[0,1,1,0,0,0,0,0,0,0,0,0,0,0,0],"id":52,"left_children":[1,3,5,7,9,11,13,-1,-1,-1,-1,-1,-1,-1,-1],"loss_changes":[3.764684E4,2.0403623E4,2.5067723E4,7.122785E3,1.5810616E4,2.6549102E3,5.894492E3,0E0,0E0,0E0,0E0,0E0,0E0,0E0,0E0],"parents":[2147483647,0,0,1,1,2,2,3,3,4,4,5,5,6,6],"right_children":[2,4,6,8,10,12,14,-1,-1,-1,-1,-1,-1,-1,-1],"split_conditions":[3.551124E-2,1E-45,1E-45,1.2924637E2,8.9675814E-2,1.9758219E-1,1.17996414E2,7.084372E-1,1.2833554E-1,-1.2908046E-1,-7.190414E-3,3.298037E-1,1.0706179E0,-2.6618395E-2,2.3117459E-1],"split_indices":[1,6,7,0,2,2,0,0,0,0,0,0,0,0,0],"split_type":[0,1,1,0,0,0,0,0,0,0,0,0,0,0,0],"sum_hessian":[6.88E2,6.33E2,5.5E1,9E0,6.24E2,5E0,5E1,4E0,5E0,1.45E2,4.79E2,2E0,3E0,1.2E1,3.8E1],"tree_param":{"num_deleted":"0","num_feature":"8","num_nodes":"15","size_leaf_vector":"1"}},{"base_weights":[-2.0958436E-1,-4.299368E0,1.5100158E1,7.942396E0,-6.738167E0,4.485506E1,8.775385E0,-1.0568532E-1,2.0242643E-1,-5.084051E-2,-2.1081841E-1,7.7290136E-1,2.6711833E-1,-1.0153158E-1,1.4666063E-1],"categories":[0,4,6,7,8,9,11,12,13,14,0,1,2,4,0,0],"categories_nodes":[1,2,3,6],"categories_segments":[0,10,14,15],"categories_sizes":[10,4,1,1],"default_left":[0,1,1,1,0,0,1,0,0,0,0,0,0,0,0],"id":53,"left_children":[1,3,5,7,9,11,13,-1,-1,-1,-1,-1,-1,-1,-1],"loss_changes":[4.276735E4,1.6145471E4,2.6706172E4,1.9587713E4,1.0967508E4,1.2386336E4,1.2534828E4,0E0,0E0,0E0,0E0,0E0,0E0,0E0,0E0],"parents":[2147483647,0,0,1,1,2,2,3,3,4,4,5,5,6,6],"right_children":[2,4,6,8,10,12,14,-1,-1,-1,-1,-1,-1,-1,-1],"split_conditions":[1.9944161E-1,1E-45,1E-45,1E-45,2.3114827E2,1.4020128E2,1E-45,-1.0568532E-1,2.0242643E-1,-5.084051E-2,-2.1081841E-1,7.7290136E-1,2.6711833E-1,-1.0153158E-1,1.4666063E-1],"split_indices":[2,6,7,5,0,0,5,0,0,0,0,0,0,0,0],"split_type":[0,1,1,1,0,0,1,0,0,0,0,0,0,0,0],"sum_hessian":[6.81E2,5.38E2,1.43E2,8.9E1,4.49E2,2.4E1,1.19E2,3.5E1,5.4E1,3.99E2,5E1,8E0,1.6E1,2.7E1,9.2E1],"tree_param":{"num_deleted":"0","num_feature":"8","num_nodes":"15","size_leaf_vector":"1"}},{"base_weights":[3.121981E-1,-4.2866907E0,1.4267476E1,-1.1764501E1,-1.2114515E0,4.124044E1,8.736341E0,-8.3343856E-2,-2.3840746E-1,-9.110259E-2,3.2974143E-2,5.219873E-1,-4.4293337E-2,1.7823702E-1,-4.497241E-2],"categories":[0,1,2,4],"categories_nodes":[2],"categories_segments":[0],"categories_sizes":[4],"default_left":[0,0,1,0,0,0,0,0,0,0,0,0,0,0,0],"id":54,"left_children":[1,3,5,7,9,11,13,-1,-1,-1,-1,-1,-1,-1,-1],"loss_changes":[4.453705E4,1.19896875E4,2.5300578E4,6.1596113E3,1.2634643E4,1.2998895E4,1.6418312E4,0E0,0E0,0E0,0E0,0E0,0E0,0E0,0E0],"parents":[2147483647,0,0,1,1,2,2,3,3,4,4,5,5,6,6],"right_children":[2,4,6,8,10,12,14,-1,-1,-1,-1,-1,-1,-1,-1],"split_conditions":[1.9302638E-1,8.9675814E-2,1E-45,7.507615E2,4.295215E2,1.8341095E2,1.6918962E2,-8.3343856E-2,-2.3840746E-1,-9.110259E-2,3.2974143E-2,5.219873E-1,-4.4293337E-2,1.7823702E-1,-4.497241E-2],"split_indices":[2,2,7,3,3,0,0,0,0,0,0,0,0,0,0],"split_type":[0,0,1,0,0,0,0,0,0,0,0,0,0,0,0],"sum_hessian":[6.92E2,5.21E2,1.71E2,1.51E2,3.7E2,2.8E1,1.43E2,1.16E2,3.5E1,1.35E2,2.35E2,2.3E1,5E0,8.6E1,5.7E1],"tree_param":{"num_deleted":"0","num_feature":"8","num_nodes":"15","size_leaf_vector":"1"}},{"base_weights":[2.9950345E-1,3.9847595E1,-1.1464056E0,6.2120735E1,2.3436405E1,-6.3412204E0,6.148585E0,7.14145E-1,2.1862845E-1,3.3125335E-1,1.07912295E-1,4.191044E-1,-7.345064E-2,2.6732966E-1,1.629954E-2],"categories":[0,1,2,4,5,6,7,8,9,10,11,12,13,14,0,1,4,0,2,3,4,0,1,2,4],"categories_nodes":[0,4,5,6],"categories_segments":[0,14,17,21],"categories_sizes":[14,3,4,4],"default_left":[1,0,0,0,1,1,1,0,0,0,0,0,0,0,0],"id":55,"left_children":[1,3,5,7,9,11,13,-1,-1,-1,-1,-1,-1,-1,-1],"loss_changes":[4.0531203E4,7.682336E3,2.595994E4,1.5881836E3,1.4928086E3,1.5833801E4,2.5846953E4,0E0,0E0,0E0,0E0,0E0,0E0,0E0,0E0],"parents":[2147483647,0,0,1,1,2,2,3,3,4,4,5,5,6,6],"right_children":[2,4,6,8,10,12,14,-1,-1,-1,-1,-1,-1,-1,-1],"split_conditions":[1E-45,1.4862714E2,1.5846625E-1,3.5730377E-2,1E-45,1E-45,1E-45,7.14145E-1,2.1862845E-1,3.3125335E-1,1.07912295E-1,4.191044E-1,-7.345064E-2,2.6732966E-1,1.629954E-2],"split_indices":[6,0,2,1,7,7,7,0,0,0,0,0,0,0,0],"split_type":[1,0,0,0,1,1,1,0,0,0,0,0,0,0,0],"sum_hessian":[7.07E2,2.4E1,6.83E2,9E0,1.5E1,3.99E2,2.84E2,7E0,2E0,8E0,7E0,6E0,3.93E2,5.2E1,2.32E2],"tree_param":{"num_deleted":"0","num_feature":"8","num_nodes":"15","size_leaf_vector":"1"}},{"base_weights":[-1.6450067E-1,4.090642E1,-1.5270885E0,6.284788E1,2.387931E1,-2.9431074E0,2.7436365E1,7.35405E-1,2.171341E-1,2.9927325E-1,3.3893492E-2,-1.0914647E-1,2.38329E-4,8.7505805E-1,1.864271E-1],"categories":[0,1,2,4,5,6,7,8,9,10,11,12,13,14,0,1,0,1,2,4],"categories_nodes":[0,4,6],"categories_segments":[0,14,16],"categories_sizes":[14,2,4],"default_left":[1,0,0,0,1,0,1,0,0,0,0,0,0,0,0],"id":56,"left_children":[1,3,5,7,9,11,13,-1,-1,-1,-1,-1,-1,-1,-1],"loss_changes":[3.8340984E4,6.7184297E3,2.7272232E4,1.8112148E3,1.4330596E3,1.44633125E4,1.506017E4,0E0,0E0,0E0,0E0,0E0,0E0,0E0,0E0],"parents":[2147483647,0,0,1,1,2,2,3,3,4,4,5,5,6,6],"right_children":[2,4,6,8,10,12,14,-1,-1,-1,-1,-1,-1,-1,-1],"split_conditions":[1E-45,1.4862714E2,3.8752187E-2,3.5730377E-2,1E-45,3.9585953E2,1E-45,7.35405E-1,2.171341E-1,2.9927325E-1,3.3893492E-2,-1.0914647E-1,2.38329E-4,8.7505805E-1,1.864271E-1],"split_indices":[6,0,1,1,7,3,7,0,0,0,0,0,0,0,0],"split_type":[1,0,0,0,1,0,1,0,0,0,0,0,0,0,0],"sum_hessian":[6.83E2,2.1E1,6.62E2,8E0,1.3E1,6.32E2,3E1,6E0,2E0,1E1,3E0,1.75E2,4.57E2,3E0,2.7E1],"tree_param":{"num_deleted":"0","num_feature":"8","num_nodes":"15","size_leaf_vector":"1"}},{"base_weights":[-4.948586E-1,4.0537575E1,-1.9111515E0,6.3931488E1,2.3798721E1,-3.18316E0,2.9522255E1,7.503252E-1,2.1564996E-1,2.9379013E-1,3.3632867E-2,-1.22930415E-1,-4.5596315E-3,3.9756972E-1,3.9489955E-2],"categories":[0,1,2,4,5,6,7,8,9,10,11,12,13,14,0,1],"categories_nodes":[0,4],"categories_segments":[0,14],"categories_sizes":[14,2],"default_left":[1,0,0,0,1,0,0,0,0,0,0,0,0,0,0],"id":57,"left_children":[1,3,5,7,9,11,13,-1,-1,-1,-1,-1,-1,-1,-1],"loss_changes":[4.0059867E4,7.4850195E3,2.6723025E4,2.0326484E3,1.4006221E3,1.545375E4,6.027666E3,0E0,0E0,0E0,0E0,0E0,0E0,0E0,0E0],"parents":[2147483647,0,0,1,1,2,2,3,3,4,4,5,5,6,6],"right_children":[2,4,6,8,10,12,14,-1,-1,-1,-1,-1,-1,-1,-1],"split_conditions":[1E-45,1.4862714E2,4.066738E-2,3.5730377E-2,1E-45,8.9675814E-2,1.7193268E2,7.503252E-1,2.1564996E-1,2.9379013E-1,3.3632867E-2,-1.22930415E-1,-4.5596315E-3,3.9756972E-1,3.9489955E-2],"split_indices":[6,0,1,1,7,2,0,0,0,0,0,0,0,0,0],"split_type":[1,0,0,0,1,0,0,0,0,0,0,0,0,0,0],"sum_hessian":[6.87E2,2.2E1,6.65E2,8E0,1.4E1,6.4E2,2.5E1,6E0,2E0,1.1E1,3E0,1.51E2,4.89E2,1.8E1,7E0],"tree_param":{"num_deleted":"0","num_feature":"8","num_nodes":"15","size_leaf_vector":"1"}},{"base_weights":[1.0567283E-1,4.0327812E1,-1.3133684E0,7.387508E1,2.6904959E1,-2.7662582E0,2.99941E1,9.597119E-1,2.352203E-1,4.2248353E-1,1.673235E-1,-1.1907157E-1,-6.538165E-4,9.528391E-1,2.2442842E-1],"categories":[0,1,2,4,5,6,7,8,9,10,11,12,13,14,0,1,2,4,0,1,2,4],"categories_nodes":[0,1,6],"categories_segments":[0,14,18],"categories_sizes":[14,4,4],"default_left":[1,1,0,0,0,0,1,0,0,0,0,0,0,0,0],"id":58,"left_children":[1,3,5,7,9,11,13,-1,-1,-1,-1,-1,-1,-1,-1],"loss_changes":[3.852278E4,8.369297E3,2.9740041E4,3.8821309E3,2.0524863E3,1.4919154E4,1.2758615E4,0E0,0E0,0E0,0E0,0E0,0E0,0E0,0E0],"parents":[2147483647,0,0,1,1,2,2,3,3,4,4,5,5,6,6],"right_children":[2,4,6,8,10,12,14,-1,-1,-1,-1,-1,-1,-1,-1],"split_conditions":[1E-45,1E-45,3.8752187E-2,2.0967963E-1,1.4483597E2,8.9675814E-2,1E-45,9.597119E-1,2.352203E-1,4.2248353E-1,1.673235E-1,-1.1907157E-1,-6.538165E-4,9.528391E-1,2.2442842E-1],"split_indices":[6,7,1,2,0,2,7,0,0,0,0,0,0,0,0],"split_type":[1,1,0,0,0,0,1,0,0,0,0,0,0,0,0],"sum_hessian":[6.73E2,2.2E1,6.51E2,5E0,1.7E1,6.23E2,2.8E1,3E0,2E0,6E0,1.1E1,1.45E2,4.78E2,2E0,2.6E1],"tree_param":{"num_deleted":"0","num_feature":"8","num_nodes":"15","size_leaf_vector":"1"}},{"base_weights":[-2.4808213E-1,-4.034552E0,1.3894912E1,4.1546506E-1,-4.601523E0,4.6000782E1,7.5688167E0,8.30711E-2,-6.694653E-2,8.726841E-1,2.5515807E-1,1.6290191E-1,-5.1903084E-2],"categories":[0,2,3,4,0,1,2,4,0,4,5,6,7,8,9,11,12,13,14],"categories_nodes":[1,2,4],"categories_segments":[0,4,8],"categories_sizes":[4,4,11],"default_left":[0,1,1,0,1,0,0,0,0,0,0,0,0],"id":59,"left_children":[1,3,5,-1,7,9,11,-1,-1,-1,-1,-1,-1],"loss_changes":[3.727472E4,1.4055618E4,2.9508227E4,0E0,1.3353583E4,1.7703434E4,1.3111616E4,0E0,0E0,0E0,0E0,0E0,0E0],"parents":[2147483647,0,0,1,1,2,2,4,4,5,5,6,6],"right_children":[2,4,6,-1,8,10,12,-1,-1,-1,-1,-1,-1],"split_conditions":[1.9944161E-1,1E-45,1E-45,4.1546506E-1,1E-45,1.4862714E2,1.6918962E2,8.30711E-2,-6.694653E-2,8.726841E-1,2.5515807E-1,1.6290191E-1,-5.1903084E-2],"split_indices":[2,7,7,0,6,0,0,0,0,0,0,0,0],"split_type":[0,1,1,0,1,0,0,0,0,0,0,0,0],"sum_hessian":[6.94E2,5.48E2,1.46E2,6E0,5.42E2,2.3E1,1.23E2,7.1E1,4.71E2,7E0,1.6E1,7.4E1,4.9E1],"tree_param":{"num_deleted":"0","num_feature":"8","num_nodes":"13","size_leaf_vector":"1"}},{"base_weights":[-1.163426E-1,-3.7136743E0,1.4095218E1,8.073793E0,-5.912788E0,2.005395E1,-1.1806609E1,-9.8119885E-2,1.9849385E-1,-4.29841E-2,-1.9292621E-1,-9.826242E-2,2.9995614E-1,-5.813578E-3,-1.6109137E-1],"categories":[0,4,6,7,8,9,11,12,13,14,0,0],"categories_nodes":[1,3,5],"categories_segments":[0,10,11],"categories_sizes":[10,1,1],"default_left":[0,1,0,1,0,1,0,0,0,0,0,0,0,0,0],"id":60,"left_children":[1,3,5,7,9,11,13,-1,-1,-1,-1,-1,-1,-1,-1],"loss_changes":[3.5685562E4,1.4486283E4,2.1998996E4,1.7709287E4,1.0354906E4,3.1645566E4,1.1762883E3,0E0,0E0,0E0,0E0,0E0,0E0,0E0,0E0],"parents":[2147483647,0,0,1,1,2,2,3,3,4,4,5,5,6,6],"right_children":[2,4,6,8,10,12,14,-1,-1,-1,-1,-1,-1,-1,-1],"split_conditions":[1.9944161E-1,1E-45,1.8813725E2,1E-45,2.3327739E2,1E-45,1.4055311E3,-9.8119885E-2,1.9849385E-1,-4.29841E-2,-1.9292621E-1,-9.826242E-2,2.9995614E-1,-5.813578E-3,-1.6109137E-1],"split_indices":[2,6,0,5,0,5,4,0,0,0,0,0,0,0,0],"split_type":[0,1,0,1,0,1,0,0,0,0,0,0,0,0,0],"sum_hessian":[6.96E2,5.56E2,1.4E2,8.7E1,4.69E2,1.14E2,2.6E1,3.4E1,5.3E1,4.15E2,5.4E1,2.7E1,8.7E1,7E0,1.9E1],"tree_param":{"num_deleted":"0","num_feature":"8","num_nodes":"15","size_leaf_vector":"1"}},{"base_weights":[1.8540582E-1,3.9868202E1,-1.177116E0,7.2545456E1,2.6760883E1,-2.4977822E0,2.7080357E1,9.4489795E-1,2.2770782E-1,4.1603082E-1,1.6887183E-1,-1.1811286E-1,3.138361E-3,8.5224295E-1,1.8223783E-1],"categories":[0,1,2,4,5,6,7,8,9,10,11,12,13,14,0,1,2,4,0,1,2,4],"categories_nodes":[0,1,6],"categories_segments":[0,14,18],"categories_sizes":[14,4,4],"default_left":[1,1,0,0,0,0,1,0,0,0,0,0,0,0,0],"id":61,"left_children":[1,3,5,7,9,11,13,-1,-1,-1,-1,-1,-1,-1,-1],"loss_changes":[3.7462453E4,7.9097773E3,2.5071162E4,3.8773398E3,1.8907773E3,1.62193955E4,1.4168254E4,0E0,0E0,0E0,0E0,0E0,0E0,0E0,0E0],"parents":[2147483647,0,0,1,1,2,2,3,3,4,4,5,5,6,6],"right_children":[2,4,6,8,10,12,14,-1,-1,-1,-1,-1,-1,-1,-1],"split_conditions":[1E-45,1E-45,3.8752187E-2,2.0967963E-1,1.4483597E2,8.9675814E-2,1E-45,9.4489795E-1,2.2770782E-1,4.1603082E-1,1.6887183E-1,-1.1811286E-1,3.138361E-3,8.5224295E-1,1.8223783E-1],"split_indices":[6,7,1,2,0,2,7,0,0,0,0,0,0,0,0],"split_type":[1,1,0,0,0,0,1,0,0,0,0,0,0,0,0],"sum_hessian":[6.91E2,2.2E1,6.69E2,5E0,1.7E1,6.4E2,2.9E1,3E0,2E0,6E0,1.1E1,1.51E2,4.89E2,3E0,2.6E1],"tree_param":{"num_deleted":"0","num_feature":"8","num_nodes":"15","size_leaf_vector":"1"}},{"base_weights":[7.85112E-1,-3.0928206E0,1.598874E1,8.145793E0,-5.3533373E0,4.543793E1,9.250226E0,-1.0223553E-1,2.0262681E-1,-3.6938164E-2,-1.8947628E-1,7.887888E-1,2.4849978E-1,1.7841597E-1,-4.5976423E-2],"categories":[0,4,6,7,8,9,11,12,13,14,0,1,2,4,0],"categories_nodes":[1,2,3],"categories_segments":[0,10,14],"categories_sizes":[10,4,1],"default_left":[0,1,1,1,0,0,0,0,0,0,0,0,0,0,0],"id":62,"left_children":[1,3,5,7,9,11,13,-1,-1,-1,-1,-1,-1,-1,-1],"loss_changes":[4.090779E4,1.4092612E4,2.7560266E4,1.9771572E4,1.0527252E4,1.5496711E4,1.3065306E4,0E0,0E0,0E0,0E0,0E0,0E0,0E0,0E0],"parents":[2147483647,0,0,1,1,2,2,3,3,4,4,5,5,6,6],"right_children":[2,4,6,8,10,12,14,-1,-1,-1,-1,-1,-1,-1,-1],"split_conditions":[1.9944161E-1,1E-45,1E-45,1E-45,2.3327739E2,1.4862714E2,1.6918962E2,-1.0223553E-1,2.0262681E-1,-3.6938164E-2,-1.8947628E-1,7.887888E-1,2.4849978E-1,1.7841597E-1,-4.5976423E-2],"split_indices":[2,6,7,5,0,0,0,0,0,0,0,0,0,0,0],"split_type":[0,1,1,1,0,0,0,0,0,0,0,0,0,0,0],"sum_hessian":[6.92E2,5.52E2,1.4E2,9.2E1,4.6E2,2.5E1,1.15E2,3.6E1,5.6E1,4.07E2,5.3E1,9E0,1.6E1,7.2E1,4.3E1],"tree_param":{"num_deleted":"0","num_feature":"8","num_nodes":"15","size_leaf_vector":"1"}},{"base_weights":[-1.9253825E-1,-6.640078E0,8.375401E0,4.10375E-1,-7.4778347E0,3.3397476E1,2.6868334E0,-6.1006945E-2,-1.9871584E-1,1.7732956E-1,5.413806E-1,8.34894E-2,-8.468136E-2],"categories":[0,2,3,4,0,1,2,4,4,8,11,0,1,4,5,6,10,11,13],"categories_nodes":[1,2,4,6],"categories_segments":[0,4,8,11],"categories_sizes":[4,4,3,8],"default_left":[0,1,1,0,1,0,1,0,0,0,0,0,0],"id":63,"left_children":[1,3,5,-1,7,9,11,-1,-1,-1,-1,-1,-1],"loss_changes":[3.7565016E4,1.5468129E4,4.1473473E4,0E0,6.830705E3,1.59601875E4,1.4341897E4,0E0,0E0,0E0,0E0,0E0,0E0],"parents":[2147483647,0,0,1,1,2,2,4,4,5,5,6,6],"right_children":[2,4,6,-1,8,10,12,-1,-1,-1,-1,-1,-1],"split_conditions":[1.5911008E-1,1E-45,1E-45,4.10375E-1,1E-45,1.6887544E-2,1E-45,-6.1006945E-2,-1.9871584E-1,1.7732956E-1,5.413806E-1,8.34894E-2,-8.468136E-2],"split_indices":[2,7,7,0,6,1,6,0,0,0,0,0,0],"split_type":[0,1,1,0,1,0,1,0,0,0,0,0,0],"sum_hessian":[6.78E2,3.87E2,2.91E2,6E0,3.81E2,5.3E1,2.38E2,3.39E2,4.2E1,3E1,2.3E1,1.59E2,7.9E1],"tree_param":{"num_deleted":"0","num_feature":"8","num_nodes":"13","size_leaf_vector":"1"}},{"base_weights":[3.8660917E-2,-6.186992E0,8.67689E0,4.0101135E-1,-6.857729E0,3.0562752E1,3.858648E0,-5.4416277E-2,-1.9307317E-1,1.2434373E-1,5.125038E-1,2.2460864E-1,-5.9425323E-3],"categories":[0,2,3,4,0,1,2,4,4,8,11,0,1,4,5,6,7,10,11,12,13,14],"categories_nodes":[1,2,4,6],"categories_segments":[0,4,8,11],"categories_sizes":[4,4,3,11],"default_left":[0,1,1,0,1,0,1,0,0,0,0,0,0],"id":64,"left_children":[1,3,5,-1,7,9,11,-1,-1,-1,-1,-1,-1],"loss_changes":[3.7107152E4,1.2452305E4,3.035752E4,0E0,7.2505586E3,1.8014309E4,1.9077566E4,0E0,0E0,0E0,0E0,0E0,0E0],"parents":[2147483647,0,0,1,1,2,2,4,4,5,5,6,6],"right_children":[2,4,6,-1,8,10,12,-1,-1,-1,-1,-1,-1],"split_conditions":[1.5911008E-1,1E-45,1E-45,4.0101135E-1,1E-45,1.6887544E-2,1E-45,-5.4416277E-2,-1.9307317E-1,1.2434373E-1,5.125038E-1,2.2460864E-1,-5.9425323E-3],"split_indices":[2,7,7,0,6,1,6,0,0,0,0,0,0],"split_type":[0,1,1,0,1,0,1,0,0,0,0,0,0],"sum_hessian":[6.88E2,4E2,2.88E2,5E0,3.95E2,5.1E1,2.37E2,3.51E2,4.4E1,2.7E1,2.4E1,4.6E1,1.91E2],"tree_param":{"num_deleted":"0","num_feature":"8","num_nodes":"13","size_leaf_vector":"1"}},{"base_weights":[8.118584E-1,3.785933E1,-4.668577E-1,6.0980103E1,2.1462906E1,-1.8241825E0,2.7439037E1,7.1705896E-1,2.0249239E-1,3.047925E-1,7.966498E-2,-1.0850582E-1,9.180108E-3,8.3302283E-1,1.9246247E-1],"categories":[0,1,2,4,5,6,7,8,9,10,11,12,13,14,0,1,4,0,1,2,4],"categories_nodes":[0,4,6],"categories_segments":[0,14,17],"categories_sizes":[14,3,4],"default_left":[1,0,0,0,1,0,1,0,0,0,0,0,0,0,0],"id":65,"left_children":[1,3,5,7,9,11,13,-1,-1,-1,-1,-1,-1,-1,-1],"loss_changes":[3.2657805E4,7.4104453E3,2.5314254E4,1.9429297E3,1.4665981E3,1.5183218E4,1.2932576E4,0E0,0E0,0E0,0E0,0E0,0E0,0E0,0E0],"parents":[2147483647,0,0,1,1,2,2,3,3,4,4,5,5,6,6],"right_children":[2,4,6,8,10,12,14,-1,-1,-1,-1,-1,-1,-1,-1],"split_conditions":[1E-45,1.4862714E2,3.8752187E-2,3.5730377E-2,1E-45,8.9675814E-2,1E-45,7.1705896E-1,2.0249239E-1,3.047925E-1,7.966498E-2,-1.0850582E-1,9.180108E-3,8.3302283E-1,1.9246247E-1],"split_indices":[6,0,1,1,7,2,7,0,0,0,0,0,0,0,0],"split_type":[1,0,0,0,1,0,1,0,0,0,0,0,0,0,0],"sum_hessian":[6.88E2,2.2E1,6.66E2,8E0,1.4E1,6.36E2,3E1,6E0,2E0,8E0,6E0,1.5E2,4.86E2,3E0,2.7E1],"tree_param":{"num_deleted":"0","num_feature":"8","num_nodes":"15","size_leaf_vector":"1"}},{"base_weights":[-1.5627086E-1,-6.5230875E0,7.8755836E0,4.1892144E-1,-7.252152E0,2.9499176E1,3.1248965E0,-6.155699E-2,-2.7086672E-1,1.2766407E-1,5.2288634E-1,2.5010788E-1,3.1797664E-4],"categories":[0,2,3,4,0,1,2,4,4,0,1,2,4,5,6,7,10,11,12,13,14],"categories_nodes":[1,2,4,6],"categories_segments":[0,4,8,9],"categories_sizes":[4,4,1,12],"default_left":[0,1,1,0,1,0,1,0,0,0,0,0,0],"id":66,"left_children":[1,3,5,-1,7,9,11,-1,-1,-1,-1,-1,-1],"loss_changes":[3.538728E4,1.3630717E4,3.1342256E4,0E0,8.956248E3,1.9524227E4,1.6582166E4,0E0,0E0,0E0,0E0,0E0,0E0],"parents":[2147483647,0,0,1,1,2,2,4,4,5,5,6,6],"right_children":[2,4,6,-1,8,10,12,-1,-1,-1,-1,-1,-1],"split_conditions":[1.5911008E-1,1E-45,1E-45,4.1892144E-1,1E-45,1.6887544E-2,1E-45,-6.155699E-2,-2.7086672E-1,1.2766407E-1,5.2288634E-1,2.5010788E-1,3.1797664E-4],"split_indices":[2,7,7,0,6,1,6,0,0,0,0,0,0],"split_type":[0,1,1,0,1,0,1,0,0,0,0,0,0],"sum_hessian":[6.9E2,3.85E2,3.05E2,5E0,3.8E2,5.4E1,2.51E2,3.58E2,2.2E1,3.1E1,2.3E1,3.1E1,2.2E2],"tree_param":{"num_deleted":"0","num_feature":"8","num_nodes":"13","size_leaf_vector":"1"}},{"base_weights":[-3.9652446E-1,3.792729E1,-1.7154635E0,5.7275173E1,2.1398287E1,-2.9601693E0,2.581306E1,3.7894246E-1,8.049118E-1,3.1676134E-1,7.676694E-2,-1.13344036E-1,-1.5168845E-3,8.225965E-1,1.6863686E-1],"categories":[0,1,2,4,5,6,7,8,9,10,11,12,13,14,0,1,4,0,1,2,4],"categories_nodes":[0,4,6],"categories_segments":[0,14,17],"categories_sizes":[14,3,4],"default_left":[1,0,0,0,1,0,1,0,0,0,0,0,0,0,0],"id":67,"left_children":[1,3,5,7,9,11,13,-1,-1,-1,-1,-1,-1,-1,-1],"loss_changes":[3.4942344E4,6.129836E3,2.2965371E4,1.4116406E3,1.6182524E3,1.4567708E4,1.3459775E4,0E0,0E0,0E0,0E0,0E0,0E0,0E0,0E0],"parents":[2147483647,0,0,1,1,2,2,3,3,4,4,5,5,6,6],"right_children":[2,4,6,8,10,12,14,-1,-1,-1,-1,-1,-1,-1,-1],"split_conditions":[1E-45,1.4862714E2,3.8752187E-2,7.666411E2,1E-45,9.41817E-2,1E-45,3.7894246E-1,8.049118E-1,3.1676134E-1,7.676694E-2,-1.13344036E-1,-1.5168845E-3,8.225965E-1,1.6863686E-1],"split_indices":[6,0,1,3,7,2,7,0,0,0,0,0,0,0,0],"split_type":[1,0,0,0,1,0,1,0,0,0,0,0,0,0,0],"sum_hessian":[6.89E2,2.2E1,6.67E2,9E0,1.3E1,6.39E2,2.8E1,6E0,3E0,7E0,6E0,1.64E2,4.75E2,3E0,2.5E1],"tree_param":{"num_deleted":"0","num_feature":"8","num_nodes":"15","size_leaf_vector":"1"}}]},"name":"gbtree"},"learner_model_param":{"base_score":"[1.1375559E1]","boost_from_average":"1","num_class":"0","num_feature":"8","num_target":"1"},"objective":{"name":"reg:squarederror","reg_loss_param":{"scale_pos_weight":"1"}}},"version":[3,2,0]}