{"learner":{"attributes":{"scikit_learn":"{\"_estimator_type\": \"regressor\"}"},"feature_names":["f0_mean_noisy","jitter_local_noisy","sex","smartphone_model","task"],"feature_types":["float","float","c","c","c"],"gradient_booster":{"model":{"cats":{"enc":[{"offsets":[],"values":[]},{"offsets":[],"values":[]},{"offsets":[0,1,2],"values":[70,77]},{"offsets":[0,9,18,27,41,50,64,77,86,95,104,114,123,134,143],"values":[73,80,72,79,78,69,32,88,82,73,80,72,79,78,69,-62,-96,49,49,73,80,72,79,78,69,-62,-96,49,50,73,80,72,79,78,69,-62,-96,49,50,32,77,73,78,73,73,80,72,79,78,69,-62,-96,49,51,73,80,72,79,78,69,-62,-96,49,51,32,77,73,78,73,73,80,72,79,78,69,-62,-96,49,51,32,80,82,79,73,80,72,79,78,69,-62,-96,49,52,73,80,72,79,78,69,-62,-96,49,53,73,80,72,79,78,69,-62,-96,49,54,73,80,72,79,78,69,-62,-96,49,54,69,73,80,72,79,78,69,-62,-96,49,55,83,65,77,83,85,78,71,32,83]},{"offsets":[0,1,6,7,8,9],"values":[97,103,108,105,100,101,105,112,117]}],"feature_segments":[0,0,0,2,16,21],"sorted_idx":[0,1,5,6,3,7,2,12,9,4,1,0,8,11,10,13,0,1,2,3,4]},"gbtree_model_param":{"num_parallel_tree":"1","num_trees":"100"},"iteration_indptr":[0,1,2,3,4,5,6,7,8,9,10,11,12,13,14,15,16,17,18,19,20,21,22,23,24,25,26,27,28,29,30,31,32,33,34,35,36,37,38,39,40,41,42,43,44,45,46,47,48,49,50,51,52,53,54,55,56,57,58,59,60,61,62,63,64,65,66,67,68,69,70,71,72,73,74,75,76,77,78,79,80,81,82,83,84,85,86,87,88,89,90,91,92,93,94,95,96,97,98,99,100],"tree_info":[0,0,0,0,0,0,0,0,0,0,0,0,0,0,0,0,0,0,0,0,0,0,0,0,0,0,0,0,0,0,0,0,0,0,0,0,0,0,0,0,0,0,0,0,0,0,0,0,0,0,0,0,0,0,0,0,0,0,0,0,0,0,0,0,0,0,0,0,0,0,0,0,0,0,0,0,0,0,0,0,0,0,0,0,0,0,0,0,0,0,0,0,0,0,0,0,0,0,0,0],"trees":[{"base_weights":[-3.2045923E-6,-5.4224525E1,3.4014854E1,-6.981356E1,-3.366506E1,1.9027622E1,6.3489407E1,-5.6309414E0,-7.9254227E0,2.7718694E0,-4.0246662E1,4.233819E1,5.299543E0,5.6030888E1,1.3091916E1,-4.005023E0,1.9028687E1,-4.3156815E1,-1.797677E1,6.876534E1,3.2808754E1,3.7116467E1,-5.4514784E-1,7.577231E0,4.3965397E1,6.8305224E-1,3.7179646E0,-3.9189649E0,-5.2058673E0,-2.368294E0,-8.3234453E-1,3.4163303E0,9.541605E0,2.5013783E0,3.6756654E0,6.6190963E0,5.186857E-1,3.0703303E-1,-2.3160768E0,3.7555797E0,5.3969283E0],"categories":[0,2,5,7,13,5,7,10,11,12,13,1,2,4,5,6,7,8,10,12,13,0,1,2,4,0,1,2,4,0,2,3,4,5,6,8,9,10,11,12,13,5,7,11,0,1,3,5,7,8,9,11,12,13,10],"categories_nodes":[0,3,4,5,11,12,13,17,21,22],"categories_segments":[0,1,5,11,21,25,29,41,44,54],"categories_sizes":[1,4,6,10,4,4,12,3,10,1],"default_left":[1,0,0,1,1,1,0,0,0,0,0,1,1,1,0,0,0,1,0,0,0,1,1,0,0,0,0,0,0,0,0,0,0,0,0,0,0,0,0,0,0],"id":0,"left_children":[1,3,5,7,9,11,13,-1,-1,15,17,19,21,23,-1,-1,25,27,29,31,33,35,37,-1,39,-1,-1,-1,-1,-1,-1,-1,-1,-1,-1,-1,-1,-1,-1,-1,-1],"loss_changes":[1.1435525E6,7.4249875E4,1.6709566E5,1.27480625E4,2.5291953E4,8.105797E4,5.703897E4,0E0,0E0,1.259667E4,4.9921562E3,2.1416484E4,2.9959805E4,2.4536875E4,0E0,0E0,2.6243525E3,7.144375E2,4.6387842E2,1.8872305E4,1.2655156E3,2.2865113E4,1.1273092E4,0E0,2.7822031E3,0E0,0E0,0E0,0E0,0E0,0E0,0E0,0E0,0E0,0E0,0E0,0E0,0E0,0E0,0E0,0E0],"parents":[2147483647,0,0,1,1,2,2,3,3,4,4,5,5,6,6,9,9,10,10,11,11,12,12,13,13,16,16,17,17,18,18,19,19,20,20,21,21,22,22,24,24],"right_children":[2,4,6,8,10,12,14,-1,-1,16,18,20,22,24,-1,-1,26,28,30,32,34,36,38,-1,40,-1,-1,-1,-1,-1,-1,-1,-1,-1,-1,-1,-1,-1,-1,-1,-1],"split_conditions":[1E-45,1.1621356E2,2.0669006E2,1E-45,1E-45,1E-45,3.034412E2,-5.6309414E0,-7.9254227E0,1.17996414E2,1.492899E2,1E-45,1E-45,1E-45,1.3091916E1,-4.005023E0,1.9083325E2,1E-45,6.6083134E-3,1.6887544E-2,1.6532812E2,1E-45,1E-45,7.577231E0,2.3723933E2,6.8305224E-1,3.7179646E0,-3.9189649E0,-5.2058673E0,-2.368294E0,-8.3234453E-1,3.4163303E0,9.541605E0,2.5013783E0,3.6756654E0,6.6190963E0,5.186857E-1,3.0703303E-1,-2.3160768E0,3.7555797E0,5.3969283E0],"split_indices":[2,0,0,3,3,3,0,0,0,0,0,4,4,3,0,0,0,3,1,1,0,3,3,0,0,0,0,0,0,0,0,0,0,0,0,0,0,0,0,0,0],"split_type":[1,0,0,1,1,1,0,0,0,0,0,1,1,1,0,0,0,1,0,0,0,1,1,0,0,0,0,0,0,0,0,0,0,0,0,0,0,0,0,0,0],"sum_hessian":[6.18E2,2.38E2,3.8E2,1.34E2,1.04E2,2.53E2,1.27E2,5.8E1,7.6E1,1.6E1,8.8E1,9.3E1,1.6E2,1.16E2,1.1E1,4E0,1.2E1,7.7E1,1.1E1,2.3E1,7E1,2.4E1,1.36E2,4.2E1,7.4E1,8E0,4E0,5.7E1,2E1,6E0,5E0,1.1E1,1.2E1,2.6E1,4.4E1,1.2E1,1.2E1,1.18E2,1.8E1,4.8E1,2.6E1],"tree_param":{"num_deleted":"0","num_feature":"5","num_nodes":"41","size_leaf_vector":"1"}},{"base_weights":[4.6197526E-2,-4.8908714E1,3.0755325E1,-6.293263E1,-3.0412169E1,1.7220385E1,5.7373447E1,-5.077392E0,-7.143174E0,-3.330994E1,3.420527E1,3.8307938E1,4.8014402E0,5.057079E1,1.1891824E1,-9.863142E0,-3.6360485E1,1.5659882E0,4.1348896E0,6.242872E1,2.9614883E1,3.369033E1,-5.0530213E-1,6.83713E1,3.9690887E1,-3.6846216E0,6.2233585E-1,-3.8958123E0,-1.6445807E0,3.1031663E0,8.660841E0,3.377875E0,2.3152514E0,6.2381825E0,6.691169E-1,-6.0448575E-1,1.26128E0,7.623288E0,5.4428616E0,3.3876858E0,4.877224E0],"categories":[0,2,5,7,13,1,2,4,5,6,7,8,10,12,13,5,7,10,11,12,13,0,1,2,4,0,1,2,4,0,2,3,4,5,6,8,9,10,11,12,13,0,1,3,0,1,3,5,6,7,8,9,11,12,13,0,2,3,4,5,6,7,8,9,10,11,12,13],"categories_nodes":[0,3,5,9,11,12,13,20,21,23],"categories_segments":[0,1,5,15,21,25,29,41,44,55],"categories_sizes":[1,4,10,6,4,4,12,3,11,13],"default_left":[1,0,0,1,0,1,0,0,0,1,0,1,1,1,0,0,0,0,0,0,1,1,0,1,0,0,0,0,0,0,0,0,0,0,0,0,0,0,0,0,0],"id":1,"left_children":[1,3,5,7,9,11,13,-1,-1,15,17,19,21,23,-1,25,27,-1,-1,29,31,33,35,37,39,-1,-1,-1,-1,-1,-1,-1,-1,-1,-1,-1,-1,-1,-1,-1,-1],"loss_changes":[9.320857E5,6.008125E4,1.3627666E5,1.03238125E4,2.0800273E4,6.63349E4,4.757572E4,0E0,0E0,6.8654453E3,1.4888184E1,1.7861406E4,2.4699271E4,1.9945438E4,0E0,5.872129E3,3.963375E3,0E0,0E0,1.55325E4,1.1284375E3,1.894875E4,1.003182E4,5.6403125E2,2.3076953E3,0E0,0E0,0E0,0E0,0E0,0E0,0E0,0E0,0E0,0E0,0E0,0E0,0E0,0E0,0E0,0E0],"parents":[2147483647,0,0,1,1,2,2,3,3,4,4,5,5,6,6,9,9,10,10,11,11,12,12,13,13,15,15,16,16,19,19,20,20,21,21,22,22,23,23,24,24],"right_children":[2,4,6,8,10,12,14,-1,-1,16,18,20,22,24,-1,26,28,-1,-1,30,32,34,36,38,40,-1,-1,-1,-1,-1,-1,-1,-1,-1,-1,-1,-1,-1,-1,-1,-1],"split_conditions":[1E-45,1.1621356E2,2.0669006E2,1E-45,1.9083325E2,1E-45,3.034412E2,-5.077392E0,-7.143174E0,1E-45,2.3950616E2,1E-45,1E-45,1E-45,1.1891824E1,1.17996414E2,1.492899E2,1.5659882E0,4.1348896E0,1.6887544E-2,1E-45,1E-45,1.8892636E2,1E-45,2.3723933E2,-3.6846216E0,6.2233585E-1,-3.8958123E0,-1.6445807E0,3.1031663E0,8.660841E0,3.377875E0,2.3152514E0,6.2381825E0,6.691169E-1,-6.0448575E-1,1.26128E0,7.623288E0,5.4428616E0,3.3876858E0,4.877224E0],"split_indices":[2,0,0,3,0,3,0,0,0,3,0,4,4,3,0,0,0,0,0,1,4,3,0,3,0,0,0,0,0,0,0,0,0,0,0,0,0,0,0,0,0],"split_type":[1,0,0,1,0,1,0,0,0,1,0,1,1,1,0,0,0,0,0,0,1,1,0,1,0,0,0,0,0,0,0,0,0,0,0,0,0,0,0,0,0],"sum_hessian":[6.18E2,2.38E2,3.8E2,1.34E2,1.04E2,2.53E2,1.27E2,5.8E1,7.6E1,1E2,4E0,9.3E1,1.6E2,1.16E2,1.1E1,1.2E1,8.8E1,2E0,2E0,2.3E1,7E1,2.4E1,1.36E2,4.2E1,7.4E1,4E0,8E0,7.7E1,1.1E1,1.1E1,1.2E1,4E1,3E1,1.1E1,1.3E1,9.6E1,4E1,2.4E1,1.8E1,4.8E1,2.6E1],"tree_param":{"num_deleted":"0","num_feature":"5","num_nodes":"41","size_leaf_vector":"1"}},{"base_weights":[1.1124345E-1,-4.4081116E1,2.7832668E1,-5.672989E1,-2.7398586E1,1.559686E1,5.1895657E1,-4.578258E0,-6.4381332E0,-3.0064121E1,3.1924915E1,3.466286E1,4.3682823E0,4.569603E1,1.080174E1,-6.7035203E0,-3.2557556E1,1.4615886E0,3.8592305E0,5.6676014E1,2.6733587E1,3.0597588E1,-4.499722E-1,6.183803E1,3.5832E1,-3.3898523E0,1.3679125E0,-3.5112255E0,-1.5998688E0,2.8187096E0,7.8613787E0,1.9706497E0,3.035576E0,5.475109E0,4.0904212E-1,2.7381366E-1,-2.039392E0,6.8914523E0,4.9272227E0,3.0558314E0,4.4075656E0],"categories":[0,2,5,7,13,1,2,4,5,6,7,8,10,12,13,2,5,7,10,11,12,13,0,1,2,4,0,1,2,4,0,2,3,4,5,6,8,9,10,11,12,13,0,1,3,5,7,8,9,11,12,13,10,0,2,3,4,5,6,7,8,9,10,11,12,13],"categories_nodes":[0,3,5,9,11,12,13,21,22,23],"categories_segments":[0,1,5,15,22,26,30,42,52,53],"categories_sizes":[1,4,10,7,4,4,12,10,1,13],"default_left":[1,0,0,1,0,1,0,0,0,1,0,1,1,1,0,0,0,0,0,0,0,1,1,1,0,0,0,0,0,0,0,0,0,0,0,0,0,0,0,0,0],"id":2,"left_children":[1,3,5,7,9,11,13,-1,-1,15,17,19,21,23,-1,25,27,-1,-1,29,31,33,35,37,39,-1,-1,-1,-1,-1,-1,-1,-1,-1,-1,-1,-1,-1,-1,-1,-1],"loss_changes":[7.5954844E5,4.8877875E4,1.1136847E5,8.360406E3,1.7563328E4,5.4225934E4,3.9599562E4,0E0,0E0,5.6648047E3,1.2969727E1,1.4892391E4,2.036086E4,1.6413578E4,0E0,6.5610684E3,3.2878203E3,0E0,0E0,1.2783703E4,1.2089805E3,1.5782072E4,8.766777E3,4.280625E2,1.9137109E3,0E0,0E0,0E0,0E0,0E0,0E0,0E0,0E0,0E0,0E0,0E0,0E0,0E0,0E0,0E0,0E0],"parents":[2147483647,0,0,1,1,2,2,3,3,4,4,5,5,6,6,9,9,10,10,11,11,12,12,13,13,15,15,16,16,19,19,20,20,21,21,22,22,23,23,24,24],"right_children":[2,4,6,8,10,12,14,-1,-1,16,18,20,22,24,-1,26,28,-1,-1,30,32,34,36,38,40,-1,-1,-1,-1,-1,-1,-1,-1,-1,-1,-1,-1,-1,-1,-1,-1],"split_conditions":[1E-45,1.1621356E2,2.0669006E2,1E-45,1.9083325E2,1E-45,3.034412E2,-4.578258E0,-6.4381332E0,1E-45,2.3950616E2,1E-45,1E-45,1E-45,1.080174E1,1.17996414E2,1.492899E2,1.4615886E0,3.8592305E0,1.6887544E-2,1.6532812E2,1E-45,1E-45,1E-45,2.3723933E2,-3.3898523E0,1.3679125E0,-3.5112255E0,-1.5998688E0,2.8187096E0,7.8613787E0,1.9706497E0,3.035576E0,5.475109E0,4.0904212E-1,2.7381366E-1,-2.039392E0,6.8914523E0,4.9272227E0,3.0558314E0,4.4075656E0],"split_indices":[2,0,0,3,0,3,0,0,0,3,0,4,4,3,0,0,0,0,0,1,0,3,3,3,0,0,0,0,0,0,0,0,0,0,0,0,0,0,0,0,0],"split_type":[1,0,0,1,0,1,0,0,0,1,0,1,1,1,0,0,0,0,0,0,0,1,1,1,0,0,0,0,0,0,0,0,0,0,0,0,0,0,0,0,0],"sum_hessian":[6.18E2,2.38E2,3.8E2,1.34E2,1.04E2,2.53E2,1.27E2,5.8E1,7.6E1,1E2,4E0,9.3E1,1.6E2,1.16E2,1.1E1,1E1,9E1,2E0,2E0,2.3E1,7E1,2.4E1,1.36E2,4.2E1,7.4E1,4E0,6E0,7.7E1,1.3E1,1.1E1,1.2E1,2.6E1,4.4E1,1.2E1,1.2E1,1.18E2,1.8E1,2.4E1,1.8E1,4.8E1,2.6E1],"tree_param":{"num_deleted":"0","num_feature":"5","num_nodes":"41","size_leaf_vector":"1"}},{"base_weights":[1.5998922E-1,-3.972668E1,2.5180342E1,-5.0851715E1,-2.4285686E1,1.4115144E1,4.6941124E1,-4.1120505E0,-5.8026824E0,7.8802958E0,-2.949255E1,3.136345E1,3.957032E0,4.1291233E1,9.81158E0,-2.560076E0,1.5000517E1,-3.1606281E1,-1.3471732E1,5.1453415E1,2.4130735E1,2.7773193E1,-4.1786617E-1,5.5929085E1,3.2348312E1,5.113756E-1,2.9796581E0,-2.8058918E0,-4.0313315E0,-1.8872013E0,-4.9261147E-1,2.5603278E0,7.135713E0,2.7963288E0,1.8283466E0,5.164463E0,5.3281623E-1,-5.288337E-1,1.1115147E0,6.229873E0,4.4604335E0,2.7564847E0,3.9831333E0],"categories":[0,2,5,7,13,5,7,10,11,12,13,1,2,4,5,6,7,8,10,12,13,0,1,2,4,0,1,2,4,0,2,3,4,5,6,8,9,10,11,12,13,5,7,11,0,1,3,0,1,3,5,6,7,8,9,11,12,13,0,2,3,4,5,6,7,8,9,10,11,12,13],"categories_nodes":[0,3,4,5,11,12,13,17,20,21,23],"categories_segments":[0,1,5,11,21,25,29,41,44,47,58],"categories_sizes":[1,4,6,10,4,4,12,3,3,11,13],"default_left":[1,0,0,1,1,1,0,0,0,0,0,1,1,1,0,0,0,1,0,0,1,1,0,1,0,0,0,0,0,0,0,0,0,0,0,0,0,0,0,0,0,0,0],"id":3,"left_children":[1,3,5,7,9,11,13,-1,-1,15,17,19,21,23,-1,-1,25,27,29,31,33,35,37,39,41,-1,-1,-1,-1,-1,-1,-1,-1,-1,-1,-1,-1,-1,-1,-1,-1,-1,-1],"loss_changes":[6.18749E5,3.9820844E4,9.107742E4,7.249375E3,1.7315762E4,4.4379293E4,3.29575E4,0E0,0E0,3.959912E3,2.5542188E3,1.24170625E4,1.6786723E4,1.35066875E4,0E0,0E0,1.7493347E3,1.2471562E3,4.608191E2,1.0521355E4,1.0798398E3,1.3119709E4,7.7542344E3,3.2298438E2,1.5866641E3,0E0,0E0,0E0,0E0,0E0,0E0,0E0,0E0,0E0,0E0,0E0,0E0,0E0,0E0,0E0,0E0,0E0,0E0],"parents":[2147483647,0,0,1,1,2,2,3,3,4,4,5,5,6,6,9,9,10,10,11,11,12,12,13,13,16,16,17,17,18,18,19,19,20,20,21,21,22,22,23,23,24,24],"right_children":[2,4,6,8,10,12,14,-1,-1,16,18,20,22,24,-1,-1,26,28,30,32,34,36,38,40,42,-1,-1,-1,-1,-1,-1,-1,-1,-1,-1,-1,-1,-1,-1,-1,-1,-1,-1],"split_conditions":[1E-45,1.1700474E2,2.0669006E2,1E-45,1E-45,1E-45,3.034412E2,-4.1120505E0,-5.8026824E0,1.17996414E2,1.492899E2,1E-45,1E-45,1E-45,9.81158E0,-2.560076E0,1.9083325E2,1E-45,6.6083134E-3,1.6887544E-2,1E-45,1E-45,1.8892636E2,1E-45,2.3723933E2,5.113756E-1,2.9796581E0,-2.8058918E0,-4.0313315E0,-1.8872013E0,-4.9261147E-1,2.5603278E0,7.135713E0,2.7963288E0,1.8283466E0,5.164463E0,5.3281623E-1,-5.288337E-1,1.1115147E0,6.229873E0,4.4604335E0,2.7564847E0,3.9831333E0],"split_indices":[2,0,0,3,3,3,0,0,0,0,0,4,4,3,0,0,0,3,1,1,4,3,0,3,0,0,0,0,0,0,0,0,0,0,0,0,0,0,0,0,0,0,0],"split_type":[1,0,0,1,1,1,0,0,0,0,0,1,1,1,0,0,0,1,0,0,1,1,0,1,0,0,0,0,0,0,0,0,0,0,0,0,0,0,0,0,0,0,0],"sum_hessian":[6.18E2,2.38E2,3.8E2,1.37E2,1.01E2,2.53E2,1.27E2,6.1E1,7.6E1,1.4E1,8.7E1,9.3E1,1.6E2,1.16E2,1.1E1,2E0,1.2E1,7.6E1,1.1E1,2.3E1,7E1,2.4E1,1.36E2,4.2E1,7.4E1,8E0,4E0,5.7E1,1.9E1,6E0,5E0,1.1E1,1.2E1,4E1,3E1,1.1E1,1.3E1,9.6E1,4E1,2.4E1,1.8E1,4.8E1,2.6E1],"tree_param":{"num_deleted":"0","num_feature":"5","num_nodes":"43","size_leaf_vector":"1"}},{"base_weights":[1.9187674E-1,-3.5830166E1,2.2787878E1,-4.6105152E1,-2.2278233E1,1.2784736E1,4.245983E1,-3.7239568E0,-5.2299495E0,-2.451761E1,2.7412853E1,2.8379452E1,3.6003387E0,3.731108E1,8.912185E0,-5.2828107E0,-2.6573273E1,1.1655049E0,3.4033039E0,4.6712074E1,2.1782797E1,2.5223763E1,-3.718216E-1,5.058479E1,2.920334E1,-2.8517797E0,1.2068294E0,-3.0103488E0,-1.8391718E0,3.542404E0,9.4296255E0,1.5438741E0,2.510517E0,4.528623E0,3.2210085E-1,3.9247897E-1,-1.209036E0,5.6318054E0,4.037866E0,3.311171E0,2.1862078E0],"categories":[0,2,5,7,13,1,2,4,5,6,7,8,10,12,13,2,5,7,10,11,12,13,0,1,2,4,0,1,2,4,0,2,3,4,5,6,8,9,10,11,12,13,0,1,3,5,7,8,9,11,12,13,1,10,0,2,3,4,5,6,7,8,9,10,11,12,13,0,1,3,4,5,7,8,9,10,12,13],"categories_nodes":[0,3,5,9,11,12,13,21,22,23,24],"categories_segments":[0,1,5,15,22,26,30,42,52,54,67],"categories_sizes":[1,4,10,7,4,4,12,10,2,13,11],"default_left":[1,0,0,1,0,1,0,0,0,1,0,1,1,1,0,0,0,0,0,0,0,1,1,1,1,0,0,0,0,0,0,0,0,0,0,0,0,0,0,0,0],"id":4,"left_children":[1,3,5,7,9,11,13,-1,-1,15,17,19,21,23,-1,25,27,-1,-1,29,31,33,35,37,39,-1,-1,-1,-1,-1,-1,-1,-1,-1,-1,-1,-1,-1,-1,-1,-1],"loss_changes":[5.046541E5,3.2252656E4,7.443086E4,5.466125E3,1.2356199E4,3.6277758E4,2.7426906E4,0E0,0E0,3.8531758E3,1.2494116E2,1.0350273E4,1.3837943E4,1.1114281E4,0E0,4.7788403E3,2.074664E3,0E0,0E0,9.550809E3,1.1088945E3,1.0889868E4,6.9454023E3,2.420625E2,1.4280352E3,0E0,0E0,0E0,0E0,0E0,0E0,0E0,0E0,0E0,0E0,0E0,0E0,0E0,0E0,0E0,0E0],"parents":[2147483647,0,0,1,1,2,2,3,3,4,4,5,5,6,6,9,9,10,10,11,11,12,12,13,13,15,15,16,16,19,19,20,20,21,21,22,22,23,23,24,24],"right_children":[2,4,6,8,10,12,14,-1,-1,16,18,20,22,24,-1,26,28,-1,-1,30,32,34,36,38,40,-1,-1,-1,-1,-1,-1,-1,-1,-1,-1,-1,-1,-1,-1,-1,-1],"split_conditions":[1E-45,1.1621356E2,2.0669006E2,1E-45,1.9083325E2,1E-45,3.034412E2,-3.7239568E0,-5.2299495E0,1E-45,2.3950616E2,1E-45,1E-45,1E-45,8.912185E0,1.17996414E2,1.3292139E2,1.1655049E0,3.4033039E0,2.8789414E-2,1.6532812E2,1E-45,1E-45,1E-45,1E-45,-2.8517797E0,1.2068294E0,-3.0103488E0,-1.8391718E0,3.542404E0,9.4296255E0,1.5438741E0,2.510517E0,4.528623E0,3.2210085E-1,3.9247897E-1,-1.209036E0,5.6318054E0,4.037866E0,3.311171E0,2.1862078E0],"split_indices":[2,0,0,3,0,3,0,0,0,3,0,4,4,3,0,0,0,0,0,1,0,3,3,3,3,0,0,0,0,0,0,0,0,0,0,0,0,0,0,0,0],"split_type":[1,0,0,1,0,1,0,0,0,1,0,1,1,1,0,0,0,0,0,0,0,1,1,1,1,0,0,0,0,0,0,0,0,0,0,0,0,0,0,0,0],"sum_hessian":[6.18E2,2.38E2,3.8E2,1.34E2,1.04E2,2.53E2,1.27E2,5.8E1,7.6E1,1E2,4E0,9.3E1,1.6E2,1.16E2,1.1E1,1E1,9E1,2E0,2E0,2.3E1,7E1,2.4E1,1.36E2,4.2E1,7.4E1,4E0,6E0,6.1E1,2.9E1,2E1,3E0,2.6E1,4.4E1,1.2E1,1.2E1,1E2,3.6E1,2.4E1,1.8E1,4.6E1,2.8E1],"tree_param":{"num_deleted":"0","num_feature":"5","num_nodes":"41","size_leaf_vector":"1"}},{"base_weights":[2.2803496E-1,-3.229267E1,2.0627565E1,-4.1023365E1,-1.931256E1,1.1589175E1,3.8401966E1,-3.3186624E0,-4.7028046E1,1.2792055E1,-2.3941017E1,2.5722641E1,3.2653558E0,3.3709606E1,8.095234E0,-5.2352314E0,-4.1476846E0,6.4549284E0,3.176417E0,-2.5750452E1,-1.0636964E1,4.2581367E1,1.9661627E1,2.2895416E1,-3.406068E-1,4.5751183E1,2.6356306E1,-5.637478E-1,1.1694266E0,-2.3024805E0,-3.5981858E0,-1.5677974E0,-2.9829586E-1,3.205032E0,8.722404E0,2.3186688E0,1.4365202E0,4.27593E0,4.233842E-1,2.2926934E-1,-1.6815455E0,5.091152E0,3.6553311E0,2.208019E0,3.3140504E0],"categories":[0,2,5,7,13,5,7,10,11,12,13,1,2,4,5,6,7,8,10,12,13,0,1,2,4,0,1,2,4,0,2,3,4,5,6,8,9,10,11,12,13,5,11,0,1,3,0,1,3,5,6,7,8,9,11,12,13,10,0,2,3,4,5,6,7,8,9,10,11,12,13],"categories_nodes":[0,3,4,5,11,12,13,19,22,23,24,25],"categories_segments":[0,1,5,11,21,25,29,41,43,46,57,58],"categories_sizes":[1,4,6,10,4,4,12,2,3,11,1,13],"default_left":[1,0,0,1,1,1,0,0,0,0,0,1,1,1,0,0,0,0,0,1,0,0,1,1,1,1,0,0,0,0,0,0,0,0,0,0,0,0,0,0,0,0,0,0,0],"id":5,"left_children":[1,3,5,7,9,11,13,-1,15,17,19,21,23,25,-1,-1,-1,27,-1,29,31,33,35,37,39,41,43,-1,-1,-1,-1,-1,-1,-1,-1,-1,-1,-1,-1,-1,-1,-1,-1,-1,-1],"loss_changes":[4.1131516E5,2.6292531E4,6.076336E4,5.1213906E3,1.4868555E4,2.9797688E4,2.2827812E4,0E0,1.3395312E2,1.357938E3,1.7963516E3,8.767797E3,1.1404227E4,9.153969E3,0E0,0E0,0E0,7.6284424E2,0E0,1.2630664E3,4.1624023E2,8.487652E3,9.9250195E2,9.086247E3,5.982054E3,1.7997656E2,1.4440039E3,0E0,0E0,0E0,0E0,0E0,0E0,0E0,0E0,0E0,0E0,0E0,0E0,0E0,0E0,0E0,0E0,0E0,0E0],"parents":[2147483647,0,0,1,1,2,2,3,3,4,4,5,5,6,6,8,8,9,9,10,10,11,11,12,12,13,13,17,17,19,19,20,20,21,21,22,22,23,23,24,24,25,25,26,26],"right_children":[2,4,6,8,10,12,14,-1,16,18,20,22,24,26,-1,-1,-1,28,-1,30,32,34,36,38,40,42,44,-1,-1,-1,-1,-1,-1,-1,-1,-1,-1,-1,-1,-1,-1,-1,-1,-1,-1],"split_conditions":[1E-45,1.17996414E2,2.0669006E2,1E-45,1E-45,1E-45,3.034412E2,-3.3186624E0,8.816111E1,2.3950616E2,1.492899E2,1E-45,1E-45,1E-45,8.095234E0,-5.2352314E0,-4.1476846E0,9.343633E-3,3.176417E0,1E-45,6.6083134E-3,2.8789414E-2,1E-45,1E-45,1E-45,1E-45,2.3723933E2,-5.637478E-1,1.1694266E0,-2.3024805E0,-3.5981858E0,-1.5677974E0,-2.9829586E-1,3.205032E0,8.722404E0,2.3186688E0,1.4365202E0,4.27593E0,4.233842E-1,2.2926934E-1,-1.6815455E0,5.091152E0,3.6553311E0,2.208019E0,3.3140504E0],"split_indices":[2,0,0,3,3,3,0,0,0,0,0,4,4,3,0,0,0,1,0,3,1,1,4,3,3,3,0,0,0,0,0,0,0,0,0,0,0,0,0,0,0,0,0,0,0],"split_type":[1,0,0,1,1,1,0,0,0,0,0,1,1,1,0,0,0,0,0,1,0,0,1,1,1,1,0,0,0,0,0,0,0,0,0,0,0,0,0,0,0,0,0,0,0],"sum_hessian":[6.18E2,2.38E2,3.8E2,1.41E2,9.7E1,2.53E2,1.27E2,6.4E1,7.7E1,1.2E1,8.5E1,9.3E1,1.6E2,1.16E2,1.1E1,3.5E1,4.2E1,1E1,2E0,7.4E1,1.1E1,2.3E1,7E1,2.4E1,1.36E2,4.2E1,7.4E1,3E0,7E0,6.1E1,1.3E1,6E0,5E0,2E1,3E0,4E1,3E1,1.1E1,1.3E1,1.18E2,1.8E1,2.4E1,1.8E1,4.8E1,2.6E1],"tree_param":{"num_deleted":"0","num_feature":"5","num_nodes":"45","size_leaf_vector":"1"}},{"base_weights":[2.4498525E-1,-2.9133223E1,1.8673191E1,-3.7518215E1,-1.8075058E1,1.0504787E1,3.4736485E1,-2.8199801E0,-4.1567043E1,-1.9988605E1,2.4193623E1,2.3317215E1,2.9589932E0,3.0460594E1,7.353171E0,-3.720647E0,-4.731664E0,-4.3351593E0,-2.1661125E1,1.0676148E0,2.9646556E0,3.882021E1,1.7748354E1,2.0793848E1,-3.17141E-1,4.1379467E1,2.3794298E1,-2.3581443E0,1.0031494E0,-2.4583929E0,-1.4898627E0,1.7071155E0,5.5910087E0,1.2013313E0,2.079497E0,3.74553E0,2.53287E-1,-4.4313285E-1,9.42416E-1,4.6024013E0,3.3090363E0,2.7286355E0,1.7314265E0],"categories":[0,2,5,7,11,13,1,2,4,5,6,7,8,10,12,13,2,5,2,5,7,10,11,12,13,0,1,2,4,0,1,2,4,0,2,3,4,5,6,8,9,10,11,12,13,0,1,3,5,7,8,9,11,12,13,0,2,3,4,5,6,7,8,9,10,11,12,13,0,1,3,4,5,7,8,9,10,12,13],"categories_nodes":[0,3,5,8,9,11,12,13,23,25,26],"categories_segments":[0,1,6,16,18,25,29,33,45,55,68],"categories_sizes":[1,5,10,2,7,4,4,12,10,13,11],"default_left":[1,0,0,1,0,1,0,0,1,1,0,1,1,1,0,0,0,0,0,0,0,0,0,1,0,1,1,0,0,0,0,0,0,0,0,0,0,0,0,0,0,0,0],"id":6,"left_children":[1,3,5,7,9,11,13,-1,15,17,19,21,23,25,-1,-1,-1,27,29,-1,-1,31,33,35,37,39,41,-1,-1,-1,-1,-1,-1,-1,-1,-1,-1,-1,-1,-1,-1,-1,-1],"loss_changes":[3.3566297E5,2.1482562E4,4.962667E4,3.9211875E3,8.976324E3,2.4487715E4,1.899336E4,0E0,5.4609375E2,2.5503477E3,5.203833E1,7.4264023E3,9.413725E3,7.5316562E3,0E0,0E0,0E0,3.2781086E3,1.4323867E3,0E0,0E0,7.966078E3,9.907285E2,7.511492E3,5.5323843E3,1.3250781E2,1.2246992E3,0E0,0E0,0E0,0E0,0E0,0E0,0E0,0E0,0E0,0E0,0E0,0E0,0E0,0E0,0E0,0E0],"parents":[2147483647,0,0,1,1,2,2,3,3,4,4,5,5,6,6,8,8,9,9,10,10,11,11,12,12,13,13,17,17,18,18,21,21,22,22,23,23,24,24,25,25,26,26],"right_children":[2,4,6,8,10,12,14,-1,16,18,20,22,24,26,-1,-1,-1,28,30,-1,-1,32,34,36,38,40,42,-1,-1,-1,-1,-1,-1,-1,-1,-1,-1,-1,-1,-1,-1,-1,-1],"split_conditions":[1E-45,1.1621356E2,2.0669006E2,1E-45,1.9083325E2,1E-45,3.034412E2,-2.8199801E0,1E-45,1E-45,2.3950616E2,1E-45,1E-45,1E-45,7.353171E0,-3.720647E0,-4.731664E0,1.17996414E2,1.3292139E2,1.0676148E0,2.9646556E0,1.6887544E-2,1.6532812E2,1E-45,1.8892636E2,1E-45,1E-45,-2.3581443E0,1.0031494E0,-2.4583929E0,-1.4898627E0,1.7071155E0,5.5910087E0,1.2013313E0,2.079497E0,3.74553E0,2.53287E-1,-4.4313285E-1,9.42416E-1,4.6024013E0,3.3090363E0,2.7286355E0,1.7314265E0],"split_indices":[2,0,0,3,0,3,0,0,3,3,0,4,4,3,0,0,0,0,0,0,0,1,0,3,0,3,3,0,0,0,0,0,0,0,0,0,0,0,0,0,0,0,0],"split_type":[1,0,0,1,0,1,0,0,1,1,0,1,1,1,0,0,0,0,0,0,0,0,0,1,0,1,1,0,0,0,0,0,0,0,0,0,0,0,0,0,0,0,0],"sum_hessian":[6.18E2,2.38E2,3.8E2,1.34E2,1.04E2,2.53E2,1.27E2,4.3E1,9.1E1,1E2,4E0,9.3E1,1.6E2,1.16E2,1.1E1,5.6E1,3.5E1,1E1,9E1,2E0,2E0,2.3E1,7E1,2.4E1,1.36E2,4.2E1,7.4E1,4E0,6E0,6.1E1,2.9E1,1.1E1,1.2E1,2.6E1,4.4E1,1.2E1,1.2E1,9.6E1,4E1,2.4E1,1.8E1,4.6E1,2.8E1],"tree_param":{"num_deleted":"0","num_feature":"5","num_nodes":"43","size_leaf_vector":"1"}},{"base_weights":[2.5644428E-1,-2.6272385E1,1.6897215E1,-3.3662273E1,-1.601673E1,9.513668E0,3.1416933E1,-2.7213737E1,-3.841743E1,5.8480306E0,-1.9561668E1,2.1098036E1,2.6910322E0,2.7520271E1,6.6791306E0,-2.0912206E0,-2.895096E1,-4.2718453E0,-3.381614E0,-2.2893732E0,2.2580713E1,-2.1052856E1,-8.363065E0,3.5242275E1,1.601973E1,1.887442E1,-2.817834E-1,3.3933746E1,1.8247541E1,-1.7253939E0,-3.0274167E0,-1.8208323E0,3.2713184E-1,9.964406E-1,2.7670114E0,-1.8658164E0,-3.0496252E0,-1.3057121E0,-1.4928232E-1,2.5707557E0,7.6488976E0,1.9259919E0,1.1217555E0,3.5406303E0,3.3560628E-1,2.0390344E-1,-1.48026E0,3.7700047E0,2.2236445E0,-1.8555511E0,2.1851187E0],"categories":[0,2,5,7,13,5,7,10,11,12,13,1,2,4,5,6,7,8,10,12,13,10,11,12,0,1,2,4,0,1,2,4,0,2,3,4,5,8,9,10,11,12,13,5,11,0,1,3,0,1,3,5,6,7,8,9,11,12,13,10,0,1],"categories_nodes":[0,3,4,5,7,11,12,13,21,24,25,26,27],"categories_segments":[0,1,5,11,21,24,28,32,43,45,48,59,60],"categories_sizes":[1,4,6,10,3,4,4,11,2,3,11,1,2],"default_left":[1,0,0,1,1,1,0,1,0,0,0,1,1,1,0,0,0,0,0,0,0,1,0,0,1,1,1,1,0,0,0,0,0,0,0,0,0,0,0,0,0,0,0,0,0,0,0,0,0,0,0],"id":7,"left_children":[1,3,5,7,9,11,13,15,17,19,21,23,25,27,-1,-1,29,-1,-1,31,33,35,37,39,41,43,45,47,49,-1,-1,-1,-1,-1,-1,-1,-1,-1,-1,-1,-1,-1,-1,-1,-1,-1,-1,-1,-1,-1,-1],"loss_changes":[2.7370778E5,1.7574188E4,4.0546992E4,3.186125E3,8.020338E3,2.0018348E4,1.5805648E4,7.3296875E1,7.927344E1,2.0941045E3,1.2934688E3,6.187336E3,7.7510645E3,6.338836E3,0E0,0E0,1.8961719E2,0E0,0E0,1.0332892E3,4.5331055E1,1.1722734E3,3.674995E2,7.4722715E3,8.88709E2,6.294866E3,4.6471064E3,2.157461E3,7.0367207E3,0E0,0E0,0E0,0E0,0E0,0E0,0E0,0E0,0E0,0E0,0E0,0E0,0E0,0E0,0E0,0E0,0E0,0E0,0E0,0E0,0E0,0E0],"parents":[2147483647,0,0,1,1,2,2,3,3,4,4,5,5,6,6,7,7,8,8,9,9,10,10,11,11,12,12,13,13,16,16,19,19,20,20,21,21,22,22,23,23,24,24,25,25,26,26,27,27,28,28],"right_children":[2,4,6,8,10,12,14,16,18,20,22,24,26,28,-1,-1,30,-1,-1,32,34,36,38,40,42,44,46,48,50,-1,-1,-1,-1,-1,-1,-1,-1,-1,-1,-1,-1,-1,-1,-1,-1,-1,-1,-1,-1,-1,-1],"split_conditions":[1E-45,1.1700474E2,2.0669006E2,1E-45,1E-45,1E-45,3.034412E2,1E-45,8.816111E1,1.9083325E2,1.492899E2,1E-45,1E-45,1E-45,6.6791306E0,-2.0912206E0,9.1124245E1,-4.2718453E0,-3.381614E0,1.17996414E2,2.3950616E2,1E-45,6.6083134E-3,2.8789414E-2,1E-45,1E-45,1E-45,1E-45,4.6862066E-3,-1.7253939E0,-3.0274167E0,-1.8208323E0,3.2713184E-1,9.964406E-1,2.7670114E0,-1.8658164E0,-3.0496252E0,-1.3057121E0,-1.4928232E-1,2.5707557E0,7.6488976E0,1.9259919E0,1.1217555E0,3.5406303E0,3.3560628E-1,2.0390344E-1,-1.48026E0,3.7700047E0,2.2236445E0,-1.8555511E0,2.1851187E0],"split_indices":[2,0,0,3,3,3,0,3,0,0,0,4,4,3,0,0,0,0,0,0,0,3,1,1,4,3,3,4,1,0,0,0,0,0,0,0,0,0,0,0,0,0,0,0,0,0,0,0,0,0,0],"split_type":[1,0,0,1,1,1,0,1,0,0,0,1,1,1,0,0,0,0,0,0,0,1,0,0,1,1,1,1,0,0,0,0,0,0,0,0,0,0,0,0,0,0,0,0,0,0,0,0,0,0,0],"sum_hessian":[6.18E2,2.38E2,3.8E2,1.37E2,1.01E2,2.53E2,1.27E2,6.1E1,7.6E1,1.4E1,8.7E1,9.3E1,1.6E2,1.16E2,1.1E1,1.6E1,4.5E1,3.5E1,4.1E1,1E1,4E0,7.6E1,1.1E1,2.3E1,7E1,2.4E1,1.36E2,6.7E1,4.9E1,6E0,3.9E1,2E0,8E0,2E0,2E0,6.3E1,1.3E1,6E0,5E0,2E1,3E0,4E1,3E1,1.1E1,1.3E1,1.18E2,1.8E1,4.9E1,1.8E1,4E0,4.5E1],"tree_param":{"num_deleted":"0","num_feature":"5","num_nodes":"51","size_leaf_vector":"1"}},{"base_weights":[2.4739257E-1,-2.3722965E1,1.5283267E1,-3.0183393E1,-1.4119866E1,8.62477E0,2.8376822E1,-2.286731E1,-3.3675995E1,1.0169342E1,-1.7627306E1,1.9129375E1,2.438077E0,2.4822289E1,6.0668783E0,-6.444107E-1,-2.3075206E0,-3.0092995E0,-3.8612695E0,2.9805331E0,2.1075329E1,-2.0131472E1,-1.1721128E1,3.2143867E1,1.4460683E1,1.7142029E1,-2.6292196E-1,3.417472E1,1.9129265E1,8.8912576E-1,-1.1804668E0,9.30011E-1,2.582544E0,-1.7724409E0,-2.8082094E0,-1.7640494E0,-6.1790746E-1,2.325922E0,7.0752306E0,9.2699015E-1,1.7253803E0,3.216072E0,3.0444324E-1,-3.8820434E-1,8.3058023E-1,3.8357627E0,2.6872225E0,1.5473713E0,2.505492E0],"categories":[0,2,5,7,11,13,5,7,10,11,12,13,1,2,4,5,6,7,8,10,12,13,2,5,0,1,2,4,0,1,2,4,0,2,3,4,5,6,8,9,10,11,12,13,5,11,0,1,3,5,6,7,8,9,11,12,13,0,2,3,4,5,6,7,8,9,10,11,12,13],"categories_nodes":[0,3,4,5,8,11,12,13,21,25,27],"categories_segments":[0,1,6,12,22,24,28,32,44,46,57],"categories_sizes":[1,5,6,10,2,4,4,12,2,11,13],"default_left":[1,0,0,1,1,1,0,0,1,0,0,1,1,1,0,0,0,0,0,0,0,1,0,0,0,1,0,1,0,0,0,0,0,0,0,0,0,0,0,0,0,0,0,0,0,0,0,0,0],"id":8,"left_children":[1,3,5,7,9,11,13,15,17,19,21,23,25,27,-1,-1,-1,-1,-1,29,31,33,35,37,39,41,43,45,47,-1,-1,-1,-1,-1,-1,-1,-1,-1,-1,-1,-1,-1,-1,-1,-1,-1,-1,-1,-1],"loss_changes":[2.2345962E5,1.4401406E4,3.2972125E4,2.8583438E3,8.528168E3,1.646051E4,1.3186273E4,1.8605469E1,5.0071094E2,9.563981E2,1.0359805E3,5.2466797E3,6.3986797E3,5.575758E3,0E0,0E0,0E0,0E0,0E0,8.9147943E2,3.9488525E1,6.313828E2,8.095503E2,6.5868945E3,8.6945215E2,5.195275E3,4.280785E3,2.8270703E2,1.2369238E3,0E0,0E0,0E0,0E0,0E0,0E0,0E0,0E0,0E0,0E0,0E0,0E0,0E0,0E0,0E0,0E0,0E0,0E0,0E0,0E0],"parents":[2147483647,0,0,1,1,2,2,3,3,4,4,5,5,6,6,7,7,8,8,9,9,10,10,11,11,12,12,13,13,19,19,20,20,21,21,22,22,23,23,24,24,25,25,26,26,27,27,28,28],"right_children":[2,4,6,8,10,12,14,16,18,20,22,24,26,28,-1,-1,-1,-1,-1,30,32,34,36,38,40,42,44,46,48,-1,-1,-1,-1,-1,-1,-1,-1,-1,-1,-1,-1,-1,-1,-1,-1,-1,-1,-1,-1],"split_conditions":[1E-45,1.17996414E2,2.0669006E2,1E-45,1E-45,1E-45,3.034412E2,4.8563313E-3,1E-45,1.9083325E2,1.3292139E2,1E-45,1E-45,1E-45,6.0668783E0,-6.444107E-1,-2.3075206E0,-3.0092995E0,-3.8612695E0,1.428943E2,2.3950616E2,1E-45,5.6988676E-3,2.8789414E-2,1.6532812E2,1E-45,1.8892636E2,1E-45,2.3723933E2,8.8912576E-1,-1.1804668E0,9.30011E-1,2.582544E0,-1.7724409E0,-2.8082094E0,-1.7640494E0,-6.1790746E-1,2.325922E0,7.0752306E0,9.2699015E-1,1.7253803E0,3.216072E0,3.0444324E-1,-3.8820434E-1,8.3058023E-1,3.8357627E0,2.6872225E0,1.5473713E0,2.505492E0],"split_indices":[2,0,0,3,3,3,0,1,3,0,0,4,4,3,0,0,0,0,0,0,0,3,1,1,0,3,0,3,0,0,0,0,0,0,0,0,0,0,0,0,0,0,0,0,0,0,0,0,0],"split_type":[1,0,0,1,1,1,0,0,1,0,0,1,1,1,0,0,0,0,0,0,0,1,0,0,0,1,0,1,0,0,0,0,0,0,0,0,0,0,0,0,0,0,0,0,0,0,0,0,0],"sum_hessian":[6.18E2,2.38E2,3.8E2,1.41E2,9.7E1,2.53E2,1.27E2,4.8E1,9.3E1,1.2E1,8.5E1,9.3E1,1.6E2,1.16E2,1.1E1,1E0,4.7E1,5.8E1,3.5E1,8E0,4E0,5.8E1,2.7E1,2.3E1,7E1,2.4E1,1.36E2,4.2E1,7.4E1,6E0,2E0,2E0,2E0,4.7E1,1.1E1,1.2E1,1.5E1,2E1,3E0,2.6E1,4.4E1,1.1E1,1.3E1,9.6E1,4E1,2.4E1,1.8E1,4.8E1,2.6E1],"tree_param":{"num_deleted":"0","num_feature":"5","num_nodes":"49","size_leaf_vector":"1"}},{"base_weights":[2.5349972E-1,-2.1407421E1,1.3840656E1,-2.8322897E1,-1.4076103E1,8.060558E0,2.6194084E1,-2.5292883E1,-3.4858685E1,-1.54327345E1,1.9670307E1,1.7269907E1,2.6861124E0,2.2065248E1,5.0154884E1,-1.4826564E0,-2.588512E1,-3.5670578E0,-1.4037682E0,-1.7942196E1,-8.729444E0,8.6801046E-1,2.410374E0,2.9321192E1,1.3071268E1,1.4953511E1,4.049885E-1,2.7108055E1,1.2460615E1,-5.544678E-1,5.795114E0,-6.0398597E-1,-2.605769E0,-1.5164777E0,-2.4022427E0,6.739749E-1,-1.1732506E0,7.6787996E-1,4.1794705E0,1.592295E0,8.694054E-1,2.9115915E0,2.6266867E-1,-1.5372579E-1,1.9646896E0,3.0434315E0,1.5339018E0,-1.5105472E0,1.7095035E0],"categories":[0,2,5,1,2,4,5,6,7,8,10,12,13,7,10,11,12,13,0,1,2,4,0,1,2,4,0,3,4,5,8,9,10,11,12,13,5,7,11,2,10,11,12,13,0,1,3,0,1,2,3,5,7,8,9,11,12,13,0,1],"categories_nodes":[0,3,5,7,11,12,13,19,20,24,25,27],"categories_segments":[0,1,3,13,18,22,26,36,39,44,47,58],"categories_sizes":[1,2,10,5,4,4,10,3,5,3,11,2],"default_left":[1,0,0,1,0,1,0,1,0,0,0,1,1,1,0,0,0,0,0,1,1,0,0,0,1,1,0,1,0,0,0,0,0,0,0,0,0,0,0,0,0,0,0,0,0,0,0,0,0],"id":9,"left_children":[1,3,5,7,9,11,13,15,17,19,21,23,25,27,29,-1,31,-1,-1,33,35,-1,-1,37,39,41,43,45,47,-1,-1,-1,-1,-1,-1,-1,-1,-1,-1,-1,-1,-1,-1,-1,-1,-1,-1,-1,-1],"loss_changes":[1.8247438E5,1.1718523E4,2.699379E4,1.5343516E3,5.7057773E3,1.2871844E4,1.0863883E4,1.5548828E2,1.0782422E2,1.761043E3,3.439868E1,4.47424E3,4.6391978E3,4.7478203E3,7.7035312E3,0E0,1.2001172E2,0E0,0E0,1.02046875E3,1.6120864E3,0E0,0E0,6.1580273E3,7.727822E2,4.462536E3,5.2997285E3,2.1951523E3,5.1128374E3,0E0,0E0,0E0,0E0,0E0,0E0,0E0,0E0,0E0,0E0,0E0,0E0,0E0,0E0,0E0,0E0,0E0,0E0,0E0,0E0],"parents":[2147483647,0,0,1,1,2,2,3,3,4,4,5,5,6,6,7,7,8,8,9,9,10,10,11,11,12,12,13,13,14,14,16,16,19,19,20,20,23,23,24,24,25,25,26,26,27,27,28,28],"right_children":[2,4,6,8,10,12,14,16,18,20,22,24,26,28,30,-1,32,-1,-1,34,36,-1,-1,38,40,42,44,46,48,-1,-1,-1,-1,-1,-1,-1,-1,-1,-1,-1,-1,-1,-1,-1,-1,-1,-1,-1,-1],"split_conditions":[1E-45,1.1441484E2,2.0784756E2,1E-45,1.9083325E2,1E-45,2.5942123E2,1E-45,1.8802231E-2,1.3292139E2,2.3950616E2,1E-45,1E-45,1E-45,2.9650202E-3,-1.4826564E0,7.753082E1,-3.5670578E0,-1.4037682E0,1E-45,1E-45,8.6801046E-1,2.410374E0,7.787787E-3,1E-45,1E-45,1.9675415E2,1E-45,6.027434E-3,-5.544678E-1,5.795114E0,-6.0398597E-1,-2.605769E0,-1.5164777E0,-2.4022427E0,6.739749E-1,-1.1732506E0,7.6787996E-1,4.1794705E0,1.592295E0,8.694054E-1,2.9115915E0,2.6266867E-1,-1.5372579E-1,1.9646896E0,3.0434315E0,1.5339018E0,-1.5105472E0,1.7095035E0],"split_indices":[2,0,0,3,0,3,0,3,1,0,0,4,4,3,1,0,0,0,0,3,3,0,0,1,4,3,0,4,1,0,0,0,0,0,0,0,0,0,0,0,0,0,0,0,0,0,0,0,0],"split_type":[1,0,0,1,0,1,0,1,0,0,0,1,1,1,0,0,0,0,0,1,1,0,0,0,1,1,0,1,0,0,0,0,0,0,0,0,0,0,0,0,0,0,0,0,0,0,0,0,0],"sum_hessian":[6.18E2,2.38E2,3.8E2,1.21E2,1.17E2,2.6E2,1.2E2,8.6E1,3.5E1,1.13E2,4E0,9.5E1,1.65E2,1.04E2,1.6E1,6E0,8E1,3.3E1,2E0,8.1E1,3.2E1,2E0,2E0,2.3E1,7.2E1,2.5E1,1.4E2,6.7E1,3.7E1,2E0,1.4E1,1E0,7.9E1,5.8E1,2.3E1,5E0,2.7E1,9E0,1.4E1,4.2E1,3E1,1.1E1,1.4E1,1.28E2,1.2E1,5.1E1,1.6E1,5E0,3.2E1],"tree_param":{"num_deleted":"0","num_feature":"5","num_nodes":"49","size_leaf_vector":"1"}},{"base_weights":[2.4690431E-1,-1.931188E1,1.2515414E1,-2.4617887E1,-1.1426523E1,7.3019934E0,2.3657461E1,-1.9785162E1,-2.8329544E1,9.270747E0,-1.4422314E1,1.3468519E1,6.895288E-1,1.954487E1,4.34488E1,-1.1849604E1,-2.0391327E1,-1.7101225E0,-2.9027722E0,3.1916606E0,1.8358953E1,-1.5557911E1,-6.122968E0,7.451494E0,1.9464134E1,1.7180033E1,-2.1912885E0,3.070301E1,1.5323625E1,-5.1750284E-1,4.913895E1,-1.3895754E0,2.1364594E-2,-7.669037E-1,-2.070318E0,8.4902173E-1,-1.0235524E0,8.10143E-1,2.2496827E0,-1.3573941E0,-2.323279E0,-1.0075196E0,-4.9154155E-2,1.2088013E-2,1.065612E0,3.8206298E0,1.4244608E0,2.7619836E0,2.5113797E-1,-4.094244E-1,1.9407578E0,3.1193113E0,8.980164E-1,1.709874E0,2.090149E-2,2.716628E0,5.5500264E0],"categories":[0,2,5,7,13,5,7,10,11,12,13,1,2,4,5,7,10,12,13,0,2,4,0,1,2,4,0,3,4,5,6,7,8,9,10,11,12,13,5,11,0,1,2,4,0,1,2,3,5,6,7,8,9,11,12,13,1,2,3,4,5,10,12,13],"categories_nodes":[0,3,4,5,8,12,13,21,24,25,28],"categories_segments":[0,1,5,11,19,22,26,38,40,44,56],"categories_sizes":[1,4,6,8,3,4,12,2,4,12,8],"default_left":[1,0,0,1,1,1,0,0,1,0,0,0,1,1,0,0,0,0,0,0,0,1,0,0,1,1,0,0,1,0,0,0,0,0,0,0,0,0,0,0,0,0,0,0,0,0,0,0,0,0,0,0,0,0,0,0,0],"id":10,"left_children":[1,3,5,7,9,11,13,15,17,19,21,23,25,27,29,31,33,-1,-1,35,37,39,41,43,45,47,49,51,53,-1,55,-1,-1,-1,-1,-1,-1,-1,-1,-1,-1,-1,-1,-1,-1,-1,-1,-1,-1,-1,-1,-1,-1,-1,-1,-1,-1],"loss_changes":[1.4877517E5,9.718414E3,2.1958852E4,1.9866094E3,6.210166E3,1.0633231E4,8.9994375E3,7.103906E1,1.150625E2,6.596283E2,7.152637E2,4.7251914E3,6.0709243E3,4.3338477E3,5.787832E3,1.7575128E2,7.530469E1,0E0,0E0,7.272041E2,2.9965332E1,8.266465E2,2.6212778E2,1.6196511E3,6.0100566E3,2.8402554E3,4.5595425E3,7.3339844E0,2.0355195E3,0E0,1.00821484E3,0E0,0E0,0E0,0E0,0E0,0E0,0E0,0E0,0E0,0E0,0E0,0E0,0E0,0E0,0E0,0E0,0E0,0E0,0E0,0E0,0E0,0E0,0E0,0E0,0E0,0E0],"parents":[2147483647,0,0,1,1,2,2,3,3,4,4,5,5,6,6,7,7,8,8,9,9,10,10,11,11,12,12,13,13,14,14,15,15,16,16,19,19,20,20,21,21,22,22,23,23,24,24,25,25,26,26,27,27,28,28,30,30],"right_children":[2,4,6,8,10,12,14,16,18,20,22,24,26,28,30,32,34,-1,-1,36,38,40,42,44,46,48,50,52,54,-1,56,-1,-1,-1,-1,-1,-1,-1,-1,-1,-1,-1,-1,-1,-1,-1,-1,-1,-1,-1,-1,-1,-1,-1,-1,-1,-1],"split_conditions":[1E-45,1.17996414E2,2.0784756E2,1E-45,1E-45,1E-45,2.562223E2,9.1124245E1,1E-45,1.9083325E2,1.492899E2,1.6887544E-2,1E-45,1E-45,2.9650202E-3,9.066986E1,4.8563313E-3,-1.7101225E0,-2.9027722E0,1.428943E2,2.3950616E2,1E-45,6.6083134E-3,1.7819061E2,1E-45,1E-45,1.9675415E2,2.3332558E2,1E-45,-5.1750284E-1,2.8448154E2,-1.3895754E0,2.1364594E-2,-7.669037E-1,-2.070318E0,8.4902173E-1,-1.0235524E0,8.10143E-1,2.2496827E0,-1.3573941E0,-2.323279E0,-1.0075196E0,-4.9154155E-2,1.2088013E-2,1.065612E0,3.8206298E0,1.4244608E0,2.7619836E0,2.5113797E-1,-4.094244E-1,1.9407578E0,3.1193113E0,8.980164E-1,1.709874E0,2.090149E-2,2.716628E0,5.5500264E0],"split_indices":[2,0,0,3,3,3,0,0,4,0,0,1,4,3,1,0,1,0,0,0,0,3,1,0,4,3,0,0,3,0,0,0,0,0,0,0,0,0,0,0,0,0,0,0,0,0,0,0,0,0,0,0,0,0,0,0,0],"split_type":[1,0,0,1,1,1,0,0,1,0,0,0,1,1,0,0,0,0,0,0,0,1,0,0,1,1,0,0,1,0,0,0,0,0,0,0,0,0,0,0,0,0,0,0,0,0,0,0,0,0,0,0,0,0,0,0,0],"sum_hessian":[6.18E2,2.38E2,3.8E2,1.41E2,9.7E1,2.6E2,1.2E2,6.4E1,7.7E1,1.2E1,8.5E1,1.34E2,1.26E2,1.01E2,1.9E1,6E0,5.8E1,6E0,7.1E1,8E0,4E0,7.4E1,1.1E1,6.8E1,6.6E1,1.8E1,1.08E2,2.6E1,7.5E1,2E0,1.7E1,5E0,1E0,2E0,5.6E1,6E0,2E0,2E0,2E0,6.1E1,1.3E1,6E0,5E0,2.1E1,4.7E1,1.3E1,5.3E1,1E1,8E0,1E2,8E0,2.5E1,1E0,6.7E1,8E0,5E0,1.2E1],"tree_param":{"num_deleted":"0","num_feature":"5","num_nodes":"57","size_leaf_vector":"1"}},{"base_weights":[2.443372E-1,-1.742534E1,1.1327824E1,-2.2218203E1,-1.0302772E1,6.6134324E0,2.1403265E1,-1.6666286E1,-2.4875921E1,8.565622E0,-1.3035171E1,1.2168506E1,6.563591E-1,1.764674E1,3.9491383E1,-4.4355622E-1,-1.6828686E0,-2.9106615E1,-2.2332141E0,2.8531086E0,1.7135021E1,-1.114312E1,-1.8032814E1,1.5817299E1,3.9939394E0,1.5620614E1,-1.9581107E0,2.8968704E1,1.4171091E1,-4.8300272E-1,4.468432E1,-2.9537115E0,-7.8805465E-1,7.7624905E-1,-9.553151E-1,7.56133E-1,2.099704E0,-7.903535E-1,-1.4892138E0,-1.9658746E0,-1.1823324E-1,2.9032133E0,1.3107935E0,1.2776145E0,1.822426E-2,2.5108945E0,2.2881404E-1,-3.688874E-1,1.7682467E0,2.9509904E0,8.5311586E-1,2.3169167E0,1.1375275E0,2.4902422E0,5.037717E0],"categories":[0,2,5,7,11,13,5,7,10,11,12,13,1,2,4,5,7,10,12,13,5,7,11,0,1,0,1,2,4,0,2,3,4,5,6,7,8,9,10,11,12,13,0,4,1,2,3,4,5,6,7,8,10,11,12,13,0,1,2,3,5,6,7,8,9,11,12,13],"categories_nodes":[0,3,4,5,10,11,12,13,21,24,25],"categories_segments":[0,1,6,12,20,23,25,29,42,44,56],"categories_sizes":[1,5,6,8,3,2,4,13,2,12,12],"default_left":[1,0,0,1,1,1,0,0,0,0,1,1,1,1,0,0,0,0,0,0,0,1,0,0,1,1,0,0,0,0,0,0,0,0,0,0,0,0,0,0,0,0,0,0,0,0,0,0,0,0,0,0,0,0,0],"id":11,"left_children":[1,3,5,7,9,11,13,15,17,19,21,23,25,27,29,-1,-1,31,-1,33,35,37,39,41,43,45,47,49,51,-1,53,-1,-1,-1,-1,-1,-1,-1,-1,-1,-1,-1,-1,-1,-1,-1,-1,-1,-1,-1,-1,-1,-1,-1,-1],"loss_changes":[1.21423375E5,7.9299453E3,1.7955785E4,1.6806797E3,5.1641426E3,8.6290205E3,7.524871E3,2.268164E1,3.6160938E2,5.874985E2,6.122549E2,3.9635117E3,4.9992837E3,3.6033008E3,4.81899E3,0E0,0E0,5.964258E1,0E0,6.223198E2,2.6103271E1,6.717422E2,5.7950684E2,2.9492012E3,1.4371008E3,2.346103E3,3.7704856E3,2.6425781E0,1.7490039E3,0E0,7.725625E2,0E0,0E0,0E0,0E0,0E0,0E0,0E0,0E0,0E0,0E0,0E0,0E0,0E0,0E0,0E0,0E0,0E0,0E0,0E0,0E0,0E0,0E0,0E0,0E0],"parents":[2147483647,0,0,1,1,2,2,3,3,4,4,5,5,6,6,7,7,8,8,9,9,10,10,11,11,12,12,13,13,14,14,17,17,19,19,20,20,21,21,22,22,23,23,24,24,25,25,26,26,27,27,28,28,30,30],"right_children":[2,4,6,8,10,12,14,16,18,20,22,24,26,28,30,-1,-1,32,-1,34,36,38,40,42,44,46,48,50,52,-1,54,-1,-1,-1,-1,-1,-1,-1,-1,-1,-1,-1,-1,-1,-1,-1,-1,-1,-1,-1,-1,-1,-1,-1,-1],"split_conditions":[1E-45,1.17996414E2,2.0784756E2,1E-45,1E-45,1E-45,2.562223E2,4.8563313E-3,8.742424E1,1.9083325E2,1E-45,1E-45,1E-45,1E-45,2.9650202E-3,-4.4355622E-1,-1.6828686E0,1.8802231E-2,-2.2332141E0,1.428943E2,2.3950616E2,1E-45,1.492899E2,1.4865126E2,1E-45,1E-45,1.9675415E2,2.3332558E2,4.172219E-3,-4.8300272E-1,2.8448154E2,-2.9537115E0,-7.8805465E-1,7.7624905E-1,-9.553151E-1,7.56133E-1,2.099704E0,-7.903535E-1,-1.4892138E0,-1.9658746E0,-1.1823324E-1,2.9032133E0,1.3107935E0,1.2776145E0,1.822426E-2,2.5108945E0,2.2881404E-1,-3.688874E-1,1.7682467E0,2.9509904E0,8.5311586E-1,2.3169167E0,1.1375275E0,2.4902422E0,5.037717E0],"split_indices":[2,0,0,3,3,3,0,1,0,0,3,4,4,3,1,0,0,1,0,0,0,4,0,0,3,3,0,0,1,0,0,0,0,0,0,0,0,0,0,0,0,0,0,0,0,0,0,0,0,0,0,0,0,0,0],"split_type":[1,0,0,1,1,1,0,0,0,0,1,1,1,1,0,0,0,0,0,0,0,1,0,0,1,1,0,0,0,0,0,0,0,0,0,0,0,0,0,0,0,0,0,0,0,0,0,0,0,0,0,0,0,0,0],"sum_hessian":[6.18E2,2.38E2,3.8E2,1.41E2,9.7E1,2.6E2,1.2E2,4.8E1,9.3E1,1.2E1,8.5E1,1.34E2,1.26E2,1.01E2,1.9E1,1E0,4.7E1,3.1E1,6.2E1,8E0,4E0,6.4E1,2.1E1,9.2E1,4.2E1,1.8E1,1.08E2,2.2E1,7.9E1,2E0,1.7E1,3E1,1E0,6E0,2E0,2E0,2E0,3.6E1,2.8E1,1.9E1,2E0,1.4E1,7.8E1,1.2E1,3E1,1E1,8E0,1E2,8E0,2.1E1,1E0,1.7E1,6.2E1,5E0,1.2E1],"tree_param":{"num_deleted":"0","num_feature":"5","num_nodes":"55","size_leaf_vector":"1"}},{"base_weights":[2.427854E-1,-1.5723761E1,1.0257908E1,-2.0890308E1,-1.0248824E1,5.9890566E0,1.9381151E1,-1.8553501E1,-2.5957306E1,-1.1309865E1,1.5992688E1,1.28950815E1,1.959132E0,1.595323E1,3.5894485E1,-1.0338715E0,-1.9034365E1,-2.6587775E0,-1.0159564E0,-1.32332115E1,-6.1879187E0,7.057241E-1,1.9597238E0,2.263E1,9.517916E0,-3.0074185E-1,9.579253E0,2.528617E0,1.242767E1,-4.5080262E-1,4.06341E1,-4.2016488E-1,-1.9167254E0,-1.1412274E0,-1.9073642E0,-9.8339236E-1,1.998083E-1,1.4954592E0,5.7268395E0,4.7894835E-1,1.203174E0,1.0968512E0,-2.3469631E-1,1.4505786E0,-1.0106788E-1,2.0980976E0,9.607549E-1,2.2827215E0,4.572696E0],"categories":[0,2,5,1,2,4,5,6,7,8,10,12,13,7,10,11,12,13,0,1,2,4,0,3,4,5,6,7,8,9,10,11,12,13,5,11,0,2,4,4],"categories_nodes":[0,3,5,7,11,13,19,25,26],"categories_segments":[0,1,3,13,18,22,34,36,39],"categories_sizes":[1,2,10,5,4,12,2,3,1],"default_left":[1,0,0,1,0,1,0,1,0,0,0,1,0,1,0,0,0,0,0,1,0,0,0,0,0,1,1,0,0,0,0,0,0,0,0,0,0,0,0,0,0,0,0,0,0,0,0,0,0],"id":12,"left_children":[1,3,5,7,9,11,13,15,17,19,21,23,25,27,29,-1,31,-1,-1,33,35,-1,-1,37,39,41,43,-1,45,-1,47,-1,-1,-1,-1,-1,-1,-1,-1,-1,-1,-1,-1,-1,-1,-1,-1,-1,-1],"loss_changes":[9.914368E4,6.546375E3,1.4722266E4,9.629531E2,3.4663887E3,7.2385654E3,6.276742E3,1.46875E2,8.84375E1,1.0411592E3,2.2739014E1,2.940747E3,2.8614858E3,3.0419434E3,4.0130254E3,0E0,7.9125E1,0E0,0E0,6.5440234E2,1.0045736E3,0E0,0E0,5.5243057E3,8.1008496E2,3.000404E3,1.9971838E3,0E0,1.6316465E3,0E0,5.8856445E2,0E0,0E0,0E0,0E0,0E0,0E0,0E0,0E0,0E0,0E0,0E0,0E0,0E0,0E0,0E0,0E0,0E0,0E0],"parents":[2147483647,0,0,1,1,2,2,3,3,4,4,5,5,6,6,7,7,8,8,9,9,10,10,11,11,12,12,13,13,14,14,16,16,19,19,20,20,23,23,24,24,25,25,26,26,28,28,30,30],"right_children":[2,4,6,8,10,12,14,16,18,20,22,24,26,28,30,-1,32,-1,-1,34,36,-1,-1,38,40,42,44,-1,46,-1,48,-1,-1,-1,-1,-1,-1,-1,-1,-1,-1,-1,-1,-1,-1,-1,-1,-1,-1],"split_conditions":[1E-45,1.1441484E2,2.0784756E2,1E-45,1.9083325E2,1E-45,2.562223E2,1E-45,1.8802231E-2,1.3292139E2,2.3950616E2,1E-45,1.9145538E2,1E-45,2.9650202E-3,-1.0338715E0,7.753082E1,-2.6587775E0,-1.0159564E0,1E-45,9.343633E-3,7.057241E-1,1.9597238E0,2.8789414E-2,1.6532812E2,1E-45,1E-45,2.528617E0,4.172219E-3,-4.5080262E-1,2.8448154E2,-4.2016488E-1,-1.9167254E0,-1.1412274E0,-1.9073642E0,-9.8339236E-1,1.998083E-1,1.4954592E0,5.7268395E0,4.7894835E-1,1.203174E0,1.0968512E0,-2.3469631E-1,1.4505786E0,-1.0106788E-1,2.0980976E0,9.607549E-1,2.2827215E0,4.572696E0],"split_indices":[2,0,0,3,0,3,0,3,1,0,0,4,0,3,1,0,0,0,0,3,1,0,0,1,0,4,4,0,1,0,0,0,0,0,0,0,0,0,0,0,0,0,0,0,0,0,0,0,0],"split_type":[1,0,0,1,0,1,0,1,0,0,0,1,0,1,0,0,0,0,0,1,0,0,0,0,0,1,1,0,0,0,0,0,0,0,0,0,0,0,0,0,0,0,0,0,0,0,0,0,0],"sum_hessian":[6.18E2,2.38E2,3.8E2,1.21E2,1.17E2,2.6E2,1.2E2,8.6E1,3.5E1,1.13E2,4E0,9.5E1,1.65E2,1.01E2,1.9E1,6E0,8E1,3.3E1,2E0,8.1E1,3.2E1,2E0,2E0,2.3E1,7.2E1,1.28E2,3.7E1,2.6E1,7.5E1,2E0,1.7E1,1E0,7.9E1,6.4E1,1.7E1,2.2E1,1E1,2E1,3E0,2.6E1,4.6E1,1.9E1,1.09E2,2.5E1,1.2E1,1.7E1,5.8E1,5E0,1.2E1],"tree_param":{"num_deleted":"0","num_feature":"5","num_nodes":"49","size_leaf_vector":"1"}},{"base_weights":[2.425723E-1,-1.4185746E1,9.29277E0,-1.8859026E1,-9.233832E0,5.432743E0,1.7542145E1,-1.6736893E1,-2.3463654E1,-1.0212498E1,1.4926514E1,1.0062337E1,4.687446E-1,1.4412688E1,3.2625275E1,-9.452537E-1,-1.7159777E1,-2.40072E0,-9.4822615E-1,-8.462964E0,-1.5283816E1,6.5867615E-1,1.8290762E0,4.6702147E0,1.4857063E1,1.3051923E1,-1.7289538E0,2.381856E1,1.1528341E1,-4.2074892E-1,3.6951553E1,-3.9915657E-1,-1.7274485E0,-5.541286E-1,-1.2084569E0,-1.6362305E0,-8.423106E-2,-8.7224625E-2,6.811418E-1,2.9203975E0,1.0492641E0,2.1764867E0,9.525554E-2,-3.232698E-1,1.5338506E0,2.4279377E0,6.840294E-1,1.3018607E0,-1.6747063E-1,2.0924952E0,4.150602E0],"categories":[0,2,5,1,2,4,5,7,10,12,13,7,10,11,12,13,5,7,11,0,1,2,4,0,2,3,4,5,6,7,8,9,10,11,12,13,0,4,0,1,2,4,0,1,2,3,5,6,7,8,9,11,12,13,4],"categories_nodes":[0,3,5,7,9,12,13,19,24,25,28],"categories_segments":[0,1,3,11,16,19,23,36,38,42,54],"categories_sizes":[1,2,8,5,3,4,13,2,4,12,1],"default_left":[1,0,0,1,0,1,0,1,0,1,0,0,1,1,0,0,0,0,0,1,0,0,0,0,1,1,0,0,1,0,0,0,0,0,0,0,0,0,0,0,0,0,0,0,0,0,0,0,0,0,0],"id":13,"left_children":[1,3,5,7,9,11,13,15,17,19,21,23,25,27,29,-1,31,-1,-1,33,35,-1,-1,37,39,41,43,45,47,-1,49,-1,-1,-1,-1,-1,-1,-1,-1,-1,-1,-1,-1,-1,-1,-1,-1,-1,-1,-1,-1],"loss_changes":[8.096031E4,5.3567188E3,1.2036809E4,7.994297E2,2.9425352E3,5.9934004E3,5.2412266E3,1.0579492E2,4.5939453E1,8.821113E2,1.9808105E1,3.42087E3,3.534628E3,2.4926523E3,3.3424492E3,0E0,5.3398438E1,0E0,0E0,8.5359766E2,4.2231787E2,0E0,0E0,7.7733105E2,4.1393076E3,1.9822683E3,2.84708E3,1.3871094E1,1.5958857E3,0E0,4.4535547E2,0E0,0E0,0E0,0E0,0E0,0E0,0E0,0E0,0E0,0E0,0E0,0E0,0E0,0E0,0E0,0E0,0E0,0E0,0E0,0E0],"parents":[2147483647,0,0,1,1,2,2,3,3,4,4,5,5,6,6,7,7,8,8,9,9,10,10,11,11,12,12,13,13,14,14,16,16,19,19,20,20,23,23,24,24,25,25,26,26,27,27,28,28,30,30],"right_children":[2,4,6,8,10,12,14,16,18,20,22,24,26,28,30,-1,32,-1,-1,34,36,-1,-1,38,40,42,44,46,48,-1,50,-1,-1,-1,-1,-1,-1,-1,-1,-1,-1,-1,-1,-1,-1,-1,-1,-1,-1,-1,-1],"split_conditions":[1E-45,1.1441484E2,2.0784756E2,1E-45,1.9083325E2,1E-45,2.562223E2,1E-45,1.8802231E-2,1E-45,2.3950616E2,1.4233827E-2,1E-45,1E-45,2.9650202E-3,-9.452537E-1,7.753082E1,-2.40072E0,-9.4822615E-1,1E-45,1.492899E2,6.5867615E-1,1.8290762E0,1.7819061E2,1E-45,1E-45,1.9675415E2,2.3332558E2,1E-45,-4.2074892E-1,2.8448154E2,-3.9915657E-1,-1.7274485E0,-5.541286E-1,-1.2084569E0,-1.6362305E0,-8.423106E-2,-8.7224625E-2,6.811418E-1,2.9203975E0,1.0492641E0,2.1764867E0,9.525554E-2,-3.232698E-1,1.5338506E0,2.4279377E0,6.840294E-1,1.3018607E0,-1.6747063E-1,2.0924952E0,4.150602E0],"split_indices":[2,0,0,3,0,3,0,3,1,3,0,1,4,3,1,0,0,0,0,4,0,0,0,0,4,3,0,0,3,0,0,0,0,0,0,0,0,0,0,0,0,0,0,0,0,0,0,0,0,0,0],"split_type":[1,0,0,1,0,1,0,1,0,1,0,0,1,1,0,0,0,0,0,1,0,0,0,0,1,1,0,0,1,0,0,0,0,0,0,0,0,0,0,0,0,0,0,0,0,0,0,0,0,0,0],"sum_hessian":[6.18E2,2.38E2,3.8E2,1.21E2,1.17E2,2.6E2,1.2E2,8.6E1,3.5E1,1.13E2,4E0,1.34E2,1.26E2,1.01E2,1.9E1,6E0,8E1,3.3E1,2E0,8.6E1,2.7E1,2E0,2E0,6.4E1,7E1,1.8E1,1.08E2,2.2E1,7.9E1,2E0,1.7E1,1E0,7.9E1,4.9E1,3.7E1,2.5E1,2E0,1.8E1,4.6E1,1.5E1,5.5E1,1E1,8E0,1E2,8E0,2.1E1,1E0,7.1E1,8E0,5E0,1.2E1],"tree_param":{"num_deleted":"0","num_feature":"5","num_nodes":"51","size_leaf_vector":"1"}},{"base_weights":[2.3559724E-1,-1.2798204E1,8.411038E0,-5.102808E0,-1.5349159E1,1.7461334E1,5.469555E0,7.83171E0,-8.430276E0,-1.2325107E1,-1.9571411E1,2.4064474E1,6.817003E0,9.461763E0,-1.2098893E0,4.599826E0,1.7071381E0,-1.0422846E1,-1.4179478E0,-1.477786E1,-9.827459E0,-1.6743551E0,-2.1870316E1,-8.6329955E-1,2.5410437E1,1.2654546E0,1.5847014E0,3.1369133E0,1.3330316E1,9.771341E-1,-1.1620902E1,-3.3964273E-1,8.022974E-1,-5.04913E-1,-1.1084042E0,3.2356477E-1,-4.1492015E-1,-8.9377403E-1,-1.5487707E0,-1.2862684E0,-8.509464E-1,-2.2361467E0,-8.85011E-1,1.2594153E0,2.990169E0,6.958359E-1,-5.9890747E-2,-6.106248E-2,8.456213E-1,1.8715289E0,9.8319715E-1,-4.0901515E-1,5.6017894E-1,-1.01565555E-1,-1.6437504E0],"categories":[0,0,2,4,0,1,2,4,5,7,10,11,12,13,2,5,7,11,0,1,2,5,8,9,12,13,2,4,5,10,11,12,13,2,5,10,7,11,12,13,5,10,1,3,4,5,6,7,8,9,10,11,12,13,0,2,4,5,6,8,9,10,11,12,13,2,4],"categories_nodes":[0,1,2,3,4,5,6,10,14,17,18,25,28,30],"categories_segments":[0,1,4,8,14,18,26,33,35,36,40,42,54,65],"categories_sizes":[1,3,4,6,4,8,7,2,1,4,2,12,11,2],"default_left":[1,1,1,1,1,1,1,0,0,0,1,0,0,0,1,0,0,1,1,0,0,0,0,0,0,1,0,0,1,0,1,0,0,0,0,0,0,0,0,0,0,0,0,0,0,0,0,0,0,0,0,0,0,0,0],"id":14,"left_children":[1,3,5,7,9,11,13,15,17,19,21,23,25,27,29,31,-1,33,35,37,39,-1,41,-1,43,45,-1,47,49,51,53,-1,-1,-1,-1,-1,-1,-1,-1,-1,-1,-1,-1,-1,-1,-1,-1,-1,-1,-1,-1,-1,-1,-1,-1],"loss_changes":[6.606647E4,4.6133945E3,1.0047207E4,2.6914146E3,2.0443086E3,6.372549E3,7.7178457E3,3.0967474E2,6.698762E2,5.1026562E2,1.08384766E2,2.727914E3,1.8347769E3,4.3868936E3,2.4931902E3,3.283454E2,0E0,7.9052246E1,1.6594714E2,7.714551E1,1.1456836E2,0E0,3.8708984E1,0E0,2.7892773E3,2.5889465E2,0E0,1.4005627E3,1.9259043E3,2.1554468E3,9.538489E2,0E0,0E0,0E0,0E0,0E0,0E0,0E0,0E0,0E0,0E0,0E0,0E0,0E0,0E0,0E0,0E0,0E0,0E0,0E0,0E0,0E0,0E0,0E0,0E0],"parents":[2147483647,0,0,1,1,2,2,3,3,4,4,5,5,6,6,7,7,8,8,9,9,10,10,11,11,12,12,13,13,14,14,15,15,17,17,18,18,19,19,20,20,22,22,24,24,25,25,27,27,28,28,29,29,30,30],"right_children":[2,4,6,8,10,12,14,16,18,20,22,24,26,28,30,32,-1,34,36,38,40,-1,42,-1,44,46,-1,48,50,52,54,-1,-1,-1,-1,-1,-1,-1,-1,-1,-1,-1,-1,-1,-1,-1,-1,-1,-1,-1,-1,-1,-1,-1,-1],"split_conditions":[1E-45,1E-45,1E-45,1E-45,1E-45,1E-45,1E-45,2.3950616E2,9.471727E-3,1.128958E2,1E-45,1.2460226E2,2.0703206E2,1.8144243E2,1E-45,9.343633E-3,1.7071381E0,1E-45,1E-45,9.1124245E1,5.5754855E-3,-1.6743551E0,1.8802231E-2,-8.6329955E-1,4.6862066E-3,1E-45,1.5847014E0,2.4332799E-2,1E-45,9.471727E-3,1E-45,-3.3964273E-1,8.022974E-1,-5.04913E-1,-1.1084042E0,3.2356477E-1,-4.1492015E-1,-8.9377403E-1,-1.5487707E0,-1.2862684E0,-8.509464E-1,-2.2361467E0,-8.85011E-1,1.2594153E0,2.990169E0,6.958359E-1,-5.9890747E-2,-6.106248E-2,8.456213E-1,1.8715289E0,9.8319715E-1,-4.0901515E-1,5.6017894E-1,-1.01565555E-1,-1.6437504E0],"split_indices":[2,4,4,3,3,3,3,0,1,0,3,0,0,0,3,1,0,3,3,0,1,0,1,0,1,3,0,1,3,1,4,0,0,0,0,0,0,0,0,0,0,0,0,0,0,0,0,0,0,0,0,0,0,0,0],"split_type":[1,1,1,1,1,1,1,0,0,0,1,0,0,0,1,0,0,1,1,0,0,0,0,0,0,1,0,0,1,0,1,0,0,0,0,0,0,0,0,0,0,0,0,0,0,0,0,0,0,0,0,0,0,0,0],"sum_hessian":[6.18E2,2.38E2,3.8E2,6E1,1.78E2,9.2E1,2.88E2,1.2E1,4.8E1,1.06E2,7.2E1,5.6E1,3.6E1,1.8E2,1.08E2,1E1,2E0,3.7E1,1.1E1,5.1E1,5.5E1,3.6E1,3.6E1,2E0,5.4E1,2.3E1,1.3E1,6.9E1,1.11E2,9E1,1.8E1,3E0,7E0,5E0,3.2E1,4E0,7E0,7E0,4.4E1,1.4E1,4.1E1,3.4E1,2E0,1.5E1,3.9E1,5E0,1.8E1,4.1E1,2.8E1,4.2E1,6.9E1,4.3E1,4.7E1,6E0,1.2E1],"tree_param":{"num_deleted":"0","num_feature":"5","num_nodes":"55","size_leaf_vector":"1"}},{"base_weights":[2.1000333E-1,-1.1555665E1,7.590016E0,-4.584904E0,-1.3866619E1,5.4482555E0,1.8314323E1,7.2154493E0,-7.6220407E0,-1.1135397E1,-1.7679962E1,1.353359E1,3.522952E0,1.40815935E1,2.8939264E1,4.181907E0,1.5933288E0,-9.42302E0,-1.2837671E0,-1.334705E1,-8.882874E0,-1.5114449E0,-1.9767641E1,2.4235344E1,3.7189114E0,7.8070593E0,-4.0904975E-1,1.6997175E1,-5.0070367E0,-4.7666016E-1,3.3751152E1,-3.1416932E-1,7.3209685E-1,-2.28802E-1,-9.755854E-1,2.9767975E-1,-3.786149E-1,-7.1474206E-1,-1.3854512E0,-6.237161E-1,-9.97197E-1,-2.0189211E0,-8.260104E-1,-8.057465E-1,2.6925828E0,1.0014817E0,-3.556446E-2,2.9411206E-1,1.1902841E0,1.2273895E-1,-1.055067E0,1.7665176E0,6.401867E-1,-2.3977544E0,2.827949E0,1.4574901E0,3.55802E0],"categories":[0,0,2,4,5,7,10,11,12,13,2,5,7,11,0,1,2,4,2,5,0,1,2,5,6,7,8,9,12,13,2,4,5,6,7,10,11,12,13,4,7,10,11,12,13,5,10,10,12,13,4,12,1,3,4,5,6,7,8,9,10,11,12,13,10,0,1],"categories_nodes":[0,1,3,4,5,10,11,12,13,17,18,19,20,24,26,27],"categories_segments":[0,1,4,10,14,18,20,30,39,40,45,47,50,52,64,65],"categories_sizes":[1,3,6,4,4,2,10,9,1,5,2,3,2,12,1,2],"default_left":[1,1,0,1,1,1,0,0,0,0,1,1,1,1,0,0,0,1,1,1,1,0,0,0,1,0,1,1,0,0,0,0,0,0,0,0,0,0,0,0,0,0,0,0,0,0,0,0,0,0,0,0,0,0,0,0,0],"id":15,"left_children":[1,3,5,7,9,11,13,15,17,19,21,23,25,27,29,31,-1,33,35,37,39,-1,41,43,45,47,49,51,53,-1,55,-1,-1,-1,-1,-1,-1,-1,-1,-1,-1,-1,-1,-1,-1,-1,-1,-1,-1,-1,-1,-1,-1,-1,-1,-1,-1],"loss_changes":[5.383596E4,3.7865E3,8.651367E3,2.2411926E3,1.6674258E3,4.9181064E3,2.4257559E3,2.771657E2,5.4724316E2,4.1449414E2,9.2208984E1,6.316961E3,4.366079E3,2.7008643E3,2.9180898E3,2.7588177E2,0E0,6.791943E1,1.3920934E2,6.457129E1,9.9163574E1,0E0,1.2731445E1,2.7365684E3,8.501112E2,2.4362905E3,2.2700254E3,1.770957E2,5.098309E3,0E0,7.5351562E0,0E0,0E0,0E0,0E0,0E0,0E0,0E0,0E0,0E0,0E0,0E0,0E0,0E0,0E0,0E0,0E0,0E0,0E0,0E0,0E0,0E0,0E0,0E0,0E0,0E0,0E0],"parents":[2147483647,0,0,1,1,2,2,3,3,4,4,5,5,6,6,7,7,8,8,9,9,10,10,11,11,12,12,13,13,14,14,15,15,17,17,18,18,19,19,20,20,22,22,23,23,24,24,25,25,26,26,27,27,28,28,30,30],"right_children":[2,4,6,8,10,12,14,16,18,20,22,24,26,28,30,32,-1,34,36,38,40,-1,42,44,46,48,50,52,54,-1,56,-1,-1,-1,-1,-1,-1,-1,-1,-1,-1,-1,-1,-1,-1,-1,-1,-1,-1,-1,-1,-1,-1,-1,-1,-1,-1],"split_conditions":[1E-45,1E-45,2.3077219E2,1E-45,1E-45,1E-45,2.5942123E2,2.3950616E2,9.471727E-3,1.128958E2,1E-45,1E-45,1E-45,1E-45,2.9650202E-3,9.343633E-3,1.5933288E0,1E-45,1E-45,1E-45,1E-45,-1.5114449E0,1.8802231E-2,1.2460226E2,1E-45,1.8144243E2,1E-45,1E-45,6.027434E-3,-4.7666016E-1,2.8448154E2,-3.1416932E-1,7.3209685E-1,-2.28802E-1,-9.755854E-1,2.9767975E-1,-3.786149E-1,-7.1474206E-1,-1.3854512E0,-6.237161E-1,-9.97197E-1,-2.0189211E0,-8.260104E-1,-8.057465E-1,2.6925828E0,1.0014817E0,-3.556446E-2,2.9411206E-1,1.1902841E0,1.2273895E-1,-1.055067E0,1.7665176E0,6.401867E-1,-2.3977544E0,2.827949E0,1.4574901E0,3.55802E0],"split_indices":[2,4,0,3,3,4,0,0,1,0,3,3,3,3,1,1,0,3,3,3,3,0,1,0,3,0,3,4,1,0,0,0,0,0,0,0,0,0,0,0,0,0,0,0,0,0,0,0,0,0,0,0,0,0,0,0,0],"split_type":[1,1,0,1,1,1,0,0,0,0,1,1,1,1,0,0,0,1,1,1,1,0,0,0,1,0,1,1,0,0,0,0,0,0,0,0,0,0,0,0,0,0,0,0,0,0,0,0,0,0,0,0,0,0,0,0,0],"sum_hessian":[6.18E2,2.38E2,3.8E2,6E1,1.78E2,3.18E2,6.2E1,1.2E1,4.8E1,1.06E2,7.2E1,6E1,2.58E2,4.6E1,1.6E1,1E1,2E0,3.7E1,1.1E1,5.1E1,5.5E1,3.6E1,3.6E1,2.8E1,3.2E1,1.23E2,1.35E2,4E1,6E0,2E0,1.4E1,3E0,7E0,2E0,3.5E1,4E0,7E0,5E0,4.6E1,1.8E1,3.7E1,3.4E1,2E0,2E0,2.6E1,1.2E1,2E1,5.7E1,6.6E1,1.17E2,1.8E1,3.7E1,3E0,4E0,2E0,2E0,1.2E1],"tree_param":{"num_deleted":"0","num_feature":"5","num_nodes":"57","size_leaf_vector":"1"}},{"base_weights":[1.9454262E-1,-1.0430859E1,6.85931E0,-1.1964386E1,-1.7352656E0,4.914104E0,1.6599966E1,-9.625293E0,-1.4972542E1,-7.20216E0,3.8229587E0,1.2226999E1,3.1727889E0,1.2733792E1,2.6312332E1,-1.1207792E1,-6.8442326E0,-9.112077E0,-1.5971643E1,1.6047173E0,-8.953745E0,6.973765E-1,1.2435114E1,2.4227392E1,4.8363314E0,7.038327E0,-3.7500224E-1,1.5356155E1,-4.4448767E0,-4.448832E-1,3.071041E0,-9.759944E-1,-1.3597263E0,-9.2445034E-1,-8.6902566E-2,-2.7245992E-1,-9.885182E-1,-2.0605628E0,-1.4817137E0,-8.331401E-2,4.4591448E-1,-1.1268891E0,-5.2299863E-1,8.243228E-1,-2.795954E-1,1.3838772E0,3.41024E-1,-7.5203043E-1,2.7609093E0,1.0282848E0,-3.217701E-2,4.6694046E-1,1.4305307E0,1.105688E-1,-9.5511305E-1,1.5945143E0,5.9217304E-1,-2.2059345E0,2.6394196E0],"categories":[0,2,5,7,11,0,1,2,4,0,2,4,3,4,0,1,2,5,6,7,8,9,10,12,13,2,4,5,6,7,10,11,12,13,4,13,2,5,12,1,3,4,5,6,7,8,9,11,12,13,10,0,1],"categories_nodes":[0,3,5,8,9,11,12,13,15,21,24,26,27],"categories_segments":[0,1,5,9,12,14,25,34,35,36,39,50,51],"categories_sizes":[1,4,4,3,2,11,9,1,1,3,11,1,2],"default_left":[1,0,0,1,0,1,0,0,1,1,0,1,1,1,0,1,0,0,0,0,0,1,0,0,1,0,1,1,0,0,0,0,0,0,0,0,0,0,0,0,0,0,0,0,0,0,0,0,0,0,0,0,0,0,0,0,0,0,0],"id":16,"left_children":[1,3,5,7,9,11,13,15,17,19,21,23,25,27,29,31,33,35,37,39,41,43,45,47,49,51,53,55,57,-1,-1,-1,-1,-1,-1,-1,-1,-1,-1,-1,-1,-1,-1,-1,-1,-1,-1,-1,-1,-1,-1,-1,-1,-1,-1,-1,-1,-1,-1],"loss_changes":[4.390655E4,3.1662852E3,7.137455E3,1.2842676E3,1.1518239E3,4.0233706E3,2.0305742E3,4.3821094E2,3.638672E2,3.0746198E2,5.0277002E2,5.2929746E3,3.554597E3,2.185546E3,2.4365547E3,1.198418E2,6.373616E2,4.7139526E1,8.523242E1,3.1549839E1,7.900049E1,4.1844998E2,1.614563E1,2.6769355E3,1.0989624E3,2.067852E3,1.858393E3,1.334043E2,4.384736E3,0E0,0E0,0E0,0E0,0E0,0E0,0E0,0E0,0E0,0E0,0E0,0E0,0E0,0E0,0E0,0E0,0E0,0E0,0E0,0E0,0E0,0E0,0E0,0E0,0E0,0E0,0E0,0E0,0E0,0E0],"parents":[2147483647,0,0,1,1,2,2,3,3,4,4,5,5,6,6,7,7,8,8,9,9,10,10,11,11,12,12,13,13,14,14,15,15,16,16,17,17,18,18,19,19,20,20,21,21,22,22,23,23,24,24,25,25,26,26,27,27,28,28],"right_children":[2,4,6,8,10,12,14,16,18,20,22,24,26,28,30,32,34,36,38,40,42,44,46,48,50,52,54,56,58,-1,-1,-1,-1,-1,-1,-1,-1,-1,-1,-1,-1,-1,-1,-1,-1,-1,-1,-1,-1,-1,-1,-1,-1,-1,-1,-1,-1,-1,-1],"split_conditions":[1E-45,1.3292139E2,2.3077219E2,1E-45,6.6083134E-3,1E-45,2.5942123E2,1.17996414E2,1E-45,1E-45,1.9083325E2,1E-45,1E-45,1E-45,2.9650202E-3,1E-45,9.471727E-3,4.26906E-3,8.198029E1,1.3380582E2,4.9573923E-3,1E-45,9.303497E-3,1.2460226E2,1E-45,2.0357188E2,1E-45,1E-45,6.027434E-3,-4.448832E-1,3.071041E0,-9.759944E-1,-1.3597263E0,-9.2445034E-1,-8.6902566E-2,-2.7245992E-1,-9.885182E-1,-2.0605628E0,-1.4817137E0,-8.331401E-2,4.4591448E-1,-1.1268891E0,-5.2299863E-1,8.243228E-1,-2.795954E-1,1.3838772E0,3.41024E-1,-7.5203043E-1,2.7609093E0,1.0282848E0,-3.217701E-2,4.6694046E-1,1.4305307E0,1.105688E-1,-9.5511305E-1,1.5945143E0,5.9217304E-1,-2.2059345E0,2.6394196E0],"split_indices":[2,0,0,3,1,4,0,0,4,4,0,3,3,3,1,3,1,1,0,0,1,3,1,0,3,0,3,4,1,0,0,0,0,0,0,0,0,0,0,0,0,0,0,0,0,0,0,0,0,0,0,0,0,0,0,0,0,0,0],"split_type":[1,0,0,1,0,1,0,0,1,1,0,1,1,1,0,1,0,0,0,0,0,1,0,0,1,0,1,1,0,0,0,0,0,0,0,0,0,0,0,0,0,0,0,0,0,0,0,0,0,0,0,0,0,0,0,0,0,0,0],"sum_hessian":[6.18E2,2.38E2,3.8E2,2.02E2,3.6E1,3.18E2,6.2E1,1.16E2,8.6E1,1.8E1,1.8E1,6E1,2.58E2,4.6E1,1.6E1,7.2E1,4.4E1,1.4E1,7.2E1,3E0,1.5E1,1.4E1,4E0,2.2E1,3.8E1,1.23E2,1.35E2,4E1,6E0,2E0,1.4E1,4.8E1,2.4E1,3.1E1,1.3E1,2E0,1.2E1,1.1E1,6.1E1,2E0,1E0,8E0,7E0,4E0,1E1,3E0,1E0,2E0,2E1,1.8E1,2E1,9.4E1,2.9E1,1.17E2,1.8E1,3.7E1,3E0,4E0,2E0],"tree_param":{"num_deleted":"0","num_feature":"5","num_nodes":"59","size_leaf_vector":"1"}},{"base_weights":[1.7854159E-1,-9.417764E0,6.1978025E0,-3.5766215E0,-1.1355707E1,4.3820906E0,1.4797303E1,6.1758647E0,-6.0910234E0,-9.156937E0,-1.4423005E1,1.1053561E1,2.7752867E0,1.1655478E1,2.4702478E1,2.5114813E0,1.1536581E1,-8.005614E0,-1.641829E0,-1.0962675E1,-7.3166623E0,-1.2202188E0,-1.6254011E1,2.1891996E1,4.378239E0,6.2396817E0,-4.254286E-1,1.3775088E1,-3.9384634E0,-4.1522422E-1,2.946107E1,6.3443255E-1,-7.268982E-1,1.2800862E0,3.239731E-1,-9.3279403E-1,-6.1345863E-1,-4.0808907E-1,2.0770918E-1,-6.041457E-1,-1.1593943E0,-1.0013831E0,-6.179182E-1,-1.6762856E0,-7.8653336E-1,-7.018952E-1,2.4979656E0,9.308678E-1,-2.9112173E-2,2.1931945E-1,9.701145E-1,9.247594E-2,-8.646291E-1,1.4670262E0,5.3622234E-1,-2.0294597E0,2.4634583E0,4.7514877E0,2.399701E0],"categories":[0,0,2,4,5,7,10,11,12,13,2,5,7,11,0,1,2,4,2,5,0,1,2,5,6,7,8,9,10,12,13,2,4,5,6,7,10,11,12,13,4,1,3,4,5,6,7,8,9,11,12,13,10,0,1],"categories_nodes":[0,1,3,4,5,10,11,12,13,24,26,27],"categories_segments":[0,1,4,10,14,18,20,31,40,41,52,53],"categories_sizes":[1,3,6,4,4,2,11,9,1,11,1,2],"default_left":[1,1,0,1,1,1,0,0,0,0,1,1,1,1,0,0,0,0,0,0,0,0,0,0,1,0,1,1,0,0,0,0,0,0,0,0,0,0,0,0,0,0,0,0,0,0,0,0,0,0,0,0,0,0,0,0,0,0,0],"id":17,"left_children":[1,3,5,7,9,11,13,15,17,19,21,23,25,27,29,31,33,35,37,39,41,-1,43,45,47,49,51,53,55,-1,57,-1,-1,-1,-1,-1,-1,-1,-1,-1,-1,-1,-1,-1,-1,-1,-1,-1,-1,-1,-1,-1,-1,-1,-1,-1,-1,-1,-1],"loss_changes":[3.5813457E4,2.6648184E3,5.884173E3,1.5334392E3,1.0751562E3,3.3567627E3,1.7660225E3,2.2639444E2,4.0425732E2,2.7535645E2,9.850781E1,4.317505E3,2.8413213E3,1.7730132E3,2.1819473E3,3.8349973E2,1.0976318E1,2.6896484E1,1.5360721E2,9.149951E1,1.0992944E2,0E0,2.609082E1,2.2284746E3,9.0056793E2,1.7015557E3,1.4953569E3,2.677588E2,3.771361E3,0E0,1.4219531E2,0E0,0E0,0E0,0E0,0E0,0E0,0E0,0E0,0E0,0E0,0E0,0E0,0E0,0E0,0E0,0E0,0E0,0E0,0E0,0E0,0E0,0E0,0E0,0E0,0E0,0E0,0E0,0E0],"parents":[2147483647,0,0,1,1,2,2,3,3,4,4,5,5,6,6,7,7,8,8,9,9,10,10,11,11,12,12,13,13,14,14,15,15,16,16,17,17,18,18,19,19,20,20,22,22,23,23,24,24,25,25,26,26,27,27,28,28,30,30],"right_children":[2,4,6,8,10,12,14,16,18,20,22,24,26,28,30,32,34,36,38,40,42,-1,44,46,48,50,52,54,56,-1,58,-1,-1,-1,-1,-1,-1,-1,-1,-1,-1,-1,-1,-1,-1,-1,-1,-1,-1,-1,-1,-1,-1,-1,-1,-1,-1,-1,-1],"split_conditions":[1E-45,1E-45,2.3002625E2,1E-45,1E-45,1E-45,2.8448154E2,1.9083325E2,7.666447E-3,1.128958E2,1E-45,1E-45,1E-45,1E-45,2.9650202E-3,1.428943E2,9.303497E-3,1.2838899E2,1.3226624E2,9.1124245E1,5.5754855E-3,-1.2202188E0,1.794883E-2,1.2460226E2,1E-45,1.8144243E2,1E-45,1E-45,6.027434E-3,-4.1522422E-1,3.034412E2,6.3443255E-1,-7.268982E-1,1.2800862E0,3.239731E-1,-9.3279403E-1,-6.1345863E-1,-4.0808907E-1,2.0770918E-1,-6.041457E-1,-1.1593943E0,-1.0013831E0,-6.179182E-1,-1.6762856E0,-7.8653336E-1,-7.018952E-1,2.4979656E0,9.308678E-1,-2.9112173E-2,2.1931945E-1,9.701145E-1,9.247594E-2,-8.646291E-1,1.4670262E0,5.3622234E-1,-2.0294597E0,2.4634583E0,4.7514877E0,2.399701E0],"split_indices":[2,4,0,3,3,4,0,0,1,0,3,3,3,3,1,0,1,0,0,0,1,0,1,0,3,0,3,4,1,0,0,0,0,0,0,0,0,0,0,0,0,0,0,0,0,0,0,0,0,0,0,0,0,0,0,0,0,0,0],"split_type":[1,1,0,1,1,1,0,0,0,0,1,1,1,1,0,0,0,0,0,0,0,0,0,0,1,0,1,1,0,0,0,0,0,0,0,0,0,0,0,0,0,0,0,0,0,0,0,0,0,0,0,0,0,0,0,0,0,0,0],"sum_hessian":[6.18E2,2.38E2,3.8E2,6E1,1.78E2,3.15E2,6.5E1,1.2E1,4.8E1,1.06E2,7.2E1,6E1,2.55E2,5.1E1,1.4E1,8E0,4E0,3.3E1,1.5E1,5.1E1,5.5E1,3.6E1,3.6E1,2.2E1,3.8E1,1.22E2,1.33E2,4.5E1,6E0,2E0,1.2E1,6E0,2E0,3E0,1E0,1.7E1,1.6E1,9E0,6E0,7E0,4.4E1,1.4E1,4.1E1,3.3E1,3E0,2E0,2E1,1.8E1,2E1,5.7E1,6.5E1,1.15E2,1.8E1,4E1,5E0,4E0,2E0,1E0,1.1E1],"tree_param":{"num_deleted":"0","num_feature":"5","num_nodes":"59","size_leaf_vector":"1"}},{"base_weights":[1.687453E-1,-8.506533E0,5.610275E0,-3.2228086E0,-1.0259609E1,4.7459693E0,2.097369E1,5.674555E0,-5.517562E0,-8.272857E0,-1.3031156E1,7.103894E0,8.2161164E-1,-3.8754272E-1,2.3950005E1,3.134903E0,1.3095093E0,-6.9299564E0,-5.851822E-1,-9.900322E0,-6.6139097E0,-1.8021654E0,-1.2139684E0,9.050361E0,1.6904953E0,1.3439926E0,-2.2959402E0,1.3209046E0,2.7065063E1,-3.0688134E-1,5.844898E-1,-7.696562E-1,-4.0138063E-1,2.097508E-1,-3.6174572E-1,-8.332426E-1,-1.2184961E0,-9.079202E-1,-5.5759746E-1,1.98591E0,7.9241675E-1,-3.8343164E-1,5.633679E-1,3.5879016E-1,-4.6963045E-1,4.513913E0,2.1797297E0],"categories":[0,0,2,4,5,7,10,11,12,13,2,5,7,11,2,4,5,8,10,12,13,0,1,13,4],"categories_nodes":[0,1,3,4,5,11,19,25],"categories_segments":[0,1,4,10,14,21,23,24],"categories_sizes":[1,3,6,4,7,2,1,1],"default_left":[1,1,0,1,1,1,0,0,0,0,0,1,0,0,0,0,0,0,0,1,0,0,0,0,0,1,0,0,0,0,0,0,0,0,0,0,0,0,0,0,0,0,0,0,0,0,0],"id":18,"left_children":[1,3,5,7,9,11,13,15,17,19,21,23,25,-1,27,29,-1,31,33,35,37,-1,-1,39,41,43,-1,-1,45,-1,-1,-1,-1,-1,-1,-1,-1,-1,-1,-1,-1,-1,-1,-1,-1,-1,-1],"loss_changes":[2.926872E4,2.1807383E3,4.9596387E3,1.2767622E3,8.7783594E2,3.343872E3,1.5719922E3,2.0394073E2,3.373015E2,2.2340723E2,1.0599121E2,2.3660635E3,1.7327738E3,0E0,2.4475293E2,2.0286935E2,0E0,5.405786E1,1.052035E2,8.4737305E1,9.266821E1,0E0,0E0,1.8633066E3,1.3505076E3,1.8466232E3,0E0,0E0,2.5381934E2,0E0,0E0,0E0,0E0,0E0,0E0,0E0,0E0,0E0,0E0,0E0,0E0,0E0,0E0,0E0,0E0,0E0,0E0],"parents":[2147483647,0,0,1,1,2,2,3,3,4,4,5,5,6,6,7,7,8,8,9,9,10,10,11,11,12,12,14,14,15,15,17,17,18,18,19,19,20,20,23,23,24,24,25,25,28,28],"right_children":[2,4,6,8,10,12,14,16,18,20,22,24,26,-1,28,30,-1,32,34,36,38,-1,-1,40,42,44,-1,-1,46,-1,-1,-1,-1,-1,-1,-1,-1,-1,-1,-1,-1,-1,-1,-1,-1,-1,-1],"split_conditions":[1E-45,1E-45,2.562223E2,1E-45,1E-45,1E-45,2.9650202E-3,2.3950616E2,9.471727E-3,1.128958E2,8.085E1,1E-45,2.4800589E2,-3.8754272E-1,2.8448154E2,9.343633E-3,1.3095093E0,5.8812234E-3,1.1384331E-2,1E-45,5.5754855E-3,-1.8021654E0,-1.2139684E0,1.4865126E2,1.8399286E2,1E-45,-2.2959402E0,1.3209046E0,3.034412E2,-3.0688134E-1,5.844898E-1,-7.696562E-1,-4.0138063E-1,2.097508E-1,-3.6174572E-1,-8.332426E-1,-1.2184961E0,-9.079202E-1,-5.5759746E-1,1.98591E0,7.9241675E-1,-3.8343164E-1,5.633679E-1,3.5879016E-1,-4.6963045E-1,4.513913E0,2.1797297E0],"split_indices":[2,4,0,3,3,3,1,0,1,0,0,4,0,0,0,1,0,1,1,3,1,0,0,0,0,4,0,0,0,0,0,0,0,0,0,0,0,0,0,0,0,0,0,0,0,0,0],"split_type":[1,1,0,1,1,1,0,0,0,0,0,1,0,0,0,0,0,0,0,1,0,0,0,0,0,1,0,0,0,0,0,0,0,0,0,0,0,0,0,0,0,0,0,0,0,0,0],"sum_hessian":[6.18E2,2.38E2,3.8E2,6E1,1.78E2,3.61E2,1.9E1,1.2E1,4.8E1,1.06E2,7.2E1,2.25E2,1.36E2,2E0,1.7E1,1E1,2E0,3.7E1,1.1E1,5.1E1,5.5E1,8E0,6.4E1,1.65E2,6E1,1.34E2,2E0,5E0,1.2E1,3E0,7E0,2.8E1,9E0,6E0,5E0,3.3E1,1.8E1,1.4E1,4.1E1,1.4E1,1.51E2,2.5E1,3.5E1,9.8E1,3.6E1,1E0,1.1E1],"tree_param":{"num_deleted":"0","num_feature":"5","num_nodes":"47","size_leaf_vector":"1"}},{"base_weights":[1.5495405E-1,-7.6821113E0,5.0707116E0,-8.860206E0,-1.010886E0,3.490503E0,1.2559731E1,-7.1229186E0,-1.1094717E1,-8.8039124E-1,1.4424975E0,9.252001E0,2.1040113E0,9.931507E0,2.0833588E1,-3.5674279E0,-7.819232E0,-1.5675254E0,-1.0225491E1,-3.5158446E-1,1.0124408E1,6.8510423E0,3.477253E1,5.077834E0,-6.413933E-1,1.168826E1,-3.0316556E0,-3.6170655E-1,2.4873463E1,-5.631212E-1,1.364599E-1,-9.098491E-1,-6.3803965E-1,-7.071809E-1,-1.0823551E0,1.654326E-1,-8.706091E-1,1.126276E0,2.7854997E-1,9.1078407E-1,-1.3849716E0,4.1087317E0,4.7566912E-1,1.4446712E-1,8.193677E-1,-1.9734459E-1,7.524896E-1,1.2463039E0,4.4458947E-1,-1.7896168E0,2.2753084E0,4.288217E0,1.9799223E0],"categories":[0,2,5,7,11,0,1,2,4,0,2,4,2,4,5,6,7,10,11,12,13,4,0,2,4,2,11,0,1,2,4,5,6,7,8,9,10,11,12,13,0,1],"categories_nodes":[0,3,5,7,12,13,18,19,22,25],"categories_segments":[0,1,5,9,12,21,22,25,27,40],"categories_sizes":[1,4,4,3,9,1,3,2,13,2],"default_left":[1,0,0,1,0,1,0,1,0,0,0,0,1,1,0,0,0,0,1,1,0,0,1,0,0,1,0,0,0,0,0,0,0,0,0,0,0,0,0,0,0,0,0,0,0,0,0,0,0,0,0,0,0],"id":19,"left_children":[1,3,5,7,9,11,13,15,17,-1,19,21,23,25,27,29,31,-1,33,35,37,39,41,43,45,47,49,-1,51,-1,-1,-1,-1,-1,-1,-1,-1,-1,-1,-1,-1,-1,-1,-1,-1,-1,-1,-1,-1,-1,-1,-1,-1],"loss_changes":[2.3885998E4,1.8694248E3,4.464996E3,7.090156E2,7.2011304E2,2.5048267E3,1.2282959E3,2.617661E2,1.8610449E2,0E0,4.552653E2,3.4994702E3,2.0933298E3,1.2196348E3,1.5716323E3,2.2143573E2,1.2049072E2,0E0,6.680078E1,4.3336252E2,1.0398926E1,2.7890347E3,7.522788E2,1.3805676E3,1.4724921E3,2.0270703E2,3.0901357E3,0E0,3.389126E2,0E0,0E0,0E0,0E0,0E0,0E0,0E0,0E0,0E0,0E0,0E0,0E0,0E0,0E0,0E0,0E0,0E0,0E0,0E0,0E0,0E0,0E0,0E0,0E0],"parents":[2147483647,0,0,1,1,2,2,3,3,4,4,5,5,6,6,7,7,8,8,10,10,11,11,12,12,13,13,14,14,15,15,16,16,18,18,19,19,20,20,21,21,22,22,23,23,24,24,25,25,26,26,28,28],"right_children":[2,4,6,8,10,12,14,16,18,-1,20,22,24,26,28,30,32,-1,34,36,38,40,42,44,46,48,50,-1,52,-1,-1,-1,-1,-1,-1,-1,-1,-1,-1,-1,-1,-1,-1,-1,-1,-1,-1,-1,-1,-1,-1,-1,-1],"split_conditions":[1E-45,1.3292139E2,2.3002625E2,1E-45,4.9573923E-3,1E-45,2.8448154E2,1E-45,8.198029E1,-8.8039124E-1,1.9083325E2,2.8789414E-2,1E-45,1E-45,2.9650202E-3,9.471727E-3,8.055627E-3,-1.5675254E0,1E-45,1E-45,9.303497E-3,2.2365564E-2,1E-45,1.8144243E2,3.1284977E-2,1E-45,6.027434E-3,-3.6170655E-1,3.034412E2,-5.631212E-1,1.364599E-1,-9.098491E-1,-6.3803965E-1,-7.071809E-1,-1.0823551E0,1.654326E-1,-8.706091E-1,1.126276E0,2.7854997E-1,9.1078407E-1,-1.3849716E0,4.1087317E0,4.7566912E-1,1.4446712E-1,8.193677E-1,-1.9734459E-1,7.524896E-1,1.2463039E0,4.4458947E-1,-1.7896168E0,2.2753084E0,4.288217E0,1.9799223E0],"split_indices":[2,0,0,3,1,4,0,4,0,0,0,1,3,3,1,1,1,0,4,3,1,1,3,0,1,4,1,0,0,0,0,0,0,0,0,0,0,0,0,0,0,0,0,0,0,0,0,0,0,0,0,0,0],"split_type":[1,0,0,1,0,1,0,1,0,0,0,0,1,1,0,0,0,0,1,1,0,0,1,0,0,1,0,0,0,0,0,0,0,0,0,0,0,0,0,0,0,0,0,0,0,0,0,0,0,0,0,0,0],"sum_hessian":[6.18E2,2.38E2,3.8E2,2.02E2,3.6E1,3.15E2,6.5E1,1.16E2,8.6E1,8E0,2.8E1,6E1,2.55E2,5.1E1,1.4E1,2E1,9.6E1,1.1E1,7.5E1,2.4E1,4E0,5.6E1,4E0,1.22E2,1.33E2,4.5E1,6E0,2E0,1.2E1,1.4E1,6E0,4.8E1,4.8E1,1.4E1,6.1E1,2E1,4E0,3E0,1E0,5.1E1,5E0,3E0,1E0,5.7E1,6.5E1,1.15E2,1.8E1,4E1,5E0,4E0,2E0,1E0,1.1E1],"tree_param":{"num_deleted":"0","num_feature":"5","num_nodes":"53","size_leaf_vector":"1"}},{"base_weights":[1.5270476E-1,-6.9369645E0,4.5996294E0,-8.000449E0,-9.1468585E-1,3.1592658E0,1.1426225E1,-6.765243E0,-1.0637967E1,-2.4487278E0,9.392929E0,2.0972667E0,9.676686E0,8.98021E0,1.9143993E1,-7.8929715E0,-4.6203694E0,-9.987263E0,-1.7739044E0,-8.0213463E-1,-3.4463623E-1,1.0418049E0,2.646225E-1,-1.7808703E0,4.1437793E0,3.221216E1,6.6178355E0,1.055619E1,-2.6591098E0,-3.3759257E-1,2.2868282E1,-6.519163E-1,-9.2749166E-1,-6.1886406E-1,-3.3605848E-3,-3.2857984E-1,-1.0671022E0,5.4932135E-1,-2.9200897E-1,1.919115E-1,-6.113106E-1,1.0686064E0,2.7012327E-1,3.800577E0,4.51886E-1,-2.0913087E-1,1.5431546E0,1.124713E0,4.075399E-1,-1.6464478E0,2.1236207E0,4.0738063E0,1.7984297E0],"categories":[0,2,5,11,0,1,2,4,4,7,13,0,2,4,2,5,10,11,12,1,4,10,0,2,4,5,6,7,8,9,11,12,13,0,1,2,4,5,6,7,8,9,10,11,12,13,0,1],"categories_nodes":[0,3,12,13,15,17,20,23,24,25,27],"categories_segments":[0,1,4,8,9,11,14,19,22,33,46],"categories_sizes":[1,3,4,1,2,3,5,3,11,13,2],"default_left":[1,0,0,1,0,0,0,0,0,0,0,0,1,1,0,1,0,1,0,0,1,0,0,1,1,1,0,1,0,0,0,0,0,0,0,0,0,0,0,0,0,0,0,0,0,0,0,0,0,0,0,0,0],"id":20,"left_children":[1,3,5,7,9,11,13,15,17,19,21,23,25,27,29,31,33,35,-1,-1,37,-1,-1,39,41,43,45,47,49,-1,51,-1,-1,-1,-1,-1,-1,-1,-1,-1,-1,-1,-1,-1,-1,-1,-1,-1,-1,-1,-1,-1,-1],"loss_changes":[1.9547262E4,1.5233818E3,3.71019E3,5.8938086E2,6.080564E2,2.1668984E3,1.0740166E3,3.045869E2,1.1394043E2,3.8417044E2,7.01239E0,2.1740864E3,2.8198613E3,9.8192285E2,1.3352617E3,1.1230176E2,3.666499E2,2.3986816E2,0E0,0E0,3.9191846E2,0E0,0E0,1.5345063E3,1.660456E3,6.30478E2,3.1026672E3,1.6014404E2,2.6588284E3,0E0,4.0193896E2,0E0,0E0,0E0,0E0,0E0,0E0,0E0,0E0,0E0,0E0,0E0,0E0,0E0,0E0,0E0,0E0,0E0,0E0,0E0,0E0,0E0,0E0],"parents":[2147483647,0,0,1,1,2,2,3,3,4,4,5,5,6,6,7,7,8,8,9,9,10,10,11,11,12,12,13,13,14,14,15,15,16,16,17,17,20,20,23,23,24,24,25,25,26,26,27,27,28,28,30,30],"right_children":[2,4,6,8,10,12,14,16,18,20,22,24,26,28,30,32,34,36,-1,-1,38,-1,-1,40,42,44,46,48,50,-1,52,-1,-1,-1,-1,-1,-1,-1,-1,-1,-1,-1,-1,-1,-1,-1,-1,-1,-1,-1,-1,-1,-1],"split_conditions":[1E-45,1.3292139E2,2.3002625E2,1E-45,1.9083325E2,3.379395E-2,2.8448154E2,1.17996414E2,1.2316959E2,4.9573923E-3,9.303497E-3,1.804832E2,1E-45,1E-45,2.9650202E-3,1E-45,9.471727E-3,1E-45,-1.7739044E0,-8.0213463E-1,1E-45,1.0418049E0,2.646225E-1,1E-45,1E-45,1E-45,1.6532812E2,1E-45,6.027434E-3,-3.3759257E-1,3.034412E2,-6.519163E-1,-9.2749166E-1,-6.1886406E-1,-3.3605848E-3,-3.2857984E-1,-1.0671022E0,5.4932135E-1,-2.9200897E-1,1.919115E-1,-6.113106E-1,1.0686064E0,2.7012327E-1,3.800577E0,4.51886E-1,-2.0913087E-1,1.5431546E0,1.124713E0,4.075399E-1,-1.6464478E0,2.1236207E0,4.0738063E0,1.7984297E0],"split_indices":[2,0,0,3,0,1,0,0,0,1,1,0,4,3,1,3,1,4,0,0,3,0,0,3,3,3,0,4,1,0,0,0,0,0,0,0,0,0,0,0,0,0,0,0,0,0,0,0,0,0,0,0,0],"split_type":[1,0,0,1,0,0,0,0,0,0,0,0,1,1,0,1,0,1,0,0,1,0,0,1,1,1,0,1,0,0,0,0,0,0,0,0,0,0,0,0,0,0,0,0,0,0,0,0,0,0,0,0,0],"sum_hessian":[6.18E2,2.38E2,3.8E2,2.02E2,3.6E1,3.15E2,6.5E1,1.4E2,6.2E1,3.2E1,4E0,2.72E2,4.3E1,5.1E1,1.4E1,9E1,5E1,5.9E1,3E0,8E0,2.4E1,3E0,1E0,9.4E1,1.78E2,4E0,3.9E1,4.5E1,6E0,2E0,1.2E1,4.8E1,4.2E1,3.7E1,1.3E1,6E0,5.3E1,7E0,1.7E1,5.1E1,4.3E1,3.1E1,1.47E2,3E0,1E0,2E1,1.9E1,4E1,5E0,4E0,2E0,1E0,1.1E1],"tree_param":{"num_deleted":"0","num_feature":"5","num_nodes":"53","size_leaf_vector":"1"}},{"base_weights":[1.5268514E-1,-6.2625556E0,4.176543E0,-2.224662E0,-7.603611E0,9.274522E0,2.5215652E0,4.670281E0,-4.0085316E0,-6.637464E0,-1.1132136E1,1.3571742E1,2.4038181E0,-1.2280127E0,4.7001624E0,2.5803251E0,1.0776693E0,-5.1035657E0,-2.068793E-1,-7.3529296E0,-4.6781864E0,-1.1555222E1,-4.7528705E-1,1.1780794E1,2.984144E1,-1.3151499E0,8.607491E0,2.501902E0,-7.0600686E0,1.00665455E1,2.8773086E0,-7.7620804E-2,6.7634064E-1,-4.3384305E-1,-7.872246E-1,2.0819071E-1,-2.84265E-1,-5.9563214E-1,-8.4634906E-1,-4.5917857E-2,-6.0243446E-1,-8.211196E-1,-1.3006E0,1.4616528E0,-1.2868536E0,3.5155342E0,4.2929155E-1,2.4244435E-1,-2.4268559E-1,9.0065E-1,1.7101823E-1,6.390764E-1,5.4508295E-2,-7.8067636E-1,1.9852257E-1,8.915539E-2,1.1690478E0,1.781197E-1,9.648682E-1],"categories":[0,0,2,4,0,1,2,4,5,7,10,11,12,13,2,5,0,1,2,5,8,9,12,13,1,4,10,0,2,4,5,6,8,9,10,11,12,13,11,7,11,13,0,2,0,1,2,4,5,6,7,8,9,10,11,12,13,1,8,9,0,1,3,4],"categories_nodes":[0,1,2,3,4,5,13,14,17,19,21,24,25,27],"categories_segments":[0,1,4,8,14,16,24,27,38,39,42,44,57,60],"categories_sizes":[1,3,4,6,2,8,3,11,1,3,2,13,3,4],"default_left":[1,1,1,1,1,1,0,0,0,0,0,0,0,1,1,0,0,1,0,1,0,1,0,0,1,1,0,1,0,0,0,0,0,0,0,0,0,0,0,0,0,0,0,0,0,0,0,0,0,0,0,0,0,0,0,0,0,0,0],"id":21,"left_children":[1,3,5,7,9,11,13,15,17,19,21,23,25,27,29,31,-1,33,35,37,39,41,-1,43,45,47,49,51,53,55,57,-1,-1,-1,-1,-1,-1,-1,-1,-1,-1,-1,-1,-1,-1,-1,-1,-1,-1,-1,-1,-1,-1,-1,-1,-1,-1,-1,-1],"loss_changes":[1.6005032E4,1.2772783E3,3.191128E3,7.690013E2,5.3633594E2,2.7131938E3,2.3665605E3,1.3810037E2,2.0292822E2,1.6605762E2,4.4941406E1,1.3093203E3,8.649567E2,2.3452422E3,1.7611655E3,1.5969699E2,0E0,4.6346497E1,7.831073E1,1.0934424E2,2.3009131E2,5.8154297E1,0E0,3.8927363E3,5.2789307E2,1.0565964E2,2.3126587E1,4.987632E2,2.9916943E2,6.749575E2,1.0070748E3,0E0,0E0,0E0,0E0,0E0,0E0,0E0,0E0,0E0,0E0,0E0,0E0,0E0,0E0,0E0,0E0,0E0,0E0,0E0,0E0,0E0,0E0,0E0,0E0,0E0,0E0,0E0,0E0],"parents":[2147483647,0,0,1,1,2,2,3,3,4,4,5,5,6,6,7,7,8,8,9,9,10,10,11,11,12,12,13,13,14,14,15,15,17,17,18,18,19,19,20,20,21,21,23,23,24,24,25,25,26,26,27,27,28,28,29,29,30,30],"right_children":[2,4,6,8,10,12,14,16,18,20,22,24,26,28,30,32,-1,34,36,38,40,42,-1,44,46,48,50,52,54,56,58,-1,-1,-1,-1,-1,-1,-1,-1,-1,-1,-1,-1,-1,-1,-1,-1,-1,-1,-1,-1,-1,-1,-1,-1,-1,-1,-1,-1],"split_conditions":[1E-45,1E-45,1E-45,1E-45,1E-45,1E-45,1.804832E2,2.3950616E2,9.471727E-3,1.2116941E2,1.794883E-2,2.8789414E-2,2.0703206E2,1E-45,1E-45,1.33676175E-2,1.0776693E0,1E-45,1.1384331E-2,1E-45,1.284555E2,1E-45,-4.7528705E-1,2.2365564E-2,1E-45,1E-45,2.3332558E2,1E-45,3.2775722E-2,1.8399286E2,2.9174488E-2,-7.7620804E-2,6.7634064E-1,-4.3384305E-1,-7.872246E-1,2.0819071E-1,-2.84265E-1,-5.9563214E-1,-8.4634906E-1,-4.5917857E-2,-6.0243446E-1,-8.211196E-1,-1.3006E0,1.4616528E0,-1.2868536E0,3.5155342E0,4.2929155E-1,2.4244435E-1,-2.4268559E-1,9.0065E-1,1.7101823E-1,6.390764E-1,5.4508295E-2,-7.8067636E-1,1.9852257E-1,8.915539E-2,1.1690478E0,1.781197E-1,9.648682E-1],"split_indices":[2,4,4,3,3,3,0,0,1,0,1,1,0,3,3,1,0,3,1,3,0,4,0,1,3,3,0,4,1,0,1,0,0,0,0,0,0,0,0,0,0,0,0,0,0,0,0,0,0,0,0,0,0,0,0,0,0,0,0],"split_type":[1,1,1,1,1,1,0,0,0,0,0,0,0,1,1,0,0,1,0,1,0,1,0,0,1,1,0,1,0,0,0,0,0,0,0,0,0,0,0,0,0,0,0,0,0,0,0,0,0,0,0,0,0,0,0,0,0,0,0],"sum_hessian":[6.18E2,2.38E2,3.8E2,6E1,1.78E2,9.2E1,2.88E2,1.2E1,4.8E1,1.42E2,3.6E1,5.6E1,3.6E1,1.06E2,1.82E2,1E1,2E0,3.7E1,1.1E1,1.02E2,4E1,3.3E1,3E0,5.2E1,4E0,2.3E1,1.3E1,6.5E1,4.1E1,4.5E1,1.37E2,6E0,4E0,3.1E1,6E0,6E0,5E0,4.8E1,5.4E1,1E1,3E1,1.2E1,2.1E1,4.7E1,5E0,3E0,1E0,5E0,1.8E1,1.2E1,1E0,2.1E1,4.4E1,3.8E1,3E0,7E0,3.8E1,1.19E2,1.8E1],"tree_param":{"num_deleted":"0","num_feature":"5","num_nodes":"59","size_leaf_vector":"1"}},{"base_weights":[1.4290237E-1,-5.6543255E0,3.7791088E0,-6.5502152E0,-5.862202E-1,8.402889E0,2.2781026E0,-5.756528E0,-9.545844E0,-5.4633617E0,1.9733423E0,1.3691546E1,3.7790635E0,4.3286524E0,-1.1478386E0,-3.663271E0,-6.201148E0,-6.7632093E0,-1.1056202E1,-6.8796794E-3,-6.4379377E0,5.416931E0,-1.1192583E0,5.061371E-1,1.7166916E1,7.3530823E-1,8.092271E0,6.11612E0,7.1205866E-1,-5.6935296E0,1.07909E0,-4.8924127E-1,1.24984525E-1,-6.631634E-1,-4.5707852E-1,-7.453238E-1,-3.6164933E-1,-1.1960238E0,-5.048012E-1,9.261322E-3,-7.100254E-1,9.773499E-1,2.0169602E-1,-5.627706E-1,1.0112508E-2,-1.4542682E0,1.2962464E0,7.1958524E-1,2.2278593E0,1.2168274E0,-4.727678E-2,8.731597E-1,4.300107E-1,4.4296584E-1,9.2987365E-1,5.668385E-1,-2.6560554E-1,-1.6126029E-1,-1.3721E0,-1.3070469E-1,1.0551698E0],"categories":[0,0,1,2,4,2,5,0,1,2,5,6,8,9,10,12,13,2,4,5,10,11,12,13,0,2,4,0,2,0,1,3,5,6,7,8,9,10,11,12,0,1,3,11,12,13,2,3,4,5,6,7,8,10,11,12,13],"categories_nodes":[0,2,3,5,6,7,8,10,13,20,28],"categories_segments":[0,1,5,7,17,24,27,29,40,43,46],"categories_sizes":[1,4,2,10,7,3,2,11,3,3,11],"default_left":[1,0,1,1,0,1,1,1,1,0,1,0,0,1,0,0,0,0,0,0,1,0,0,0,0,0,0,0,1,0,0,0,0,0,0,0,0,0,0,0,0,0,0,0,0,0,0,0,0,0,0,0,0,0,0,0,0,0,0,0,0],"id":22,"left_children":[1,3,5,7,9,11,13,15,17,19,21,23,25,27,29,31,33,35,37,-1,39,41,43,45,47,49,51,53,55,57,59,-1,-1,-1,-1,-1,-1,-1,-1,-1,-1,-1,-1,-1,-1,-1,-1,-1,-1,-1,-1,-1,-1,-1,-1,-1,-1,-1,-1,-1,-1],"loss_changes":[1.3069837E4,1.081331E3,2.62512E3,4.277002E2,4.7266498E2,2.2224653E3,2.0352117E3,1.2898877E2,9.753833E1,6.790344E1,2.7230408E2,1.961749E3,6.635954E2,1.1657275E3,1.1095432E3,1.9332117E2,6.303369E1,9.957947E0,7.541528E1,0E0,4.823578E1,1.5803366E2,7.7597595E1,2.063039E3,1.5726279E3,4.3392145E2,1.3366211E1,6.0826025E2,1.0333573E3,1.1572163E3,1.6864089E3,0E0,0E0,0E0,0E0,0E0,0E0,0E0,0E0,0E0,0E0,0E0,0E0,0E0,0E0,0E0,0E0,0E0,0E0,0E0,0E0,0E0,0E0,0E0,0E0,0E0,0E0,0E0,0E0,0E0,0E0],"parents":[2147483647,0,0,1,1,2,2,3,3,4,4,5,5,6,6,7,7,8,8,9,9,10,10,11,11,12,12,13,13,14,14,15,15,16,16,17,17,18,18,20,20,21,21,22,22,23,23,24,24,25,25,26,26,27,27,28,28,29,29,30,30],"right_children":[2,4,6,8,10,12,14,16,18,20,22,24,26,28,30,32,34,36,38,-1,40,42,44,46,48,50,52,54,56,58,60,-1,-1,-1,-1,-1,-1,-1,-1,-1,-1,-1,-1,-1,-1,-1,-1,-1,-1,-1,-1,-1,-1,-1,-1,-1,-1,-1,-1,-1,-1],"split_conditions":[1E-45,1.3292139E2,1E-45,1E-45,5.6988676E-3,1E-45,1E-45,1E-45,1E-45,1.3380582E2,1E-45,4.6862066E-3,2.0703206E2,1E-45,1.7771686E2,9.471727E-3,1.2116941E2,8.621553E1,1.615391E-2,-6.8796794E-3,1E-45,8.406111E-3,1.428943E2,3.034412E2,1.694168E2,1.3340666E2,7.228061E-3,2.1298854E2,1E-45,1.5246698E2,1.9464636E-2,-4.8924127E-1,1.24984525E-1,-6.631634E-1,-4.5707852E-1,-7.453238E-1,-3.6164933E-1,-1.1960238E0,-5.048012E-1,9.261322E-3,-7.100254E-1,9.773499E-1,2.0169602E-1,-5.627706E-1,1.0112508E-2,-1.4542682E0,1.2962464E0,7.1958524E-1,2.2278593E0,1.2168274E0,-4.727678E-2,8.731597E-1,4.300107E-1,4.4296584E-1,9.2987365E-1,5.668385E-1,-2.6560554E-1,-1.6126029E-1,-1.3721E0,-1.3070469E-1,1.0551698E0],"split_indices":[2,0,4,3,1,3,3,4,4,0,3,1,0,4,0,1,0,0,1,0,3,1,0,0,0,0,1,0,3,0,1,0,0,0,0,0,0,0,0,0,0,0,0,0,0,0,0,0,0,0,0,0,0,0,0,0,0,0,0,0,0],"split_type":[1,0,1,1,0,1,1,1,1,0,1,0,0,1,0,0,0,0,0,0,1,0,0,0,0,0,0,0,1,0,0,0,0,0,0,0,0,0,0,0,0,0,0,0,0,0,0,0,0,0,0,0,0,0,0,0,0,0,0,0,0],"sum_hessian":[6.18E2,2.38E2,3.8E2,2.02E2,3.6E1,9.2E1,2.88E2,1.62E2,4E1,1.2E1,2.4E1,4.2E1,5E1,1.8E2,1.08E2,3E1,1.32E2,1.6E1,2.4E1,2E0,1E1,1.1E1,1.3E1,9E0,3.3E1,3E1,2E1,1.2E2,6E1,3.5E1,7.3E1,2.4E1,6E0,1.02E2,3E1,1.2E1,4E0,2E1,4E0,1E0,9E0,4E0,7E0,2E0,1.1E1,4E0,5E0,1.2E1,2.1E1,2E0,2.8E1,1.6E1,4E0,8E1,4E1,2.4E1,3.6E1,2.4E1,1.1E1,5.9E1,1.4E1],"tree_param":{"num_deleted":"0","num_feature":"5","num_nodes":"61","size_leaf_vector":"1"}},{"base_weights":[1.317692E-1,-5.1071935E0,3.4178069E0,-5.916339E0,-5.2979565E-1,2.8384984E0,1.3732401E1,-5.1899834E0,-8.659744E0,-1.7823895E0,7.8432834E-1,4.262462E0,-3.3698416E-1,-3.1557924E-1,1.5784189E1,-5.9674773E0,-4.124436E0,-6.1520047E0,-1.0018617E1,-6.2166387E-1,-1.1476441E-1,7.6609206E0,3.2419746E0,-5.734084E0,1.5083438E0,2.1531189E1,1.1116424E0,-7.165333E-1,-4.991851E-1,-2.166748E-2,-5.1489925E-1,-6.765247E-1,-3.3271745E-1,-1.082117E0,-4.6441728E-1,1.6183174E-1,-7.370755E-1,2.5783014E0,5.023361E-1,9.392119E-2,4.7494408E-1,-1.3576914E-1,-1.5308546E0,-1.1646894E-1,7.293552E-1,3.6856415E0,1.2834249E0],"categories":[0,2,5,4,5,8,10,12,13,0,2,0,1,2,4,0,1,2,3,5,6,7,8,9,10,11,12,13,2,11],"categories_nodes":[0,3,5,8,11,14,20],"categories_segments":[0,1,3,9,11,15,28],"categories_sizes":[1,2,6,2,4,13,2],"default_left":[1,0,0,1,0,1,0,0,1,0,0,1,0,0,1,0,0,0,0,0,1,0,0,0,0,0,0,0,0,0,0,0,0,0,0,0,0,0,0,0,0,0,0,0,0,0,0],"id":23,"left_children":[1,3,5,7,9,11,13,15,17,19,-1,21,23,-1,25,27,29,31,33,-1,35,37,39,41,43,45,-1,-1,-1,-1,-1,-1,-1,-1,-1,-1,-1,-1,-1,-1,-1,-1,-1,-1,-1,-1,-1],"loss_changes":[1.0673805E4,8.8206885E2,2.237623E3,3.5957178E2,4.0203827E2,1.6383179E3,7.428313E2,1.1042627E2,7.8081055E1,2.4331052E2,0E0,8.4218506E2,1.1340634E3,0E0,2.4351172E2,7.174829E1,2.8715247E2,6.9400024E0,5.757666E1,0E0,3.2630884E2,2.5949753E3,6.689783E2,1.1943624E3,1.3229393E3,4.5995337E2,0E0,0E0,0E0,0E0,0E0,0E0,0E0,0E0,0E0,0E0,0E0,0E0,0E0,0E0,0E0,0E0,0E0,0E0,0E0,0E0,0E0],"parents":[2147483647,0,0,1,1,2,2,3,3,4,4,5,5,6,6,7,7,8,8,9,9,11,11,12,12,14,14,15,15,16,16,17,17,18,18,20,20,21,21,22,22,23,23,24,24,25,25],"right_children":[2,4,6,8,10,12,14,16,18,20,-1,22,24,-1,26,28,30,32,34,-1,36,38,40,42,44,46,-1,-1,-1,-1,-1,-1,-1,-1,-1,-1,-1,-1,-1,-1,-1,-1,-1,-1,-1,-1,-1],"split_conditions":[1E-45,1.3292139E2,2.562223E2,1E-45,1.9083325E2,1E-45,2.9650202E-3,8.055627E-3,1E-45,4.9573923E-3,7.8432834E-1,1E-45,6.7364625E-3,-3.1557924E-1,1E-45,1.02637726E2,1.1384331E-2,8.621553E1,1.615391E-2,-6.2166387E-1,1E-45,1.4865126E2,1.8144243E2,1.9222716E2,1.9145538E2,3.034412E2,1.1116424E0,-7.165333E-1,-4.991851E-1,-2.166748E-2,-5.1489925E-1,-6.765247E-1,-3.3271745E-1,-1.082117E0,-4.6441728E-1,1.6183174E-1,-7.370755E-1,2.5783014E0,5.023361E-1,9.392119E-2,4.7494408E-1,-1.3576914E-1,-1.5308546E0,-1.1646894E-1,7.293552E-1,3.6856415E0,1.2834249E0],"split_indices":[2,0,0,3,0,3,1,1,4,1,0,4,1,0,3,0,1,0,1,0,3,0,0,0,0,0,0,0,0,0,0,0,0,0,0,0,0,0,0,0,0,0,0,0,0,0,0],"split_type":[1,0,0,1,0,1,0,0,1,0,0,1,0,0,1,0,0,0,0,0,1,0,0,0,0,0,0,0,0,0,0,0,0,0,0,0,0,0,0,0,0,0,0,0,0,0,0],"sum_hessian":[6.18E2,2.38E2,3.8E2,2.02E2,3.6E1,3.61E2,1.9E1,1.62E2,4E1,3.2E1,4E0,2.49E2,1.12E2,2E0,1.7E1,9.1E1,7.1E1,1.6E1,2.4E1,8E0,2.4E1,5.6E1,1.93E2,2.8E1,8.4E1,6E0,1.1E1,3.8E1,5.3E1,1.5E1,5.6E1,1.2E1,4E0,2E1,4E0,2E1,4E0,6E0,5E1,7.7E1,1.16E2,2E1,8E0,5.8E1,2.6E1,1E0,5E0],"tree_param":{"num_deleted":"0","num_feature":"5","num_nodes":"47","size_leaf_vector":"1"}},{"base_weights":[1.2447348E-1,-4.6162267E0,3.097972E0,-1.5499141E0,-5.635382E0,7.0948186E0,1.8010697E0,3.9979353E0,-2.9901617E0,-4.9086576E0,-8.291768E0,1.0553717E1,1.5744938E0,3.559837E0,-1.135976E0,2.3019812E0,8.883789E-1,-4.0354466E0,-5.8204556E-1,-5.43272E0,-3.4723864E0,-7.672975E0,-1.5284153E0,8.949519E0,2.544746E1,-1.4650421E0,6.672663E0,5.136385E0,3.7422806E-1,8.806922E-1,-5.0841055E0,-2.7199632E-1,4.5252058E-1,-3.319664E-1,-6.322086E-1,-2.3207307E-1,1.9849396E-1,-3.743473E-1,-6.1413455E-1,4.1704904E-2,-4.7404963E-1,-1.0896742E0,-6.3627297E-1,1.1554087E0,-1.3378612E0,3.004528E0,3.5280916E-1,1.8431854E-1,-2.4326383E-1,1.1623322E0,4.878943E-1,7.2400445E-1,2.9485235E-1,4.1236964E-1,-3.387312E-1,-9.752723E-2,9.521703E-1,-1.3333784E-1,-1.1905959E0],"categories":[0,0,2,4,0,1,2,4,5,7,10,11,12,13,2,5,0,1,2,5,8,9,12,13,2,4,5,10,11,12,13,0,1,3,4,11,7,10,11,13,0,1,2,4,5,6,7,8,9,10,11,12,13,1,8,9,0,1,2,4,5,8,9,10,11,12,13,3,6,7],"categories_nodes":[0,1,2,3,4,5,6,13,14,17,19,24,25,27,28],"categories_segments":[0,1,4,8,14,16,24,31,34,35,36,40,53,56,67],"categories_sizes":[1,3,4,6,2,8,7,3,1,1,4,13,3,11,3],"default_left":[1,1,1,1,1,1,1,0,0,0,0,0,0,1,1,0,0,1,0,1,0,0,0,0,1,1,0,1,1,0,0,0,0,0,0,0,0,0,0,0,0,0,0,0,0,0,0,0,0,0,0,0,0,0,0,0,0,0,0],"id":24,"left_children":[1,3,5,7,9,11,13,15,17,19,21,23,25,27,29,31,-1,33,35,37,39,41,-1,43,45,47,49,51,53,55,57,-1,-1,-1,-1,-1,-1,-1,-1,-1,-1,-1,-1,-1,-1,-1,-1,-1,-1,-1,-1,-1,-1,-1,-1,-1,-1,-1,-1],"loss_changes":[8.740012E3,7.3815186E2,1.9621423E3,4.9936133E2,3.0485107E2,1.759148E3,1.4968967E3,8.7270096E1,1.209924E2,8.8770996E1,4.2818115E1,1.1341294E3,5.831304E2,9.071079E2,8.723429E2,1.351224E2,0E0,3.4661865E1,7.6017365E1,1.00305664E2,2.0419843E2,8.272827E1,0E0,3.2367998E3,3.979038E2,8.130847E1,6.7611755E1,5.3555664E2,8.7429846E2,1.1800171E3,9.308403E2,0E0,0E0,0E0,0E0,0E0,0E0,0E0,0E0,0E0,0E0,0E0,0E0,0E0,0E0,0E0,0E0,0E0,0E0,0E0,0E0,0E0,0E0,0E0,0E0,0E0,0E0,0E0,0E0],"parents":[2147483647,0,0,1,1,2,2,3,3,4,4,5,5,6,6,7,7,8,8,9,9,10,10,11,11,12,12,13,13,14,14,15,15,17,17,18,18,19,19,20,20,21,21,23,23,24,24,25,25,26,26,27,27,28,28,29,29,30,30],"right_children":[2,4,6,8,10,12,14,16,18,20,22,24,26,28,30,32,-1,34,36,38,40,42,-1,44,46,48,50,52,54,56,58,-1,-1,-1,-1,-1,-1,-1,-1,-1,-1,-1,-1,-1,-1,-1,-1,-1,-1,-1,-1,-1,-1,-1,-1,-1,-1,-1,-1],"split_conditions":[1E-45,1E-45,1E-45,1E-45,1E-45,1E-45,1E-45,2.3950616E2,7.666447E-3,1.2116941E2,9.5138664E1,2.8789414E-2,2.0703206E2,1E-45,1E-45,9.343633E-3,8.883789E-1,1E-45,1.3226624E2,1E-45,1.284555E2,8.085E1,-1.5284153E0,2.2365564E-2,1E-45,1E-45,2.1425401E2,1E-45,1E-45,3.1284977E-2,2.5564883E-2,-2.7199632E-1,4.5252058E-1,-3.319664E-1,-6.322086E-1,-2.3207307E-1,1.9849396E-1,-3.743473E-1,-6.1413455E-1,4.1704904E-2,-4.7404963E-1,-1.0896742E0,-6.3627297E-1,1.1554087E0,-1.3378612E0,3.004528E0,3.5280916E-1,1.8431854E-1,-2.4326383E-1,1.1623322E0,4.878943E-1,7.2400445E-1,2.9485235E-1,4.1236964E-1,-3.387312E-1,-9.752723E-2,9.521703E-1,-1.3333784E-1,-1.1905959E0],"split_indices":[2,4,4,3,3,3,3,0,1,0,0,1,0,4,4,1,0,3,0,3,0,0,0,1,3,3,0,3,3,1,1,0,0,0,0,0,0,0,0,0,0,0,0,0,0,0,0,0,0,0,0,0,0,0,0,0,0,0,0],"split_type":[1,1,1,1,1,1,1,0,0,0,0,0,0,1,1,0,0,1,0,1,0,0,0,0,1,1,0,1,1,0,0,0,0,0,0,0,0,0,0,0,0,0,0,0,0,0,0,0,0,0,0,0,0,0,0,0,0,0,0],"sum_hessian":[6.18E2,2.38E2,3.8E2,6E1,1.78E2,9.2E1,2.88E2,1.2E1,4.8E1,1.42E2,3.6E1,5.6E1,3.6E1,1.8E2,1.08E2,1E1,2E0,3.3E1,1.5E1,1.02E2,4E1,3.5E1,1E0,5.2E1,4E0,2.3E1,1.3E1,1.2E2,6E1,7.2E1,3.6E1,3E0,7E0,2.7E1,6E0,9E0,6E0,3.2E1,7E1,1E1,3E1,8E0,2.7E1,4.7E1,5E0,3E0,1E0,5E0,1.8E1,2E0,1.1E1,6E1,6E1,3E1,3E1,6E1,1.2E1,2.4E1,1.2E1],"tree_param":{"num_deleted":"0","num_feature":"5","num_nodes":"59","size_leaf_vector":"1"}},{"base_weights":[1.1329699E-1,-4.1738677E0,2.8023233E0,-4.8499026E0,-3.5200232E-1,2.305338E0,1.1657643E1,-4.0412674E0,-6.582723E0,-1.4286635E0,6.8243623E0,4.2035704E0,4.664691E-1,-3.7156782E-1,1.3572216E1,-4.8489733E0,-2.7658944E0,-5.9833326E0,-1.3927901E0,-5.305824E-1,2.4260864E-2,7.613724E-1,1.833458E-1,5.953015E0,-5.2359974E-1,7.812834E-1,-1.8892691E0,1.9097605E1,9.2180556E-1,-5.558968E-1,-3.362017E-1,2.2671537E-1,-3.8849932E-1,-9.928142E-1,-5.185513E-1,1.5573135E-1,-6.4194125E-1,1.5630729E0,5.19029E-1,-4.0819642E-1,3.0557087E-1,-8.908729E-1,1.10352375E-1,3.44359E0,1.0801905E0],"categories":[0,2,5,11,0,2,4,5,8,9,10,12,13,0,0,1,2,3,5,6,7,8,9,10,11,12,13,2,11],"categories_nodes":[0,3,5,11,14,20],"categories_segments":[0,1,4,13,14,27],"categories_sizes":[1,3,9,1,13,2],"default_left":[1,0,0,1,0,1,0,0,0,0,0,1,0,0,1,0,0,0,0,0,1,0,0,0,0,0,0,0,0,0,0,0,0,0,0,0,0,0,0,0,0,0,0,0,0],"id":25,"left_children":[1,3,5,7,9,11,13,15,17,19,21,23,25,-1,27,29,31,33,-1,-1,35,-1,-1,37,39,41,-1,43,-1,-1,-1,-1,-1,-1,-1,-1,-1,-1,-1,-1,-1,-1,-1,-1,-1],"loss_changes":[7.147713E3,6.158008E2,1.6498931E3,2.578452E2,2.956307E2,1.2616368E3,6.390967E2,1.3183594E2,1.9403027E2,1.8602502E2,5.738693E0,1.4751624E3,1.1422502E3,0E0,2.5700903E2,7.104773E1,3.2985916E2,1.3735205E2,0E0,0E0,2.569593E2,0E0,0E0,8.784585E2,6.3656104E2,5.8125085E2,0E0,5.187197E2,0E0,0E0,0E0,0E0,0E0,0E0,0E0,0E0,0E0,0E0,0E0,0E0,0E0,0E0,0E0,0E0,0E0],"parents":[2147483647,0,0,1,1,2,2,3,3,4,4,5,5,6,6,7,7,8,8,9,9,10,10,11,11,12,12,14,14,15,15,16,16,17,17,20,20,23,23,24,24,25,25,27,27],"right_children":[2,4,6,8,10,12,14,16,18,20,22,24,26,-1,28,30,32,34,-1,-1,36,-1,-1,38,40,42,-1,44,-1,-1,-1,-1,-1,-1,-1,-1,-1,-1,-1,-1,-1,-1,-1,-1,-1],"split_conditions":[1E-45,1.3292139E2,2.562223E2,1E-45,1.9083325E2,1E-45,2.9650202E-3,8.055627E-3,1.2316959E2,4.9573923E-3,9.303497E-3,1E-45,2.4800589E2,-3.7156782E-1,1E-45,1.2460226E2,1.1384331E-2,8.085E1,-1.3927901E0,-5.305824E-1,1E-45,7.613724E-1,1.833458E-1,1.4020128E2,1.8399286E2,1.2161487E2,-1.8892691E0,3.034412E2,9.2180556E-1,-5.558968E-1,-3.362017E-1,2.2671537E-1,-3.8849932E-1,-9.928142E-1,-5.185513E-1,1.5573135E-1,-6.4194125E-1,1.5630729E0,5.19029E-1,-4.0819642E-1,3.0557087E-1,-8.908729E-1,1.10352375E-1,3.44359E0,1.0801905E0],"split_indices":[2,0,0,3,0,3,1,1,0,1,1,4,0,0,3,0,1,0,0,0,3,0,0,0,0,0,0,0,0,0,0,0,0,0,0,0,0,0,0,0,0,0,0,0,0],"split_type":[1,0,0,1,0,1,0,0,0,0,0,1,0,0,1,0,0,0,0,0,1,0,0,0,0,0,0,0,0,0,0,0,0,0,0,0,0,0,0,0,0,0,0,0,0],"sum_hessian":[6.18E2,2.38E2,3.8E2,2.02E2,3.6E1,3.61E2,1.9E1,1.4E2,6.2E1,3.2E1,4E0,1.77E2,1.84E2,2E0,1.7E1,8.4E1,5.6E1,5.9E1,3E0,8E0,2.4E1,3E0,1E0,1.29E2,4.8E1,1.82E2,2E0,6E0,1.1E1,5.5E1,2.9E1,1E1,4.6E1,8E0,5.1E1,2E1,4E0,8E0,1.21E2,2.4E1,2.4E1,5E0,1.77E2,1E0,5E0],"tree_param":{"num_deleted":"0","num_feature":"5","num_nodes":"45","size_leaf_vector":"1"}},{"base_weights":[1.0253916E-1,-2.9252508E0,3.3110523E0,1.135618E0,-4.1349216E0,1.6824135E1,2.6917403E0,3.77173E0,-2.856404E0,-5.1776214E0,-2.586713E0,4.6415305E0,7.22435E0,2.0136178E0,1.0830153E1,-1.0635785E0,1.26022005E1,7.8610855E-1,-1.14429455E1,-4.1710553E0,-7.209089E0,-8.597929E-1,-7.2879095E0,-4.3820763E0,1.2124519E0,-2.7118242E0,2.7118096E0,-3.467967E-1,1.2433364E1,3.2664284E-1,-3.07484E-1,2.1638448E0,8.611488E-2,-1.4240144E-1,1.1087666E0,3.592862E-1,-2.4190166E0,-5.328178E-1,2.7411836E-1,-5.618972E-1,-1.1378683E0,1.9324462E-1,-4.283741E-1,-4.6723148E-1,-1.7862062E0,-5.9664156E-2,-5.4450077E-1,-3.9289108E-1,7.702824E-1,5.168697E-1,1.3773221E-1,1.783409E0,8.8449043E-1],"categories":[1,2,5,7,10,11,12,13,0,1,2,4,5,6,7,8,9,10,11,12,13,0,1,2,4,3,4,0,1,2,4,1,7,11,12,0,2,3,4,5,8,9,11,12,13,0,1,2,3,5,6,7,8,9,10,11,12,13],"categories_nodes":[1,2,5,8,10,16,21,26,28],"categories_segments":[0,8,21,25,26,27,31,35,45],"categories_sizes":[8,13,4,1,1,4,4,10,13],"default_left":[0,1,1,0,0,1,0,0,1,0,1,0,0,0,0,0,1,0,0,0,0,1,0,0,0,0,1,0,1,0,0,0,0,0,0,0,0,0,0,0,0,0,0,0,0,0,0,0,0,0,0,0,0],"id":26,"left_children":[1,3,5,7,9,11,13,15,17,19,21,-1,23,25,27,29,31,33,35,37,39,41,43,45,-1,47,49,-1,51,-1,-1,-1,-1,-1,-1,-1,-1,-1,-1,-1,-1,-1,-1,-1,-1,-1,-1,-1,-1,-1,-1,-1,-1],"loss_changes":[6.0230874E3,1.5717241E3,2.4737263E3,7.895065E2,3.8372852E2,3.357575E3,1.5731372E3,1.9348158E3,9.4729297E2,2.6847217E2,8.137116E2,0E0,6.787386E2,8.915569E2,5.4742236E2,2.71307E2,1.6788867E3,5.166785E2,1.8118944E3,8.144359E2,2.4768018E2,7.253142E2,6.6330054E2,1.28459015E1,0E0,4.7390714E2,7.600935E2,0E0,2.2986475E2,0E0,0E0,0E0,0E0,0E0,0E0,0E0,0E0,0E0,0E0,0E0,0E0,0E0,0E0,0E0,0E0,0E0,0E0,0E0,0E0,0E0,0E0,0E0,0E0],"parents":[2147483647,0,0,1,1,2,2,3,3,4,4,5,5,6,6,7,7,8,8,9,9,10,10,12,12,13,13,14,14,15,15,16,16,17,17,18,18,19,19,20,20,21,21,22,22,23,23,25,25,26,26,28,28],"right_children":[2,4,6,8,10,12,14,16,18,20,22,-1,24,26,28,30,32,34,36,38,40,42,44,46,-1,48,50,-1,52,-1,-1,-1,-1,-1,-1,-1,-1,-1,-1,-1,-1,-1,-1,-1,-1,-1,-1,-1,-1,-1,-1,-1,-1],"split_conditions":[1.7161673E2,1E-45,1E-45,1.4865126E2,1.2460226E2,1E-45,2.562223E2,1.2460226E2,1E-45,1.1905079E-2,1E-45,4.6415305E0,2.1703674E-2,1.804832E2,2.9650202E-3,1.1110599E2,1E-45,1.6532812E2,1.1822183E-2,8.055627E-3,1.1617076E2,1E-45,2.8730523E-2,1.7914946E2,1.2124519E0,2.8730523E-2,1E-45,-3.467967E-1,1E-45,3.2664284E-1,-3.07484E-1,2.1638448E0,8.611488E-2,-1.4240144E-1,1.1087666E0,3.592862E-1,-2.4190166E0,-5.328178E-1,2.7411836E-1,-5.618972E-1,-1.1378683E0,1.9324462E-1,-4.283741E-1,-4.6723148E-1,-1.7862062E0,-5.9664156E-2,-5.4450077E-1,-3.9289108E-1,7.702824E-1,5.168697E-1,1.3773221E-1,1.783409E0,8.8449043E-1],"split_indices":[0,3,3,0,0,4,0,0,4,1,4,0,1,0,1,0,4,0,1,1,0,3,1,0,0,1,3,0,3,0,0,0,0,0,0,0,0,0,0,0,0,0,0,0,0,0,0,0,0,0,0,0,0],"split_type":[0,1,1,0,0,1,0,0,1,0,1,0,0,0,0,0,1,0,0,0,0,1,0,0,0,0,1,0,1,0,0,0,0,0,0,0,0,0,0,0,0,0,0,0,0,0,0,0,0,0,0,0,0],"sum_hessian":[6.18E2,3.18E2,3E2,7.3E1,2.45E2,1.2E1,2.88E2,4.4E1,2.9E1,1.45E2,1E2,2E0,1E1,2.67E2,2.1E1,2.9E1,1.5E1,2.1E1,8E0,9.9E1,4.6E1,7.4E1,2.6E1,3E0,7E0,3.4E1,2.33E2,2E0,1.9E1,9E0,2E1,8E0,7E0,1.8E1,3E0,4E0,4E0,8.5E1,1.4E1,3.5E1,1.1E1,4.1E1,3.3E1,2.2E1,4E0,1E0,2E0,3.1E1,3E0,8.1E1,1.52E2,6E0,1.3E1],"tree_param":{"num_deleted":"0","num_feature":"5","num_nodes":"53","size_leaf_vector":"1"}},{"base_weights":[1.0089906E-1,-2.6429815E0,3.0085301E0,1.0379423E0,-3.7395074E0,1.5545553E1,2.434171E0,3.4449797E0,-2.6072118E0,-4.6732755E0,-2.3526793E0,4.332094E0,6.5572147E0,1.8161093E0,9.852641E0,-9.565829E-1,1.1482598E1,2.5285015E0,-7.911492E0,-3.7565396E0,-6.5243454E0,-7.7694416E-1,-6.642585E0,-4.0949135E0,1.1063627E0,-4.4379792E-1,3.0596642E0,-3.2367656E-1,1.132342E1,2.972448E-1,-2.7819985E-1,1.9715025E0,7.857933E-2,-6.4376044E-1,7.189241E-1,-9.464905E-2,-1.8201246E0,-4.3814826E-1,6.764477E-1,-7.5810474E-1,-1.8564437E-1,1.7438097E-1,-3.8679653E-1,-4.225405E-1,-1.6433095E0,-5.6681063E-2,-5.0820106E-1,4.8625985E-1,-1.5658596E-1,9.3482393E-1,1.8838058E-1,1.6305447E0,8.023591E-1],"categories":[1,2,5,7,10,11,12,13,0,1,2,4,5,6,7,8,9,10,11,12,13,0,1,2,4,0,3,4,0,1,2,4,1,7,11,12,1,2,3,4,5,7,8,9,11,12,13,0,2,3,4,5,6,7,8,9,10,11,12,13,0,1,2,3,5,6,7,8,9,10,11,12,13],"categories_nodes":[1,2,5,8,10,16,21,25,26,28],"categories_segments":[0,8,21,25,27,28,32,36,47,60],"categories_sizes":[8,13,4,2,1,4,4,11,13,13],"default_left":[0,1,1,0,0,1,0,0,1,0,1,0,0,0,0,0,1,0,0,0,0,1,0,0,0,1,1,0,1,0,0,0,0,0,0,0,0,0,0,0,0,0,0,0,0,0,0,0,0,0,0,0,0],"id":27,"left_children":[1,3,5,7,9,11,13,15,17,19,21,-1,23,25,27,29,31,33,35,37,39,41,43,45,-1,47,49,-1,51,-1,-1,-1,-1,-1,-1,-1,-1,-1,-1,-1,-1,-1,-1,-1,-1,-1,-1,-1,-1,-1,-1,-1,-1],"loss_changes":[4.9464526E3,1.2914382E3,2.1295872E3,6.582594E2,3.075691E2,2.9614456E3,1.3071921E3,1.6029977E3,8.372421E2,2.2324463E2,6.7757434E2,0E0,5.733363E2,7.545234E2,4.6018726E2,2.2343275E2,1.3934785E3,7.149004E2,1.0577949E3,6.871417E2,2.1775769E2,5.9112274E2,5.695299E2,1.1049789E1,0E0,5.792081E2,1.2616333E3,0E0,1.9796826E2,0E0,0E0,0E0,0E0,0E0,0E0,0E0,0E0,0E0,0E0,0E0,0E0,0E0,0E0,0E0,0E0,0E0,0E0,0E0,0E0,0E0,0E0,0E0,0E0],"parents":[2147483647,0,0,1,1,2,2,3,3,4,4,5,5,6,6,7,7,8,8,9,9,10,10,12,12,13,13,14,14,15,15,16,16,17,17,18,18,19,19,20,20,21,21,22,22,23,23,25,25,26,26,28,28],"right_children":[2,4,6,8,10,12,14,16,18,20,22,-1,24,26,28,30,32,34,36,38,40,42,44,46,-1,48,50,-1,52,-1,-1,-1,-1,-1,-1,-1,-1,-1,-1,-1,-1,-1,-1,-1,-1,-1,-1,-1,-1,-1,-1,-1,-1],"split_conditions":[1.7161673E2,1E-45,1E-45,1.4865126E2,1.2460226E2,1E-45,2.562223E2,1.2460226E2,1E-45,1.1905079E-2,1E-45,4.332094E0,2.1703674E-2,1.9145538E2,2.9650202E-3,1.1110599E2,1E-45,1.5737148E2,1.5812322E-2,1.0822018E-2,2.5729937E-2,1E-45,2.8730523E-2,1.7914946E2,1.1063627E0,1E-45,1E-45,-3.2367656E-1,1E-45,2.972448E-1,-2.7819985E-1,1.9715025E0,7.857933E-2,-6.4376044E-1,7.189241E-1,-9.464905E-2,-1.8201246E0,-4.3814826E-1,6.764477E-1,-7.5810474E-1,-1.8564437E-1,1.7438097E-1,-3.8679653E-1,-4.225405E-1,-1.6433095E0,-5.6681063E-2,-5.0820106E-1,4.8625985E-1,-1.5658596E-1,9.3482393E-1,1.8838058E-1,1.6305447E0,8.023591E-1],"split_indices":[0,3,3,0,0,4,0,0,4,1,4,0,1,0,1,0,4,0,1,1,1,3,1,0,0,3,3,0,3,0,0,0,0,0,0,0,0,0,0,0,0,0,0,0,0,0,0,0,0,0,0,0,0],"split_type":[0,1,1,0,0,1,0,0,1,0,1,0,0,0,0,0,1,0,0,0,0,1,0,0,0,1,1,0,1,0,0,0,0,0,0,0,0,0,0,0,0,0,0,0,0,0,0,0,0,0,0,0,0],"sum_hessian":[6.18E2,3.18E2,3E2,7.3E1,2.45E2,1.2E1,2.88E2,4.4E1,2.9E1,1.45E2,1E2,2E0,1E1,2.67E2,2.1E1,2.9E1,1.5E1,1.5E1,1.4E1,9.9E1,4.6E1,7.4E1,2.6E1,3E0,7E0,9.5E1,1.72E2,2E0,1.9E1,9E0,2E1,8E0,7E0,5E0,1E1,9E0,5E0,9.4E1,5E0,3.7E1,9E0,4.1E1,3.3E1,2.2E1,4E0,1E0,2E0,1.6E1,7.9E1,2.6E1,1.46E2,6E0,1.3E1],"tree_param":{"num_deleted":"0","num_feature":"5","num_nodes":"53","size_leaf_vector":"1"}},{"base_weights":[9.9986285E-2,-3.144515E0,2.1349885E0,-3.3156066E0,5.5256896E0,5.1716356E0,1.1504099E0,-2.60847E0,-4.9790297E0,6.1177486E-1,1.5787278E-1,7.64972E0,-3.1297747E-2,2.3491144E0,-1.4835745E0,-8.688129E-1,-3.1860442E0,-8.838118E-1,-4.47121E0,3.000382E0,1.1053379E1,-2.046798E0,4.4059324E0,4.905234E-1,3.6747396E0,-7.8448033E0,5.3686285E-1,-2.2038789E-1,2.0541005E-1,-4.815293E-1,-2.848582E-1,-3.7977305E-1,-7.660879E-1,-2.7460623E-1,8.942973E-1,-8.1799823E-1,1.2425342E0,2.0012856E-1,-2.7912998E-1,4.960456E-1,-2.9238893E-2,8.875188E-1,-2.6823524E-2,1.0580233E0,2.2984222E-1,-2.8089616E-1,-1.6306409E0,-1.6412319E-1,9.3664724E-1],"categories":[0,0,1,2,4,2,5,11,0,1,5,8,9,12,13,4,10,11,0,2,4,1,8,9,0,2,3,4,5,6,7,8,9,10,11,12,13],"categories_nodes":[0,2,3,5,6,7,21,24],"categories_segments":[0,1,5,8,15,18,21,24],"categories_sizes":[1,4,3,7,3,3,3,13],"default_left":[1,0,1,1,0,1,1,1,0,0,0,0,0,0,0,0,0,0,0,0,0,1,0,0,1,0,0,0,0,0,0,0,0,0,0,0,0,0,0,0,0,0,0,0,0,0,0,0,0],"id":28,"left_children":[1,3,5,7,9,11,13,15,17,-1,-1,19,21,23,25,27,29,-1,31,33,35,37,39,41,43,45,47,-1,-1,-1,-1,-1,-1,-1,-1,-1,-1,-1,-1,-1,-1,-1,-1,-1,-1,-1,-1,-1,-1],"loss_changes":[4.0937024E3,3.7285352E2,1.1331709E3,2.6343506E2,2.0259094E0,1.1993169E3,9.1596466E2,1.6503027E2,9.5703735E1,0E0,0E0,9.637959E2,2.8625845E2,4.884928E2,1.1737859E3,1.723251E2,5.500952E1,0E0,1.0624121E2,9.8072363E2,1.0515869E3,7.1889915E1,2.7503693E1,5.367833E2,1.0781635E3,8.916444E2,1.3615934E3,0E0,0E0,0E0,0E0,0E0,0E0,0E0,0E0,0E0,0E0,0E0,0E0,0E0,0E0,0E0,0E0,0E0,0E0,0E0,0E0,0E0,0E0],"parents":[2147483647,0,0,1,1,2,2,3,3,4,4,5,5,6,6,7,7,8,8,11,11,12,12,13,13,14,14,15,15,16,16,18,18,19,19,20,20,21,21,22,22,23,23,24,24,25,25,26,26],"right_children":[2,4,6,8,10,12,14,16,18,-1,-1,20,22,24,26,28,30,-1,32,34,36,38,40,42,44,46,48,-1,-1,-1,-1,-1,-1,-1,-1,-1,-1,-1,-1,-1,-1,-1,-1,-1,-1,-1,-1,-1,-1],"split_conditions":[1E-45,1.9083325E2,1E-45,1E-45,9.303497E-3,1E-45,1E-45,1E-45,8.0341286E1,6.1177486E-1,1.5787278E-1,6.918154E-3,2.0669006E2,1.8144243E2,1.7771686E2,9.471727E-3,4.8550772E-3,-8.838118E-1,1.2316959E2,2.562223E2,1.2460226E2,1E-45,2.3332558E2,1.1110599E2,1E-45,1.5246698E2,1.8752994E-2,-2.2038789E-1,2.0541005E-1,-4.815293E-1,-2.848582E-1,-3.7977305E-1,-7.660879E-1,-2.7460623E-1,8.942973E-1,-8.1799823E-1,1.2425342E0,2.0012856E-1,-2.7912998E-1,4.960456E-1,-2.9238893E-2,8.875188E-1,-2.6823524E-2,1.0580233E0,2.2984222E-1,-2.8089616E-1,-1.6306409E0,-1.6412319E-1,9.3664724E-1],"split_indices":[2,0,4,3,1,3,3,4,0,0,0,1,0,0,0,1,1,0,0,0,0,3,0,0,3,0,1,0,0,0,0,0,0,0,0,0,0,0,0,0,0,0,0,0,0,0,0,0,0],"split_type":[1,0,1,1,0,1,1,1,0,0,0,0,0,0,0,0,0,0,0,0,0,1,0,0,1,0,0,0,0,0,0,0,0,0,0,0,0,0,0,0,0,0,0,0,0,0,0,0,0],"sum_hessian":[6.18E2,2.38E2,3.8E2,2.34E2,4E0,9.2E1,2.88E2,1.66E2,6.8E1,3E0,1E0,6.2E1,3E1,1.98E2,9E1,4.2E1,1.24E2,6E0,6.2E1,2.7E1,3.5E1,2.1E1,9E0,8.3E1,1.15E2,2.1E1,6.9E1,2.9E1,1.3E1,1.9E1,1.05E2,5.3E1,9E0,1.4E1,1.3E1,2E0,3.3E1,3E0,1.8E1,8E0,1E0,6E0,7.7E1,1.8E1,9.7E1,1.4E1,7E0,5.6E1,1.3E1],"tree_param":{"num_deleted":"0","num_feature":"5","num_nodes":"49","size_leaf_vector":"1"}},{"base_weights":[9.063419E-2,-2.1749654E0,2.4914172E0,8.230373E-1,-3.0679624E0,1.40769E1,1.96165E0,3.0656784E0,-2.568359E0,-2.8992076E0,-9.33495E0,3.9604535E0,5.8350997E0,9.046097E-1,5.255753E0,-7.946673E-1,1.0112222E1,7.0079523E-1,-1.0274251E1,-3.371125E0,6.6691744E-1,-1.1809921E0,-2.92334E-1,-3.9348602E0,9.990692E0,2.8789535E-1,7.4136457E0,3.8861165E0,8.7276125E0,8.984391E-2,-3.8008E-1,1.7319056E0,7.405052E-2,-1.2812717E-1,9.9404144E-1,3.2992217E-1,-2.1792874E0,-3.2099974E-1,-1.3580053E0,1.1460346E0,-1.5184449E-1,-5.2505493E-2,-4.8964438E-1,1.0591797E0,2.8914794E-1,-4.4956723E-1,9.276592E-2,9.4668216E-1,-2.6524696E-1,5.117392E-1,-4.7602803E-1,-3.6171874E-1,1.0392718E0],"categories":[1,2,5,7,10,11,12,13,0,1,2,4,5,6,7,8,9,10,11,12,13,0,1,2,4,3,0,1,2,4,0,1,3,4,5,6,7,8,9,10,11,12,13,4],"categories_nodes":[1,2,5,8,16,20,27],"categories_segments":[0,8,21,25,26,30,43],"categories_sizes":[8,13,4,1,4,13,1],"default_left":[0,1,1,0,0,1,0,0,1,0,0,0,0,0,0,0,1,0,0,0,1,0,0,0,0,0,0,1,0,0,0,0,0,0,0,0,0,0,0,0,0,0,0,0,0,0,0,0,0,0,0,0,0],"id":29,"left_children":[1,3,5,7,9,11,13,15,17,19,21,-1,23,25,27,29,31,33,35,37,39,-1,-1,41,43,45,47,49,51,-1,-1,-1,-1,-1,-1,-1,-1,-1,-1,-1,-1,-1,-1,-1,-1,-1,-1,-1,-1,-1,-1,-1,-1],"loss_changes":[3.3722917E3,8.565542E2,1.8198055E3,5.706944E2,2.3310156E2,2.5040212E3,1.0015437E3,1.2321299E3,7.6295276E2,4.0783118E2,6.068689E1,0E0,4.8591165E2,8.8099316E2,2.989464E2,1.5610585E2,1.0678217E3,4.1563434E2,1.479029E3,3.0678003E2,7.014409E2,0E0,0E0,1.05443535E1,3.5130615E0,6.223619E2,4.1779297E2,5.779571E2,4.281449E2,0E0,0E0,0E0,0E0,0E0,0E0,0E0,0E0,0E0,0E0,0E0,0E0,0E0,0E0,0E0,0E0,0E0,0E0,0E0,0E0,0E0,0E0,0E0,0E0],"parents":[2147483647,0,0,1,1,2,2,3,3,4,4,5,5,6,6,7,7,8,8,9,9,10,10,12,12,13,13,14,14,15,15,16,16,17,17,18,18,19,19,20,20,23,23,24,24,25,25,26,26,27,27,28,28],"right_children":[2,4,6,8,10,12,14,16,18,20,22,-1,24,26,28,30,32,34,36,38,40,-1,-1,42,44,46,48,50,52,-1,-1,-1,-1,-1,-1,-1,-1,-1,-1,-1,-1,-1,-1,-1,-1,-1,-1,-1,-1,-1,-1,-1,-1],"split_conditions":[1.7161673E2,1E-45,1E-45,1.4865126E2,1.6918962E2,1E-45,2.3002625E2,1.2460226E2,1E-45,1.4445822E2,1.697562E2,3.9604535E0,2.1703674E-2,2.9174488E-2,2.5942123E2,1.1617076E2,1E-45,1.6532812E2,1.1822183E-2,1.428943E2,1E-45,-1.1809921E0,-2.92334E-1,1.7914946E2,1.8558037E2,1.7914946E2,2.0446948E2,1E-45,2.9650202E-3,8.984391E-2,-3.8008E-1,1.7319056E0,7.405052E-2,-1.2812717E-1,9.9404144E-1,3.2992217E-1,-2.1792874E0,-3.2099974E-1,-1.3580053E0,1.1460346E0,-1.5184449E-1,-5.2505493E-2,-4.8964438E-1,1.0591797E0,2.8914794E-1,-4.4956723E-1,9.276592E-2,9.4668216E-1,-2.6524696E-1,5.117392E-1,-4.7602803E-1,-3.6171874E-1,1.0392718E0],"split_indices":[0,3,3,0,0,4,0,0,4,0,0,0,1,1,0,0,4,0,1,0,3,0,0,0,0,0,0,3,1,0,0,0,0,0,0,0,0,0,0,0,0,0,0,0,0,0,0,0,0,0,0,0,0],"split_type":[0,1,1,0,0,1,0,0,1,0,0,0,0,0,0,0,1,0,0,0,1,0,0,0,0,0,0,1,0,0,0,0,0,0,0,0,0,0,0,0,0,0,0,0,0,0,0,0,0,0,0,0,0],"sum_hessian":[6.18E2,3.18E2,3E2,7.3E1,2.45E2,1.2E1,2.88E2,4.4E1,2.9E1,2.4E2,5E0,2E0,1E1,2.19E2,6.9E1,2.9E1,1.5E1,2.1E1,8E0,2.12E2,2.8E1,3E0,2E0,3E0,7E0,2.01E2,1.8E1,5.1E1,1.8E1,1.9E1,1E1,8E0,7E0,1.8E1,3E0,4E0,4E0,2.1E2,2E0,4E0,2.4E1,1E0,2E0,6E0,1E0,2.3E1,1.78E2,1.5E1,3E0,4.5E1,6E0,2E0,1.6E1],"tree_param":{"num_deleted":"0","num_feature":"5","num_nodes":"53","size_leaf_vector":"1"}},{"base_weights":[8.831919E-2,-2.6072762E0,1.7790252E0,-8.1636E-1,-3.2030227E0,4.4174047E0,9.2384076E-1,-1.2689686E0,4.50665E0,-2.686509E0,-5.112711E0,1.4235644E1,3.1959784E0,1.9806994E0,-1.3974638E0,-2.2204738E0,9.159855E-1,1.9523875E-1,5.558695E-1,1.0679321E0,-2.7745893E0,-4.569618E0,-1.233202E0,-7.3812664E-1,2.056253E1,-2.1540105E0,4.0619817E0,1.5479468E0,5.776438E0,-6.845332E0,3.3468714E-1,-1.5969518E-1,-4.1907215E-1,3.6968682E-2,5.1015323E-1,1.5763855E-1,3.7298586E-2,-3.1581005E-1,-1.7715229E-1,-7.8054225E-1,-3.6622772E-1,2.9291162E0,4.5111084E-1,3.126812E-1,1.7838236E0,-2.3075762E-1,1.9905825E-1,5.974087E-1,1.0105591E-1,-2.2344427E-1,-1.4635084E0,-1.5711336E-1,8.0701935E-1],"categories":[0,0,2,4,0,1,2,4,2,5,4,10,11,2,11,0,1,2,4,5,6,7,8,9,10,11,12,13],"categories_nodes":[0,1,2,4,6,15,24],"categories_segments":[0,1,4,8,10,13,15],"categories_sizes":[1,3,4,2,3,2,13],"default_left":[1,1,1,0,1,0,1,0,0,0,0,0,0,0,0,1,0,0,0,0,0,0,0,0,1,0,0,0,0,0,0,0,0,0,0,0,0,0,0,0,0,0,0,0,0,0,0,0,0,0,0,0,0],"id":30,"left_children":[1,3,5,7,9,11,13,15,17,19,21,23,25,27,29,31,33,-1,-1,35,37,39,-1,-1,41,-1,43,45,47,49,51,-1,-1,-1,-1,-1,-1,-1,-1,-1,-1,-1,-1,-1,-1,-1,-1,-1,-1,-1,-1,-1,-1],"loss_changes":[2.8257058E3,2.5238208E2,8.555698E2,1.5268243E2,1.6282666E2,1.069783E3,7.117689E2,1.2053661E2,2.5832748E0,5.0252197E1,8.871527E1,1.5194547E3,1.886904E3,3.1793896E2,8.6101526E2,4.2447327E1,3.9272087E1,0E0,0E0,8.2542133E-1,4.8261475E1,7.710962E1,0E0,0E0,9.8872E2,0E0,1.0006404E3,3.1178006E2,1.2802185E1,7.574877E2,1.0446536E3,0E0,0E0,0E0,0E0,0E0,0E0,0E0,0E0,0E0,0E0,0E0,0E0,0E0,0E0,0E0,0E0,0E0,0E0,0E0,0E0,0E0,0E0],"parents":[2147483647,0,0,1,1,2,2,3,3,4,4,5,5,6,6,7,7,8,8,9,9,10,10,11,11,12,12,13,13,14,14,15,15,16,16,19,19,20,20,21,21,24,24,26,26,27,27,28,28,29,29,30,30],"right_children":[2,4,6,8,10,12,14,16,18,20,22,24,26,28,30,32,34,-1,-1,36,38,40,-1,-1,42,-1,44,46,48,50,52,-1,-1,-1,-1,-1,-1,-1,-1,-1,-1,-1,-1,-1,-1,-1,-1,-1,-1,-1,-1,-1,-1],"split_conditions":[1E-45,1E-45,1E-45,1.9083325E2,1E-45,1.4865126E2,1E-45,9.471727E-3,2.3950616E2,8.488394E1,9.5138664E1,1.2460226E2,1.5858304E2,2.4394435E2,1.7771686E2,1E-45,2.4953915E-2,1.9523875E-1,5.558695E-1,7.753082E1,1.2116941E2,8.0341286E1,-1.233202E0,-7.3812664E-1,1E-45,-2.1540105E0,2.1257427E-2,5.506722E-3,1.2587651E-2,1.5246698E2,1.8752994E-2,-1.5969518E-1,-4.1907215E-1,3.6968682E-2,5.1015323E-1,1.5763855E-1,3.7298586E-2,-3.1581005E-1,-1.7715229E-1,-7.8054225E-1,-3.6622772E-1,2.9291162E0,4.5111084E-1,3.126812E-1,1.7838236E0,-2.3075762E-1,1.9905825E-1,5.974087E-1,1.0105591E-1,-2.2344427E-1,-1.4635084E0,-1.5711336E-1,8.0701935E-1],"split_indices":[2,4,4,0,3,0,3,1,0,0,0,0,0,0,0,3,1,0,0,0,0,0,0,0,3,0,1,1,1,0,1,0,0,0,0,0,0,0,0,0,0,0,0,0,0,0,0,0,0,0,0,0,0],"split_type":[1,1,1,0,1,0,1,0,0,0,0,0,0,0,0,1,0,0,0,0,0,0,0,0,1,0,0,0,0,0,0,0,0,0,0,0,0,0,0,0,0,0,0,0,0,0,0,0,0,0,0,0,0],"sum_hessian":[6.18E2,2.38E2,3.8E2,6E1,1.78E2,9.2E1,2.88E2,5.6E1,4E0,1.42E2,3.6E1,9E0,8.3E1,1.98E2,9E1,3.9E1,1.7E1,2E0,2E0,3E0,1.39E2,3.5E1,1E0,2E0,7E0,2E0,8.1E1,1.79E2,1.9E1,2.1E1,6.9E1,3.1E1,8E0,1.6E1,1E0,1E0,2E0,9.9E1,4E1,6E0,2.9E1,4E0,3E0,7.7E1,4E0,1.8E1,1.61E2,1.8E1,1E0,1.4E1,7E0,5.6E1,1.3E1],"tree_param":{"num_deleted":"0","num_feature":"5","num_nodes":"53","size_leaf_vector":"1"}},{"base_weights":[7.9903066E-2,-1.8090726E0,2.0815754E0,6.551858E-1,-2.5172079E0,1.2608327E1,1.6008509E0,2.6141875E0,-2.5166092E0,-1.9442083E0,-4.036144E0,3.5775025E0,5.143925E0,6.9918287E-1,